128 64
/location 0.06499874 0.013087043 -0.12313891 0.44446507 -0.29408848 -0.058181923 0.2423489 0.096180014 -0.51683986 -0.3130198 -0.044881187 -0.112291984 0.49212405 0.32935098 0.39235622 0.21679595 -0.23883969 -0.31010118 0.44802293 0.13832438 -0.40547624 -0.34214145 -0.045710843 -0.3790095 0.3670207 0.28454936 0.012970584 -0.30698466 0.13926017 -0.25089675 0.22447003 0.21052563 0.16008435 -0.27857968 0.274386 0.21992792 0.0048679635 0.18098475 -0.113879465 0.23440297 0.18099064 0.1374112 -0.41179937 0.39532328 0.078099474 -0.031585295 -0.00806178 -0.0074518397 0.21329254 0.016626539 -0.40950558 -0.16332166 -0.18387254 -0.2572736 -0.4174946 -0.15790941 0.15500556 0.035683572 0.10537397 0.29964253 0.19902734 0.17577885 0.024220278 0.35312614
/organization 0.26144364 0.20724647 -0.022242343 0.12652771 -0.1434528 0.05525647 -0.07335918 0.19629808 -0.3511989 -0.25113943 -0.28452444 -0.26501483 0.20979814 0.18121658 0.03534475 -0.03928055 0.13307004 -0.24192624 0.12675442 0.36726788 -0.23619412 0.043596208 -0.28289968 0.0895327 -0.13162659 0.076156795 0.22369336 -0.5774814 0.6959693 0.17685977 0.37035006 0.3066036 -0.23976082 -0.027297258 0.00892535 0.41313607 -0.026115065 0.25414166 0.31111002 0.18769601 0.14134225 -0.14639348 0.17724654 0.44405127 0.17092656 -0.017050447 0.038877867 0.043066975 -0.07288594 -0.4112338 -0.38043892 0.11748834 -0.16503465 -0.29291722 -0.09778372 -0.12049182 0.08835254 -0.47455126 0.38573435 -0.088154346 0.09369005 0.35614854 -0.316845 0.100811474
/event 0.3553519 -0.35794827 0.6857633 1.0221068 0.14107384 -0.013568121 -0.29414967 -0.012577707 -0.04752857 -0.44925386 -0.019898633 0.16944394 0.4757954 0.26080444 -0.21097228 -0.043855697 -0.10349485 -0.9712544 0.826304 -0.19977704 0.6261266 -0.17181507 -0.7118112 0.21558167 -0.019925224 0.22120376 -0.29034847 -0.45203534 -0.5170914 -0.28491226 0.4301315 0.48389283 -0.4042914 0.4668273 0.073468834 0.3211593 -0.3890393 -0.030622546 0.36412394 0.20054762 0.37018523 0.09028087 0.5887943 -0.39458498 -0.4117875 0.1535961 0.6475338 0.23563802 0.37610275 0.13731886 -0.26611453 -1.0683051 0.5776055 -0.025253309 -0.090349555 0.038328853 -0.049473096 -0.4446262 -0.34304115 0.26016247 -0.76085746 0.16957238 0.04633917 0.005925898
/person 0.403691 -0.27399203 0.18219495 0.08363609 -0.5688975 0.5416482 0.06081329 0.2287313 -0.30900517 -0.47354504 -0.39351755 0.10926811 -0.27108118 0.16633132 0.10251941 -0.14456521 -0.011518663 -0.20974644 0.3637225 0.29323095 -0.35033402 0.09191445 -0.120775275 -0.10070882 -0.01924891 0.2535899 0.07856961 -0.5804826 0.24007231 0.074462146 0.4037531 0.0019885376 -0.15347004 0.043266788 -0.18057702 -0.07138548 -0.1815795 0.097918436 -0.018187987 -0.066683866 0.19937979 0.13620125 -0.30110446 0.26635918 -0.0030871572 -0.1326495 0.25305557 0.0120000355 0.23867166 0.09483455 -0.27662712 0.05740093 -0.14912815 -0.41290843 -0.09412571 -0.33777195 -0.17300022 -0.20078057 0.23671144 -0.32294914 -0.019990575 0.12846771 0.24277942 0.19057742
/product -0.47617054 -0.014232294 0.23480321 0.5830226 -0.6800627 0.5113273 0.30299568 0.022594389 -0.8795954 0.1152282 0.175017 0.45716715 0.37690082 0.016787214 -0.73756784 -0.055500332 -0.48388374 -0.5191609 0.5089298 -0.1924283 0.37195468 -0.35666585 0.1111611 0.36410263 0.2480047 -0.51232964 0.033072915 -0.8143942 -0.149892 -0.16339809 1.0319622 0.4489944 0.05689518 0.6734719 -1.1791391 0.07969618 -0.5574298 0.3593293 0.08075507 0.043410376 0.18674493 -0.02677431 0.66514695 0.3124323 -0.30233184 0.40340763 0.24017836 -0.13709836 0.48437238 -0.46543473 0.06932181 -0.8759371 -0.009950163 -0.05071729 0.3421099 -0.018685255 -0.40112412 0.2156347 -0.01986588 1.0514987 -0.4624223 0.6024402 0.0854314 1.1174227
/organization/company 0.3244998 0.07666646 -0.03250984 0.09595557 -0.42980346 -0.015375847 -0.10534669 0.047935706 -0.13432136 -0.53808165 -0.16054894 0.0024196284 -0.24136679 0.3667735 0.0038234836 -0.26419586 -0.14939427 0.14159594 0.120018795 0.52051026 -0.13985822 -0.14512855 -0.31178072 -0.23120394 -0.0886408 0.17606151 -0.20719811 -0.47242042 0.35595635 0.34439945 0.27606553 -0.06096993 -0.20424895 -0.12243605 -0.08268637 0.40980777 -0.044646576 0.274423 0.015635055 0.15455431 0.08503511 -0.07644738 -0.2284435 0.48689908 0.03815509 0.3991937 0.29918328 0.3441704 0.452082 -0.12267297 -0.26716954 -0.068909414 0.18761973 -0.3130692 -0.03687925 -0.4191242 -0.16058552 -0.20093986 0.12902418 -0.036501653 0.23665655 0.5353549 -0.03471659 0.13415867
/person/author 0.18361753 -0.24691209 0.42974073 -0.12132371 -0.27182055 0.42038366 0.13263343 -0.11104681 -0.4985401 -0.26629955 -0.1605915 0.107655995 -0.11429709 0.06723888 0.1913327 -0.2691695 -0.25915632 -0.021035353 0.50202155 0.25406304 -0.5719483 0.18577404 0.022523426 0.087062016 0.3123912 0.61493117 0.15383679 -0.5285489 0.12834321 -0.15609483 0.2649283 0.14687128 -0.06659578 0.083651364 -0.18713519 -0.083538674 -0.28117815 0.13446106 0.011700864 -0.12909272 0.079150185 0.31081223 -0.3110711 0.010036995 -0.24022125 0.057992756 0.3078844 0.30841812 0.017498856 0.052770402 -0.43765506 -0.13325183 -0.15565406 -0.72699267 -0.14738944 -0.22080734 -0.0011040381 -0.17794979 0.3537983 -0.13532539 -0.07544162 0.30986893 0.31804773 0.14753912
/person/musician 0.34109658 -0.03101352 0.24295942 0.06846566 -0.32634485 0.3546878 0.12233052 0.07811158 -0.26552886 -0.26438782 -0.5613687 0.24316515 -0.17464301 -0.03118694 0.040878408 0.016744554 -0.24913202 -0.2373824 0.33587635 0.4359875 -0.07849048 0.24381389 -0.09397337 -0.14961568 -0.062619925 0.31739902 0.29768655 -0.578335 -0.038138766 -0.14811945 0.47797114 -0.10658046 -0.18579268 0.28040367 -0.24876158 -0.055276114 -0.23961265 0.14506672 -0.10466678 -0.30949894 -0.019531555 0.28039527 -0.021077871 0.020123903 -0.013479111 -0.20775741 0.11382564 0.38999426 0.3560621 -0.2705012 -0.4261284 0.061507378 0.11524961 -0.46029207 -0.29625598 -0.41789907 0.08728624 -0.32610714 0.663067 -0.020858923 0.16172643 0.13392127 0.20171131 0.13692522
/building -0.07727452 0.24031879 -0.4137028 0.25882977 -0.24231596 -0.28336462 0.055961754 -0.24715525 -0.6658033 -0.49337336 -0.15642701 -0.07863939 0.38186172 0.36461657 0.17329709 0.10568562 -0.12511367 -0.25280777 0.48373196 0.12418819 -0.11531077 0.24055682 -0.46267948 -0.120799474 0.2429254 -0.10330561 -0.094432384 -0.109040804 0.06724476 0.010960346 0.2621609 0.2628843 -0.074558586 -0.07359498 0.076913826 -0.015281789 0.52795386 -0.19741653 -0.1749946 0.30010656 0.61275434 -0.010029332 0.004786157 0.5780054 0.0990392 -0.027039682 -0.13443348 0.18828626 0.18630652 0.08138354 -0.7710855 -0.25474566 -0.21065892 -0.3193682 0.11788056 -0.14133123 -0.078859255 -0.5443226 0.24906854 0.1759688 0.4234935 0.05330908 -0.2991876 0.55248535
/medicine 0.8108077 0.3317435 0.3419075 -0.014082811 0.08269897 -0.14222321 -0.33721128 0.08127321 -0.58690214 -0.012715987 -0.36366475 -0.34845987 -0.05539589 0.12486905 -0.33407977 0.79577416 0.971328 -0.5952087 0.5677518 0.09297531 0.48317948 0.15069748 -0.13396262 0.15839225 0.484704 -0.25013596 -0.36706358 -0.4921729 0.3247267 -0.115210585 0.7614661 0.6773248 0.04195371 0.21504234 -0.43424657 0.5528692 -0.41570416 0.38984132 -0.059880283 0.104532935 0.2108298 -0.13774979 0.27488184 0.45902973 0.30760434 0.39710236 0.26095396 0.13950117 -0.27679798 -0.65126026 -0.53825545 -0.448542 -0.32124752 -0.14876838 -0.22860003 -0.2088189 -0.75053716 -0.36612374 0.31026638 0.26856118 -0.39595962 0.19626932 -0.7173703 0.1776337
/religion -0.064113304 0.10214459 0.115853064 0.45210806 0.13778208 0.23682393 0.28074634 0.052644443 -0.20740883 -0.42872676 -0.047516346 -0.5507644 0.40111408 0.4750737 -0.17088374 -0.06506057 0.2807189 -0.048553385 0.38001648 0.57476795 -0.15528174 0.03462435 0.042159542 -0.37283257 -0.11722711 0.17706358 0.44010758 -0.33649868 0.039646205 0.34380826 0.13874517 0.48613033 0.2934665 -0.06739601 0.014902902 0.5619291 0.3092963 0.24642944 0.16415283 0.075938225 0.099304244 -0.0015423005 0.29898393 0.5486423 0.078783475 0.3317314 0.14740434 -0.06379321 0.33585346 -0.2769159 -0.6763293 -0.0030479496 0.2713965 -0.08656252 -0.29146156 -0.008580449 -0.16781224 -0.03459585 0.11978531 0.14475627 0.25723973 0.4122191 -0.048514385 0.20316714
/religion/religion 0.122702844 0.22774553 0.08551372 0.47532713 0.08447626 0.20479524 0.32827866 0.10119288 -0.32580838 -0.47774285 -0.14145851 -0.60409755 0.29676422 0.5860428 -0.09440729 -0.03193489 0.23814254 0.03215383 0.3965466 0.32037258 -0.10546747 -0.12013899 0.16794595 -0.3542775 -0.18890706 0.036829118 0.46235278 -0.31663615 0.10328443 0.43323803 0.1402708 0.3732697 0.16627967 0.21711949 -0.048504014 0.6326138 0.36242697 0.2566466 0.301311 0.1314131 0.15695186 0.10770507 0.20768492 0.49400812 0.031623274 0.28203896 0.17638968 -0.17409244 0.32093334 -0.17191952 -0.6825643 0.036327332 0.2614023 -0.11399603 -0.45980015 0.04053967 -0.12831588 -0.073304035 0.16704397 0.11354217 0.3095191 0.16805264 0.015141762 0.3883374
/person/director 0.28929827 -0.22850831 -0.058017246 -0.039412905 -0.41328433 0.37434006 -0.13513394 0.09215107 -0.1688552 -0.35451278 -0.72336495 0.27418578 -0.14535983 0.16776736 -0.3410339 0.038434226 -0.26938346 -0.12369416 0.25763175 0.41994327 0.0904414 -0.008534433 -0.22586383 -0.23887175 -0.16236813 0.08370574 0.37763783 -0.61171216 0.0655181 -0.08360409 0.45437983 -0.32245693 -0.4591223 0.00018159296 -0.040472385 0.12133174 -0.2863033 0.15786976 0.14475074 -0.17401266 0.14846112 -0.031928085 -0.251884 0.47910547 0.019067023 -0.06551952 0.41469607 0.23550332 0.15243067 -0.18660967 -0.39900663 0.14478461 -0.12174995 -0.43184844 -0.22807902 -0.36668575 -0.017014068 -0.021623477 0.45557752 -0.09041118 -0.19956738 0.029996468 0.05609205 0.052640866
/location/city -0.009970533 -0.30289802 -0.16380408 0.27539843 -0.06424963 -0.10746129 0.18488093 0.01331653 -0.97030944 -0.08209291 -0.0054588304 -0.1185906 0.38457766 -0.24970385 0.36055076 0.15538923 -0.0018542686 -0.39729908 0.15542115 0.15979216 -0.4720132 -0.19950415 -0.36094147 -0.07728158 0.32054067 0.44941467 -0.30968478 -0.2692948 0.3894208 0.13044523 0.49882317 0.36369836 -0.19250736 -0.05308849 0.2547272 0.6492084 -0.41681278 0.06567519 0.07481868 -0.16443503 0.18888585 0.06939312 -0.39990848 0.3881601 0.12925726 -0.002640365 -0.012530608 -0.009062653 -0.0035187854 0.11064889 -0.26972568 0.19114204 0.11021651 -0.38046372 -0.5339447 0.25265482 -0.3833692 -0.028672148 -0.0130694015 0.077943586 0.020800838 -0.025487317 -0.32093576 0.61217916
/person/actor 0.39171848 -0.41877046 0.31304413 0.061494067 -0.48335895 0.22395524 -0.06971895 0.17674586 -0.1656435 -0.19974819 -0.54714197 0.3756882 -0.2000216 -0.057370573 -0.10585526 -0.11626539 -0.34582758 -0.021263143 0.31226173 0.515814 -0.10106978 0.13495645 -0.08692565 0.10753915 -0.018804409 0.3559598 0.18951991 -0.6169269 -0.10245932 -0.056342576 0.59486365 0.0212575 -0.07961323 -0.050777275 -0.2541904 -0.18489929 -0.32702795 0.13033783 -0.004101999 -0.3493606 0.12693359 0.29841202 -0.0912278 0.026619105 -0.18179785 -0.10003426 0.1814345 0.2739262 -0.102557175 -0.07006364 -0.40841785 -0.08499862 0.16261427 -0.7415302 -0.29494774 -0.48597568 -0.074861094 -0.31138024 0.6566321 -0.03035444 -0.08139756 0.22374119 0.3225353 0.22919466
/government_agency 0.016094485 0.049079265 0.36494866 0.20112082 -0.030534131 0.09934946 0.24686538 0.059026364 -0.23866157 -0.724616 -0.39121154 -0.48335466 0.0991818 0.31630662 0.215714 -0.09230554 0.055921238 -0.16948971 0.09514708 0.23236284 -0.045032095 -0.17596923 0.10744519 -0.4462654 -0.050767254 0.258352 0.34424424 -0.5243296 0.22604597 0.18198329 0.6405173 0.481926 -0.080964334 0.086838044 0.055571165 0.36194173 0.29097435 0.30081853 0.1473908 -0.13793515 0.17420751 0.04856656 -0.15086131 0.48883733 -0.019431373 0.33191597 0.053689327 0.18101293 -0.22645952 -0.146379 -0.4418425 0.14033318 -0.105903514 0.0906371 -0.19020191 0.33804083 -0.16187792 0.13014656 0.13633922 0.09652387 0.08202174 0.04462831 0.08306882 0.25658047
/organization/educational_institution 0.18581219 0.24922112 0.03935892 0.36415422 -0.108935036 0.092541344 0.22638528 -0.064916134 -0.49813983 -0.50194985 -0.053951558 -0.25697482 0.074076876 0.23499876 0.31300846 -0.053053446 -0.014134372 -0.15199922 0.4903158 0.6028145 -0.18918823 -0.11876207 -0.02693878 -0.20863555 -0.25329906 -0.21667066 0.30214697 -0.35105607 0.21329859 0.00044014156 0.25667366 -0.0945268 -0.12467475 -0.04067025 0.28041542 0.23915216 0.3641438 0.40103918 -0.27640793 0.05528614 0.38718247 -0.19997141 0.031186292 0.62403 0.10340928 -0.25353646 -0.05833143 0.110464156 0.2751488 -0.018694954 -0.5004941 -0.18448703 0.11539201 0.06253014 -0.10851093 0.23784448 -0.13049366 -0.30586287 0.2319232 0.24559964 -0.050936807 0.29877478 -0.4185411 0.2763779
/person/politician 0.4861 -0.20160098 0.16991007 -0.2575908 -0.4675467 0.39310312 -0.01902418 0.2491106 -0.35527337 -0.20882656 -0.49315712 0.3983403 -0.13004832 0.16759652 -0.18035337 -0.13290155 -0.4361623 0.056343205 0.6714138 0.3148049 -0.3381022 0.065441035 0.048184063 0.0087479595 0.44435582 0.42555487 0.3724027 -0.47449777 0.15494706 -0.1544538 0.30066913 -0.15764402 -0.08923758 0.23442604 -0.25925758 -0.024477197 -0.2574314 0.07645849 0.09436326 -0.379241 0.3155762 0.13864993 0.14373751 -0.1859618 -0.3690408 -0.14327598 0.38028073 0.4362799 0.2330395 -0.03327939 -0.3776257 -0.06835875 0.02778282 -0.54341 -0.32001445 -0.023716126 -0.15194647 -0.34549937 0.4867774 -0.18903506 0.1170486 0.4380248 0.4113337 0.16656701
/government 0.23187527 -0.32635316 0.07095252 0.50844073 0.31751204 -0.07075746 0.6016508 0.24881053 -0.07834888 -0.39345303 -0.55397624 -0.35366756 0.06635066 0.4942213 -0.017835582 -0.159044 0.38121134 0.11851219 0.20459105 0.09783865 -0.18531534 -0.026501434 0.023831988 -0.45184067 -0.061581932 -0.13313054 0.36230454 -0.61197424 0.24887298 0.18132442 0.5381563 0.43898118 -0.20161302 0.1479621 -0.015193388 0.5689218 0.28343257 0.07464759 0.38504142 0.29692245 0.04598205 -0.05621572 0.30978397 0.64454645 0.13118812 0.232637 -0.00887757 0.08133586 0.14571232 -0.27949333 -0.4045839 -0.013058032 0.17640422 -0.2188752 -0.029591206 0.2818668 -0.2238811 0.0470445 0.4725963 0.08084184 0.18961021 0.3202259 -0.18352948 0.30597308
/person/soldier 0.2547693 -0.4108029 0.28217968 -0.02638048 -0.3202266 0.3598031 -0.024208868 0.09833001 -0.45184737 -0.22927405 -0.4431098 0.47530544 -0.14727347 0.08603475 0.0043371543 -0.1439423 -0.3621235 -0.09080831 0.47697273 0.2929379 -0.4276696 0.05188968 -0.08953663 0.030401152 0.19545867 0.26665503 0.17906223 -0.58155394 -0.0066747884 -0.13454834 0.34224448 -0.28888535 -0.051472377 -0.18145186 -0.39998245 -0.059618942 -0.25431693 -0.031069957 0.4708632 -0.15421963 0.3011975 0.28445363 0.025644781 -0.024078803 -0.32330263 0.06662951 0.3079397 0.18374945 0.0855309 0.281309 -0.27931032 -0.14283304 -0.2701228 -0.501098 -0.42961738 -0.2567246 -0.053960416 -0.08153822 0.7978481 -0.22860608 -0.1722783 0.6138375 0.20625158 0.06266542
/location/province 0.3150679 -0.21647853 -0.008789929 0.1581479 -0.21307075 0.00816343 0.19649422 0.037304964 -0.34038448 -0.32653812 -0.1688741 -0.31955928 -0.025745481 -0.011367997 0.22001354 0.03340393 -0.056949757 -0.43694076 0.046839043 0.073946424 -0.6908182 0.042426195 0.026032547 -0.03776292 0.28711393 0.16845988 -0.113812454 -0.33673322 0.083318695 0.03913549 0.31495494 0.2157516 -0.06385149 -0.15262742 -0.0047434373 0.54767174 -0.095 0.13270456 0.009889219 -0.006901429 0.070360474 0.35366106 -0.08870569 0.29660973 -0.34118995 0.028638264 0.4920996 0.16673069 0.20998737 -0.25699726 -0.17546898 0.1337303 -0.067344435 -0.28425097 -0.48118678 0.1260248 0.0031999808 -0.04702005 0.7762722 0.048982393 0.14999369 -0.0056102886 -0.18728292 0.27497917
/livingthing/animal -0.17039418 -0.018419899 0.81133807 1.1508533 0.33386567 -0.14484395 0.11845639 0.5938391 -1.3517299 -0.24973525 -0.41127256 1.0057337 -0.19662078 0.14732625 -0.25004613 0.35921508 0.05175397 -0.27741963 0.6273372 0.7090325 0.40316552 0.07307 -0.050274134 -0.44097024 0.85927045 -0.46498504 -0.16236788 -0.7283237 -0.29828066 0.025747012 -0.2538447 0.69553185 0.028298585 0.010056039 -0.8517758 0.66180027 -0.026412211 -0.013287897 0.65850866 -0.6313694 0.12193996 0.054625064 0.36738655 0.6165695 -0.7623776 -0.52325207 0.7200411 0.3188686 -0.17046154 -0.4127785 -0.08270602 -1.2194455 0.06873145 -0.07251022 0.16221198 -0.5092677 -0.32984176 -0.30684334 -0.28644496 0.70467013 -0.3499628 -0.1138373 0.31822783 0.27531657
/food -0.306467 -0.07428783 0.9338073 0.9668179 0.10580648 -0.10922428 0.15220454 0.62434614 -1.3607881 -0.20714213 -0.2759342 0.9616484 -0.23516156 0.30012733 -0.25611272 0.23193388 0.22492258 -0.17404127 0.81783533 0.6950201 0.6192374 -0.09983816 -0.11245314 -0.28052568 0.86697745 -0.50047314 -0.32637224 -0.81811315 -0.13810797 -0.17469577 -0.27040693 0.7510025 0.004021477 0.14790644 -0.5813687 0.5416654 -0.100438565 -0.039351426 0.739149 -0.67217124 0.122774124 0.09031427 0.32017097 0.73523647 -0.8230858 -0.37553182 0.6856503 0.2507317 -0.1864506 -0.43280792 -0.0503708 -1.2050574 0.19447513 -0.16673994 0.005424713 -0.48374748 -0.3578336 -0.3805268 -0.4049039 0.63355577 -0.11439474 -0.19001414 0.32815492 0.20749187
/education 0.3522515 -0.46499714 1.0097439 0.567737 -0.50690955 0.070978515 -0.57035077 -0.534367 -0.97904193 -0.293478 0.0013921646 -0.065173075 0.9346202 0.435649 -0.67540157 0.5614205 -0.07075726 0.24819969 1.2378907 1.0269415 1.172669 0.04064604 -0.25264424 0.32707652 0.8401816 0.4771959 -0.17357062 -0.22818394 -1.0109923 -0.16955407 0.5902837 -0.13941202 0.03037872 0.5015752 -1.0484205 0.7966047 0.24395384 -0.07738797 0.53663355 -0.58011866 1.0657743 -0.21344821 -0.07066101 0.5922253 -0.34813714 0.20951647 0.88983464 -0.4548161 -0.45147026 -0.35401055 -0.24239552 -1.1381916 0.0097713685 0.4019739 -0.0073085404 0.48995018 -0.14383227 0.22124797 0.43370518 0.4864514 -0.5426811 0.83017653 0.14375351 0.6568544
/education/educational_degree 0.1647586 -0.5640794 0.90635836 0.38774127 -0.58493644 0.06488735 -0.6640562 -0.4853476 -0.7396301 -0.1458631 -0.06979239 0.055807464 1.0220884 0.70159316 -0.5703025 0.43344393 -0.011003529 0.14362508 1.2562913 1.0190502 1.2468727 0.053284466 -0.3058069 0.1937802 0.7961737 0.35233855 -0.5953186 -0.24490553 -0.9386223 -0.3124918 0.5832945 0.04150808 0.20502637 0.5200812 -0.9138991 1.0000657 0.14638577 0.0051942193 0.60054606 -0.5698155 1.035185 0.043122064 0.029317211 0.5945621 -0.25243303 0.18590328 0.90781033 -0.5771625 -0.53358126 -0.31216273 -0.17874055 -0.95991606 -0.2711291 0.26987883 -0.18949549 0.6007906 -0.18870664 0.025386173 0.36302367 0.5118247 -0.49579674 0.8679867 0.38555464 0.79489696
/finance -0.0054019056 -0.099205025 0.5100988 1.2656406 0.3462582 -0.30888563 -0.639711 0.1754388 -0.09210791 -0.23418596 0.20062937 0.67346704 0.6417691 1.1601778 0.059820987 0.5320855 -0.7747735 0.014971094 1.1442494 0.56357247 0.95302045 -0.3874618 0.13912182 -0.055127535 0.8977979 -0.20935811 -0.5478249 -0.45611504 0.45091605 -0.14782606 0.5061785 0.70316 -0.3343022 0.9393024 -1.205671 0.5989163 -0.70638424 -0.30023018 -0.15174164 -0.050812364 -0.5325055 0.8343988 0.57858855 -0.04689884 -0.04381844 0.5201906 1.1284714 -0.39327228 0.32721567 -0.46469453 -0.3911202 -0.7691302 -0.07027458 -0.8661688 0.3545473 -0.05808006 -0.54489154 -0.70913476 0.88234377 0.26330045 -0.048891656 -0.16441831 0.52717406 0.85925776
/finance/currency 0.13402887 0.14534692 0.35933596 1.452827 0.32808453 -0.3554233 -0.53877765 0.08723328 0.073592044 -0.23432818 0.36060846 0.7171733 0.6449658 1.1380326 -0.08831375 0.48215437 -0.6775685 -0.12966268 1.0483358 0.57803106 0.71716195 -0.36013845 0.21707039 0.2074847 1.0765309 -0.3985098 -0.6017942 -0.65930325 0.41400957 0.13840644 0.6692576 0.6419494 -0.052216947 0.826001 -1.0130156 0.63141817 -0.7394072 -0.38628826 0.12915994 -0.12253495 -0.6307936 0.9700366 0.42157298 -0.21442582 0.056891017 0.26254207 0.9683073 -0.16970949 0.5078095 -0.46784037 -0.46558017 -0.71299 -0.1216915 -0.9309768 0.29477447 -0.18829566 -0.66455156 -0.7013272 0.73809165 0.32995605 -0.20926464 -0.25422174 0.50828195 0.9227342
/living_thing -0.25955677 -0.054899 0.9922896 1.0521551 0.21466374 -0.19359583 -0.06987981 0.5327371 -1.3216671 -0.12984294 -0.51700926 1.0092405 -0.017540794 0.22707435 -0.33589262 0.3381469 0.20958066 -0.24037194 0.736138 0.6833168 0.4710656 -0.017041983 0.00055465015 -0.44507596 0.8939633 -0.63812524 -0.2932401 -1.0114133 -0.22062826 -0.12208437 -0.14447646 0.62334687 -0.019376045 -0.062141467 -0.70429707 0.5771257 -0.073259026 0.14617258 0.5624789 -0.68211496 0.0007474326 0.06495943 0.35448575 0.56262755 -0.8153428 -0.5559209 0.7604158 0.3191538 -0.14503554 -0.2599353 0.025817752 -1.1307602 0.19979712 -0.07527002 0.017020546 -0.36568123 -0.3764479 -0.3126307 -0.4683371 0.55704296 0.015265516 -0.19344543 0.20500307 0.37820077
/disease 0.70433354 0.34706315 -0.028288579 0.14107643 0.32391408 0.065451466 -0.13769037 0.15934299 -0.5073367 -0.17003386 -0.39079475 -0.23074597 -0.32031527 0.19324967 -0.24660097 0.71240896 0.49573445 -0.38158718 0.3809471 0.16113207 0.34211382 0.15752526 -0.09409143 0.41182846 0.21577303 0.04951546 0.02273576 -0.44797632 0.3160602 0.24816236 0.64190066 0.3008948 -0.0037799962 0.09765053 -0.26949286 0.62294954 -0.14521474 0.31083855 -0.12374266 0.15584068 0.15625699 -0.26373523 0.14173524 0.4585515 0.21020731 0.37854216 0.07327506 -0.0003491019 -0.17264417 -0.6693113 -0.58944345 -0.2744158 -0.4482824 -0.103424974 -0.39557788 -0.31055954 -0.42205802 -0.3538256 0.30920517 -0.0102540385 -0.34652814 0.07334617 -0.6103648 0.20544018
/livingthing -0.1417911 -0.071331725 0.9203635 1.1144295 0.2208291 -0.19108042 0.039779097 0.4042215 -1.3455414 -0.35554537 -0.32252994 1.0567794 -0.25160128 0.14508353 -0.4218892 0.2803676 0.13621315 -0.23926298 0.7744936 0.69057333 0.54067796 0.09436996 0.12844947 -0.34237012 0.9370021 -0.6224644 -0.3452845 -0.8496235 -0.20761284 -0.22711706 -0.16170081 0.5755905 -0.114050545 -0.0033450231 -0.69155645 0.7275123 0.035946146 0.09796671 0.7328441 -0.727477 -0.07089495 -0.070869274 0.1799779 0.54192144 -0.67454565 -0.3948654 0.5612921 0.32315052 -0.051936757 -0.32233 -0.1761814 -1.0496457 0.22066186 -0.12142226 -0.046032112 -0.44861302 -0.28932396 -0.3515653 -0.5331355 0.75819534 -0.20315143 -0.1661273 0.36664873 0.32576728
/person/artist 0.3136888 -0.43918455 0.32282332 -0.0986102 -0.44736192 0.22418578 -0.27761716 0.10566629 -0.32861075 -0.16644758 -0.51514906 0.229144 -0.022994336 -0.019696044 -0.011301768 -0.0636716 -0.26564777 -0.06500319 0.41403693 0.037311956 -0.28881866 0.1406123 -0.12085051 -0.07470733 0.039963253 0.2323849 0.21392815 -0.76199394 0.0073128957 0.03462734 0.2617979 -0.06177948 -0.15214929 0.12704454 -0.4569971 0.082723 -0.28101918 0.29313332 -0.06455041 -0.37235308 0.32064858 0.084048465 -0.39735532 -0.05968379 -0.41774 -0.07466077 0.11565699 0.3455168 0.1884747 0.028249709 -0.44387835 -0.24457185 -0.1056185 -0.48959443 -0.14108051 -0.30176285 0.119475186 -0.306186 0.72384655 -0.041324064 0.24601506 0.34271428 0.18215534 -0.0029381297
/art/film 0.51537716 -0.1491912 0.289786 1.235213 0.23506671 -0.13421042 -0.23809141 0.22323604 -0.17984988 -0.48456138 -0.1947156 0.058743864 0.7860718 0.070146576 -0.26602256 -0.04272423 -0.24726455 -0.86082274 0.810003 -0.17856467 0.7755283 -0.23705022 -0.6237017 0.30855024 0.020485858 0.15169981 -0.246508 -0.6470433 -0.5414167 -0.016696922 0.38560107 0.489774 -0.2603668 0.6952919 -0.124219164 0.2220459 -0.36624873 0.05890839 0.34245375 0.22946922 0.62359697 0.3777679 0.2601968 -0.57920146 -0.63440955 0.21565644 0.72027564 0.2983161 -0.0021462159 0.028619476 -0.30544874 -0.6380099 0.5105033 0.04542489 0.061936777 -0.14086026 -0.27928376 -0.27156413 -0.55094457 0.30141205 -0.6952013 0.27808455 0.13153212 -0.15623212
/computer 0.6162309 -0.2495751 0.13199638 0.044954345 -0.22752512 0.0047818692 -0.035327207 0.15214843 -0.15559301 -0.15556122 -0.28823966 0.113836676 -0.53633255 0.3738816 0.27568236 -0.13971102 -0.14330113 -0.40468684 0.20252632 0.81096727 -0.20841561 -0.047585633 -0.14767963 -0.013598994 -0.08406257 0.14248618 0.11061876 -0.60297346 0.3229863 0.027270256 0.6390104 0.026097162 -0.013813759 0.069656596 -0.5021235 0.24445307 0.14590979 0.08572908 0.27837777 0.08536152 0.64322394 0.1976322 -0.24465269 0.14261952 0.034559503 0.08239426 0.28282142 -0.05133153 0.5008832 -0.23199227 -0.30351248 0.012368166 -0.05897864 0.086519994 0.2453336 -0.21550709 -0.12582229 -0.23095761 -0.12582612 -0.31680337 0.43586242 0.22156502 -0.46650717 0.36016273
/government/government -0.023023183 0.00840671 0.24898562 0.490089 0.1303617 0.3109892 0.38060543 0.054468863 -0.14876156 -0.3758578 -0.3163569 -0.38038772 0.24226046 0.47646782 0.072816275 -0.19723774 0.28374204 0.061103664 0.14889866 0.23637056 -0.25033835 0.091968134 0.17273074 -0.19973578 -0.17235337 -0.15352942 0.26598385 -0.47075015 0.17832892 0.26010236 0.39438108 0.3807921 -0.19477701 0.17949003 0.14912125 0.73613685 0.3278721 0.2825397 0.31746787 0.13118343 0.087617286 0.30013096 -0.011913431 0.582481 -0.048851494 0.32988364 0.31628332 0.013987384 0.10891202 -0.23610556 -0.54896533 -0.035031673 0.16464666 -0.22564338 -0.19799277 0.2339565 -0.17523752 -0.020766206 0.41214415 0.21407114 0.12821497 0.20962025 -0.46801913 0.07372608
/event/terrorist_attack 0.31539905 -0.0026810125 0.6844966 0.79574674 0.2996214 0.09140978 -0.1553395 0.30650672 0.1152005 -0.2048777 -0.2883687 0.368154 0.2951938 0.32308975 -0.23483565 0.3435893 -0.20854884 -1.1471986 1.0896761 -0.38192314 0.66805345 -0.31260473 -0.9160147 0.2862212 -0.06474779 0.014907508 -0.08466564 -0.617155 -0.4644651 -0.12924924 0.32426807 0.35363373 -0.30056208 0.06242094 -0.06655435 0.5300373 -0.21042623 -0.03202254 0.2539541 0.3040407 0.2005072 0.29348472 0.43496206 -0.40902844 -0.39110932 0.21929681 0.62975 0.3879104 0.21105143 0.38702524 -0.2985851 -0.85240674 0.7285398 -0.097497575 0.08166562 0.18273102 -0.1726394 -0.35667565 -0.42072704 0.29800197 -0.77068084 0.4281955 0.20518726 0.37927213
/art 0.43875432 -0.26027545 0.21178897 1.0292214 0.19215019 -0.20542105 -0.15022282 0.3196991 -0.024041295 -0.5681856 0.005803072 0.1689187 0.769779 0.31153458 -0.27598426 -0.11911872 0.014673404 -0.90117127 1.0284326 -0.007732331 0.7217979 -0.071424834 -0.7247 0.100330696 0.23056605 0.18225618 -0.057869088 -0.81794906 -0.66079676 -0.114407316 0.42341277 0.21510932 0.010896035 0.601782 -0.024063842 0.2331733 -0.69931567 0.13479711 0.42047793 0.34798497 0.440575 0.12173402 0.52750325 -0.5817784 -0.4421548 0.16508146 0.59180343 0.39426145 0.028004915 0.2809421 -0.030592127 -0.836347 0.3622033 0.028038489 -0.026628874 0.004173766 -0.32901558 -0.2952318 -0.49567685 0.22449394 -0.7155778 0.18427593 0.08592562 -0.023996873
/event/attack 0.43291062 -0.03598929 0.93769985 0.70658755 0.28188947 -0.106491044 -0.044541765 0.16742042 -0.08437877 -0.2863018 -0.45222 0.062011294 0.57186645 0.118165545 -0.46669206 0.19628713 -0.023699272 -1.0773554 1.0191146 -0.26082936 0.49387506 -0.26973042 -0.75387216 0.32331955 -0.029155621 0.18842417 -0.2365074 -0.67235345 -0.579127 0.11113303 0.5285569 0.27615833 -0.3306911 0.08638465 0.12661074 0.45998037 -0.14348355 -0.21356048 0.21804927 0.30760553 0.4775107 0.24416934 0.6009011 -0.3593271 -0.40347755 0.027937217 0.42086056 0.25754288 0.3937161 0.31792575 0.06631783 -1.1142387 0.6310367 -0.26855823 0.09778861 0.025324715 -0.058390677 -0.16171491 -0.4091692 0.31637847 -0.7819217 0.20995167 0.19946463 0.23964009
/person/athlete 0.4833985 -0.19262564 0.16308145 -0.23193824 -0.35456574 0.45940375 -0.12054581 -0.0222474 -0.539679 0.019595798 -0.5172772 0.26828995 -0.26577425 0.1593467 0.24046671 -0.34131894 -0.34579453 -0.371759 0.7202838 0.057562638 -0.20414813 0.19870204 -0.044726387 -0.25767943 0.19565144 0.34022188 0.06312972 -0.55850875 0.023910755 0.24008977 0.3494252 -0.12635012 -0.31543854 0.18028829 -0.39540255 0.0055994573 -0.35256752 0.29173246 0.25466478 -0.3439164 0.2566447 0.08217692 0.034385346 -0.05540051 -0.3146066 -0.19226168 0.10217552 0.16496807 0.30704534 0.04475969 -0.20426983 0.09111764 0.085348666 -0.5268423 -0.417023 -0.31824413 0.1493736 -0.30029333 0.5995083 0.08616367 0.15258807 0.121988736 0.58232325 0.19330911
/person/monarch 0.14383267 -0.48352322 0.20267062 0.14467672 -0.2808265 0.42862284 -0.22552185 0.091613136 -0.43087628 -0.33265045 -0.2903424 0.5357415 -0.22389555 -0.030964933 -0.15273283 -0.1600636 -0.14156486 -0.34060326 0.4197728 0.16367729 -0.6275966 0.15205507 -0.108192116 0.07768264 0.25826323 0.44536564 0.3128799 -0.85783136 0.007423201 0.06260868 0.42296204 -0.09796843 -0.16347851 0.07716637 -0.3852945 0.026683066 -0.095637485 -0.22781222 0.14303154 -0.32500428 0.16057266 0.29086334 -0.27529588 -0.28508818 -0.43482214 0.023166647 0.16184543 0.13589513 0.33231032 -0.1399719 -0.38129666 -0.10725738 -0.27819142 -0.44207132 -0.40667862 -0.22608589 0.24821137 -0.1383134 0.48648608 -0.21743226 0.13542373 0.5120544 0.12810263 0.04929722
/building/hospital 0.07361179 0.16315755 -0.36656612 0.32066867 -0.2656132 0.089184545 0.03447224 -0.44432136 -0.5225655 -0.22058076 0.121233724 -0.24651992 0.27106154 0.30967912 0.30242866 0.08397333 -0.26580176 -0.11119328 0.7295042 0.2738836 -0.2719327 0.34068915 -0.28658193 -0.38750398 -0.08343944 0.005414711 0.09941368 -0.27811986 0.015595637 0.0044907527 0.488779 0.22162339 -0.14973526 -0.18909043 0.15573023 0.45698562 0.23737675 -0.043827575 -0.006212317 0.14404391 0.21071966 -0.111397795 -0.063751556 0.50619066 0.23661366 0.0018183504 0.10268419 0.11899417 -0.06244504 -0.28231263 -0.37735522 0.023453888 0.03303713 -0.21941522 0.03394385 -0.28069842 -0.17208046 -0.32055733 0.038053732 0.14625035 0.2596748 -0.0108511755 -0.3566559 0.33452335
/broadcast_network 0.0953471 0.01857148 -0.1462834 -0.14952458 0.17592263 0.33028618 0.26557 0.06865477 -0.14269204 -0.2433365 -0.4765766 -0.0439009 -0.14373644 0.16852665 -0.2911239 -0.0046267966 -0.200796 -0.04711934 0.28530765 0.7419419 -0.11700262 0.15917303 -0.41307425 0.07948196 -0.1552513 -0.06255202 -0.017875569 -0.7730587 0.15270205 0.110306576 0.6116033 0.033979435 -0.38824838 -0.1235354 -0.121124685 0.16005684 -0.39799616 0.20389582 0.011054768 -0.030750252 0.16137557 -0.10059831 -0.39575768 0.450283 -0.054596797 0.038374893 0.30124143 0.33489206 0.29653642 0.12470994 -0.48996508 -0.20023353 -0.17934841 0.018405082 -0.04327791 -0.23607896 0.064265534 -0.21421418 0.4670419 0.009457379 0.3472868 0.28850535 0.019797437 -0.11416137
/people -0.11764967 -0.09919595 0.008496277 0.46646821 0.06940688 0.28488818 0.17271326 -0.03773237 -0.6158788 -0.6332976 0.094662115 -0.35804778 0.44719097 0.62206614 0.21564323 -0.11542603 0.19527097 -0.080239184 0.47271815 0.3833857 -0.09768836 -0.35392228 0.062427253 -0.22806257 0.08603799 -0.02238334 0.44199204 -0.23031078 0.050425988 0.29892054 0.4216212 0.3515013 -0.03364085 -0.18699262 0.22650547 0.5721969 0.44240817 0.27139676 0.25450543 0.12624697 -0.14272468 0.40200865 0.18544827 0.20869246 0.15770294 -0.16483364 0.12460388 -0.03342332 0.28945827 0.071814604 -0.5115873 -0.056531336 0.042648364 -0.039937902 -0.16170973 0.32923478 -0.402421 0.171602 0.27155334 0.32166725 0.4430152 0.400288 0.035485998 0.15326856
/news_agency 0.45628476 0.1250276 -0.059310872 -0.0131586725 -0.36096656 0.36443427 0.20742598 0.2964069 -0.12499733 -0.317009 -0.20086944 -0.07666849 -0.104345754 0.36132059 -0.16169366 0.037769422 -0.12050346 0.010836446 0.20626245 0.6071554 -0.17806533 -0.05959162 -0.49344483 0.04400208 -0.058014326 0.051159207 -0.03390838 -0.7889824 -0.18181504 0.22716685 0.4233036 0.012038693 -0.32017154 0.1635482 -0.17691132 0.21784796 -0.18386273 0.18448831 0.21675609 -0.50881207 0.17577031 -0.010878274 -0.34157965 0.49185506 0.12600872 0.10770309 0.22390582 0.3373851 0.17991844 0.24615891 -0.42097437 0.20297326 -0.19173247 -0.11019129 -0.12574352 -0.32678178 0.21335846 -0.16750155 0.3710815 0.1242391 0.07478611 0.31868052 -0.32799855 -0.06230208
/geography 0.31770727 -0.13617937 0.21399128 0.5197534 0.1396895 0.0032052773 0.23953548 -0.37131837 -0.6271872 -0.37359437 0.31668854 0.16753678 0.64538115 0.2061416 0.58924377 -0.1283014 -0.729278 0.054218702 0.5695208 0.04368717 -0.5100822 -0.39759144 -0.37182212 0.07125923 0.3562221 0.17775288 0.14324608 -0.24553603 -0.058510445 -0.12882678 0.23623542 0.16220333 -0.09437103 -0.28949207 0.33911312 0.58077407 0.09529605 0.4041305 -0.47261506 0.020877328 0.054708593 -0.09942944 0.03331355 0.4877965 0.010236721 -0.16490972 0.5539021 0.005643849 0.069856994 -0.23808345 -0.48175225 -0.41746628 -0.32952604 -0.36145404 -0.040315475 -0.27043608 0.32070023 0.44705284 0.0152525995 0.10888621 0.28387806 -0.016451403 0.22068565 0.69433737
/people/ethnicity -0.09546377 0.115015775 0.16970068 0.70440835 0.0034682862 0.16235541 0.3566578 -0.10789808 -0.485139 -0.61089075 -0.09555699 -0.18478657 0.5729688 0.554348 0.34020212 -0.107285514 0.29472294 -0.122525856 0.4289931 0.10052537 -0.24869734 -0.34317943 -0.079395466 -0.28314728 -0.07366788 -0.10375252 0.37974158 -0.15725282 0.21847391 0.43777856 0.40058464 0.3405087 0.18828163 -0.15865383 -0.05138562 0.4459767 0.26997578 0.25447834 -0.044429682 0.005888051 0.021037942 0.11288354 0.1190534 0.34322545 0.16455251 -0.025710087 0.3777653 -0.13704737 -0.049287345 0.13396658 -0.6532446 0.04281608 0.2523151 0.19175641 -0.22524114 0.118224725 -0.13527732 0.12662701 0.43129346 0.36887258 0.37058923 0.45292705 0.053253215 0.21921667
/medicine/symptom 0.6161209 0.29413843 0.34171087 -0.07955093 0.2604025 -0.12961122 -0.43200034 0.32546365 -0.6719612 -0.1596814 -0.057251234 -0.24714282 -0.21475282 0.021575116 -0.3031807 0.72718316 0.63244444 -0.5479451 0.55051625 0.05740061 0.33465144 0.17085943 -0.07823469 -0.09653402 0.365546 -0.112168826 -0.17160113 -0.5745454 0.26845482 -0.09582005 0.82196754 0.5534902 -0.114153266 0.17868723 -0.37097278 0.71499276 -0.23525622 0.41952077 -0.2138962 0.025969416 0.35442936 0.059157036 0.5773942 0.5643363 0.4637422 0.622951 0.23343313 -0.10262456 -0.10989121 -0.55422455 -0.71058524 -0.29327118 -0.5822735 0.06069552 -0.14501436 -0.3404784 -0.36142355 -0.41988328 0.26938778 -0.024247382 -0.28778046 0.05252785 -0.6453966 0.020094132
/internet 0.2518401 -0.2959991 0.2043311 0.06256533 -0.42338848 -0.14381908 -0.077518605 0.23050113 -0.24693814 0.18546213 -0.47211948 0.14826298 -0.28235853 0.3037668 -0.30098736 -0.4062174 -0.23945183 -0.088307664 0.31140274 0.48204508 0.17723905 0.18273146 0.0682451 0.22822313 -0.17843099 0.3179993 0.12101656 -0.7458201 0.017580032 -0.12203526 0.43255967 0.024632948 -0.55387414 0.14900523 -0.42325118 0.20206714 -0.30316067 0.08724736 -0.08224084 -0.3487596 0.48294696 0.08668295 -0.41257483 0.2814736 0.15441968 -0.16799752 0.17271276 0.2561869 0.31945235 0.17612873 -0.44191644 0.02349639 -0.08764451 -0.7152851 -0.4436439 -0.37292293 0.23206607 -0.24557237 0.6012496 0.0635842 -0.15630694 0.193749 0.4096424 0.008207029
/internet/website 0.44026238 -0.46169752 0.32304296 0.17279181 -0.14972089 0.26146495 -0.32020795 -0.057590898 -0.10026583 0.055794198 -0.33703816 0.20740515 -0.18510251 0.104890116 0.063038394 -0.056982663 -0.18299495 -0.030937327 0.47006133 0.5105363 0.030722633 0.35292014 0.026809327 0.00871393 -0.10641159 0.21986334 0.16522317 -0.7630646 0.1582111 0.10833401 0.46139112 -0.12972292 -0.34139818 -0.059520327 -0.4579947 -0.027596887 -0.5901285 0.07387941 -0.07962022 -0.35042492 0.35357574 0.050281145 -0.29161242 0.38068748 -0.15478879 -0.09455031 0.17908445 0.5834821 0.30838618 0.11913585 -0.005651655 0.16315417 -0.05408801 -0.6177096 -0.26821896 -0.3407999 0.0011046806 -0.24615546 0.6986855 0.26965293 -0.19021271 0.35452396 0.059737902 0.12866989
/person/doctor 0.37111276 -0.2818089 0.27249268 -0.20199385 -0.5788575 0.40293428 0.05288321 -0.07355915 -0.3099795 0.1318651 -0.36618978 0.3012008 -0.2007829 0.22687224 0.07862448 -0.15478261 -0.13699901 -0.099292435 0.72853684 0.28588358 -0.35200256 -0.025285013 -0.07493941 0.13628124 0.31583264 0.23201661 0.12478607 -0.6371467 0.039981365 0.010194113 0.3768853 -0.24881212 -0.10615301 0.088235185 0.0033317336 -0.11997042 -0.1459398 0.36096138 0.21122213 -0.23526727 0.5736968 0.24477997 -0.090454996 -0.033218063 -0.5672726 -0.0307273 0.10172877 0.15655689 -0.19513829 -0.14822793 -0.43622923 0.036329426 0.47567135 -0.4764156 -0.5302284 -0.38808358 -0.032708466 -0.16086985 0.6910703 0.15340444 0.1168517 0.26461878 0.28429118 0.08558621
/computer/programming_language 0.5336032 0.08887844 -0.027104985 -0.05783089 -0.31878385 -0.057133436 0.2916021 0.08039627 0.028487775 -0.097580545 -0.2441204 0.20180203 -0.39247835 0.04242449 0.096290804 -0.018888613 -0.09268542 -0.34124386 0.39986792 0.7383874 -0.17888364 0.03622349 -0.033053793 0.037815534 0.029134389 0.40584588 0.08513678 -0.8208944 0.23399921 0.321215 0.57969403 -0.09623971 -0.2162188 0.07708834 -0.034605812 0.31274718 0.12510064 -0.0959489 0.24668762 -0.019938108 0.20415242 0.07472916 0.1465379 0.451099 -0.081140436 0.02619133 0.23855838 0.07534209 0.19928472 -0.16779394 -0.500442 -0.010836137 -0.20827049 0.13949372 -0.034213223 -0.09496736 -0.23076552 -0.077669315 0.07834589 -0.22232285 0.2919259 0.3677205 -0.22294633 0.15748775
/product/computer -0.3476659 -0.09850576 0.38259545 0.46285146 -0.7184425 0.44707856 0.17392734 0.093038745 -0.7669518 0.08897698 0.29425108 0.42551064 0.3534184 0.21264605 -0.87802315 -0.014941609 -0.6734902 -0.527249 0.34884432 -0.07199326 0.39400014 -0.27205908 -0.026490234 0.21191405 0.23158853 -0.46325514 -0.10767172 -0.8356304 -0.25899 0.0042499606 0.99258655 0.45900154 0.037299003 0.6145201 -1.134989 0.06565784 -0.45826378 0.3756514 -0.020335637 0.107254766 -0.0055760155 0.015155213 0.7286497 0.41355962 -0.59704316 0.28714433 0.09966312 -0.33136123 0.4311623 -0.47931463 -0.17551993 -0.9043585 -0.14921884 -0.40123004 0.11877509 0.14499119 -0.4316939 0.2634657 -0.26159245 1.0307271 -0.43723693 0.5574182 -0.07934421 0.9327361
/written_work 0.36103076 0.36906126 -0.058325972 0.0035960858 -0.34395528 -0.20424898 0.08941956 -0.013722423 -0.30501685 -0.4361294 -0.66043496 -0.30755597 -0.10745575 0.19116722 0.23754403 -0.1621158 0.081775874 -0.25060907 0.07828391 0.4303572 -0.29881662 -0.06072429 -0.42681813 0.02864247 -0.5030355 0.1845788 0.30477235 -0.39106134 0.11823493 -0.1438522 0.6437814 -0.29687962 -0.19567876 0.22328293 0.053870946 0.59722066 -0.15677902 0.42088035 0.08037383 -0.22888868 0.11231999 -0.2710744 0.0644543 0.3125233 -0.12095518 0.630752 0.06826636 0.23754281 0.30207002 -0.1457273 -0.17982252 -0.122358315 -0.23968758 -0.036852326 -0.124122865 -0.26553872 -0.29896507 -0.21666855 0.0130389845 0.23322536 0.32682866 0.5086669 -0.3323523 0.16302921
/newspaper 0.2059305 0.382199 0.121747114 0.22858062 -0.18197452 -0.37169254 -0.14662763 -0.07624634 -0.23515102 -0.44890034 -0.6114361 -0.23423755 -0.21654077 0.09381746 0.25310764 0.14955835 -0.30013 0.05575516 0.14018145 0.648769 -0.39448404 -0.16947006 -0.4391709 -0.14313053 -0.30204603 0.020733656 0.09040248 -0.5275305 0.15443213 0.22669588 0.4582857 -0.19374935 -0.25611207 0.32829213 0.17341599 0.24245016 -0.17558502 0.36717418 0.56671894 -0.40388313 0.014437233 -0.19536677 0.05338993 0.47748637 0.117567874 0.51630455 0.09690888 -0.08564416 0.38288912 -0.18049775 -0.39606845 -0.2867752 -0.21191286 -0.30412644 -0.0054488457 -0.087402545 -0.42469388 -0.19186664 0.14564317 0.004731014 0.29332733 0.26189482 -0.30489734 0.08623428
/product/airplane -0.36775148 -0.10300443 0.38400257 0.47530606 -0.75353265 0.43900478 0.17771575 0.14393252 -0.78627676 0.08837824 0.27072713 0.4046812 0.37306908 0.2181597 -0.84913504 -0.03486909 -0.65329254 -0.50393325 0.38252515 -0.08054882 0.41270113 -0.26795518 -0.006925767 0.22068541 0.2370966 -0.45948267 -0.106587954 -0.856709 -0.23172793 -0.042710952 1.0373785 0.46665123 -0.0016090546 0.6113785 -1.1435455 0.042088415 -0.47130293 0.35167384 -0.013003657 0.100719646 -0.011048243 -0.0035192952 0.6937576 0.38008916 -0.58413786 0.293803 0.08459074 -0.33187908 0.4018715 -0.5053317 -0.17369829 -0.88553905 -0.09085534 -0.35667065 0.12805489 0.13563418 -0.44890553 0.28174263 -0.2564149 1.0657104 -0.43143255 0.5493815 -0.095644556 0.9439941
/product/ship -0.36680385 -0.12470008 0.36037365 0.49176875 -0.7919981 0.4533529 0.1580144 0.15874355 -0.7732411 0.08030406 0.25864968 0.41335595 0.37498817 0.19839945 -0.84339166 -0.0012374929 -0.6328048 -0.5198019 0.37196752 -0.10727112 0.38678634 -0.21519639 0.009133979 0.22019224 0.22179437 -0.47937337 -0.09714457 -0.85041386 -0.21934798 -0.061169542 1.0330737 0.42170194 0.049262173 0.6180912 -1.1569551 0.080016464 -0.44854718 0.31766447 -0.03131057 0.102839254 -0.040274896 -0.009835177 0.7162722 0.38982695 -0.5810213 0.33487555 0.10543256 -0.31177807 0.40624166 -0.51519054 -0.15565403 -0.8902602 -0.090646595 -0.31812543 0.14622328 0.13401337 -0.43268454 0.30848813 -0.26017576 1.0580113 -0.45291486 0.5464422 -0.04062164 0.9645161
/product/spacecraft -0.3700257 -0.13294607 0.3480144 0.50738543 -0.8173392 0.46670622 0.15708196 0.19022775 -0.7742836 0.087486155 0.23920023 0.41177958 0.3860395 0.1943341 -0.81976557 0.003593198 -0.6199821 -0.51932013 0.37650594 -0.12199498 0.3868467 -0.19591989 0.01898818 0.22766034 0.21680559 -0.48216423 -0.086137086 -0.85605323 -0.20544268 -0.08978169 1.0534346 0.41007188 0.04691433 0.62212867 -1.1588762 0.07395485 -0.4461306 0.29429197 -0.0320545 0.09580491 -0.050135776 -0.022331007 0.7047775 0.38521364 -0.5706205 0.34928963 0.097313955 -0.29962954 0.38667664 -0.53738165 -0.15290469 -0.87678623 -0.053823695 -0.27388138 0.1557347 0.13753566 -0.43580043 0.31961003 -0.2586301 1.0746468 -0.45796892 0.53529394 -0.032472927 0.97016126
/person/religious_leader 0.4058223 -0.3631579 0.05700698 0.05728562 -0.5633656 0.32481006 -0.058959894 0.17023036 -0.14274712 -0.27840477 -0.54886043 0.366273 -0.052098736 0.0054674447 0.11790143 -0.08991048 -0.2152493 -0.06275408 0.35004532 0.22333422 -0.6126973 -0.045285057 -0.23424037 -0.07652512 0.49067435 0.41076607 0.25639784 -0.5047122 0.27321008 -0.095509 0.70038354 0.19581397 -0.13449599 -0.33354715 -0.67807186 0.036479063 -0.3960151 -0.2384845 -0.07572113 -0.38353032 0.36904317 0.26007834 -0.18225993 -0.24271242 -0.4434527 -0.087586425 0.40885663 -0.04111814 0.0048091104 0.13294229 -0.33734792 -0.2340116 -0.14440891 -0.104840286 -0.30027738 -0.03850814 0.018267522 -0.28464052 0.4632721 -0.19449186 0.084512204 0.46403384 0.32055506 0.0547587
/product/car -0.3812717 -0.10980236 0.36121082 0.48461637 -0.78148484 0.45060128 0.16966242 0.16529131 -0.78345144 0.097278625 0.2608186 0.40694663 0.38382265 0.19673711 -0.83105665 -0.027311897 -0.6324753 -0.5026608 0.38279724 -0.104031116 0.41278306 -0.24284263 0.01511103 0.23390272 0.22931984 -0.47101688 -0.09977158 -0.8466169 -0.21417585 -0.07585344 1.0442977 0.44487163 0.014764408 0.6172433 -1.1550963 0.04125593 -0.4688501 0.3314724 -0.022977551 0.09719805 -0.026605472 -0.015591136 0.6903487 0.36924675 -0.5615013 0.3219712 0.08975802 -0.31868163 0.39216557 -0.5188296 -0.15513897 -0.8784972 -0.06680426 -0.3015254 0.15128513 0.1307307 -0.44188598 0.29907772 -0.25613242 1.0744721 -0.4440139 0.5430488 -0.06694662 0.95804995
/geography/island 0.33129305 -0.23710221 -0.21638435 0.52802116 -0.12836316 -0.08167285 0.10520586 0.054126088 -0.70528686 -0.35462946 0.24525703 -0.114750504 0.52881956 0.116705365 0.56011534 -0.49748683 -0.48096776 -0.037403062 0.5043954 0.035232674 -0.35154158 -0.5114799 -0.58935606 -0.057897825 0.18720545 0.29616824 0.12220794 -0.4142694 -0.056429017 -0.16982579 0.10118769 0.079001635 0.027446631 -0.332719 0.17880884 0.50312114 0.33170518 0.0828295 -0.36816445 -0.09735061 -0.0071333926 0.3053164 -0.11854138 0.5858284 0.024139185 0.020856578 0.21290486 -0.0012443386 -0.18616153 -0.19571248 -0.35570654 -0.4786494 -0.22995725 -0.29134485 -0.07126679 -0.15721601 0.05333988 0.28878954 0.05209619 0.18974526 0.16833398 0.12142605 0.374455 0.7241881
/transportation -0.06649688 -0.21738924 0.23858468 0.16911584 -0.59514755 -0.15696248 0.1776565 -0.28095856 -0.75107354 -0.5433492 0.13141818 -0.29103157 0.40891954 0.10396515 0.76892084 0.43877307 -0.24766487 0.039105423 0.32465824 0.034745265 -0.24133012 -0.37524807 -0.47481823 -0.3192667 0.33719984 0.059739646 0.45079952 -0.4939336 -0.13859144 -0.08203509 0.03717999 0.16677764 -0.18704249 -0.2965697 -0.31376958 0.47117826 -0.15842028 0.19870506 0.04159992 0.7096348 0.10976723 0.61425513 -0.2834896 0.4886016 0.29193428 -0.024753405 0.18764909 0.07377256 0.18775325 0.2072699 -0.25815195 -0.24872644 -0.12553857 -0.11834646 -0.33673877 0.089164436 0.020880286 -0.2995013 -0.007841777 0.5238025 0.16671494 -0.061032396 0.35425216 0.33061433
/rail -0.13449095 0.30155852 -0.083611965 0.63417983 -0.2574496 -0.35426474 0.080330834 -0.5035731 -0.68827105 -0.74097407 0.19823606 -0.1531914 0.24694656 0.20610228 0.69161576 -0.04336778 -0.3538078 -0.48771426 0.44098604 0.21056311 -0.19546978 -0.38340664 -0.42559165 0.043851476 0.40888187 0.35317254 0.26443824 -0.12874168 0.10974599 -0.5052806 0.3471301 0.3544701 0.18861833 -0.2940884 -0.22657415 0.33529696 -0.0018249069 0.119066685 -0.058156304 0.17125417 0.1112599 0.22124447 0.038227804 0.7301456 -0.31305954 -0.042927872 -0.081189364 0.12972233 0.06973777 0.23974057 -0.15560684 0.054665223 0.25472805 -0.58060145 -0.32319394 -0.15853685 -0.2362088 0.51156485 0.20642953 0.24766377 0.30765972 0.13285328 0.20122443 0.02259033
/geography/mountain 0.114861675 -0.12851103 -0.053735398 0.44979116 -0.11227492 0.027603896 0.19319284 -0.07402499 -0.7156989 -0.18899634 0.08627002 -0.30932665 0.4240359 0.11958358 0.580419 -0.42824978 -0.4854393 -0.07424677 0.68781793 0.062236436 -0.38858226 -0.47579178 -0.43479696 -0.066020265 0.21454005 0.29371387 -0.026457366 -0.36462387 -0.10442178 -0.05337516 0.079620294 0.14361982 0.12669806 -0.46625492 0.24945852 0.32980418 0.13422988 0.34876764 -0.5090578 -0.014678197 0.053229306 0.23438327 -0.16925964 0.37394848 0.078345805 -0.1838145 0.47545967 -0.03908263 -0.25425616 -0.28329286 -0.55591613 -0.5796489 -0.16070217 -0.1741299 -0.0022385528 0.006792483 -0.13341057 0.19038723 0.06343969 0.116869524 0.27881 0.16987994 0.25852966 0.69504255
/transportation/road 0.01242825 -0.3083439 0.20442142 0.52147 -0.55998474 -0.09312632 0.39499262 -0.3696936 -0.9341581 -0.29661012 0.18152432 -0.37708074 0.3338946 0.33695436 0.6549505 0.47844034 -0.3286115 0.087152936 0.3302674 0.19576046 -0.10369406 -0.5001547 -0.5753864 -0.34837678 0.44153646 0.28719577 0.5029499 -0.51909155 -0.105616584 -0.025008854 -0.11579669 0.22842774 -0.40720582 -0.14167966 -0.0025280693 0.3134973 -0.17996936 -0.23475385 -0.23267342 0.583552 0.15745598 0.24227668 -0.40483415 0.2221492 -0.09306451 0.14388166 -0.08005143 0.18876153 0.40001437 -0.2345617 -0.32479528 -0.16878317 -0.0626613 9.6544085e-05 -0.14234011 0.01252021 -0.025073327 -0.052509043 0.18693888 0.48549512 0.26727533 -0.0637924 0.4248392 0.2738972
/broadcast/tv_channel 0.1804593 0.056857422 -0.26396984 0.61669 -0.40084958 0.15545656 0.20036831 -0.21650812 -0.55909383 0.10335643 -0.90264875 -0.43351907 0.029278846 0.08937676 0.17259632 0.116501905 0.019797014 -0.2015956 0.43418851 0.6361712 0.1261137 0.20448297 -0.12280643 0.2184421 0.038295574 -0.04155289 -0.091742374 -0.72433376 0.49030754 0.014603263 0.524376 0.19644952 0.011510958 0.08580787 -0.19968839 0.64460593 0.13891767 0.12552243 0.18004256 -0.0041002408 -0.17870909 -0.2402016 0.47491243 0.34117937 -0.010147922 0.4488941 0.11917731 -0.04584046 -0.05947957 0.20405401 -0.280016 0.2098024 -0.035066064 -0.41858488 0.04299735 0.26764 0.35524473 -0.38293764 0.27231333 -0.27521545 0.04393805 -0.030796614 -0.5331798 -0.014615505
/broadcast -0.03182353 -0.21844834 -0.24757804 0.42095694 -0.29957998 0.1662588 0.28850287 0.055401057 -0.45212686 -0.16872868 -0.70785284 -0.38694155 -0.017144272 0.46304432 0.022547634 0.213574 -0.068883896 -0.5899461 0.47339168 0.49591887 -0.08356188 0.42774245 -0.07361601 0.42634478 0.22041027 -0.012547 0.07870052 -0.5236679 0.22923407 0.38996834 0.29783618 0.2626752 -0.22720398 0.0026749126 -0.09655244 0.59856445 -0.15131693 0.5086656 0.20226222 -0.21746863 -0.12117939 0.103975646 0.52156126 0.428532 0.2226825 0.48687428 -0.12030751 -0.08900262 -0.09153351 -0.09619941 -0.08896342 0.14600433 -0.08495108 -0.3204929 0.18677679 -0.09986974 0.23724094 -0.447759 0.28667116 -0.34939075 0.18711057 -0.06327004 -0.519722 -0.09072391
/rail/railway -0.08042307 0.03332705 -0.1788119 0.76386434 -0.38426325 -0.21580718 -0.250224 -0.39357504 -0.48056802 -0.48842964 0.20831244 -0.34564483 0.3276354 0.25202355 0.60672444 0.43602544 -0.25224227 -0.45399714 0.5837924 -0.07001987 -0.25298947 -0.22764057 -0.22579272 0.17736706 0.15594213 0.2736741 0.3820682 -0.25353593 0.34156913 -0.20183796 0.40461433 0.15268958 0.20770454 -0.11667764 -0.21231218 0.20535389 0.13416214 0.22733758 -0.1379067 0.0627289 0.07109821 -0.023323638 -0.34915075 0.71317416 -0.26869366 -0.37562922 0.15057258 0.24575272 0.17280436 0.08496505 0.000101969 -0.42141914 0.029788462 -0.59605616 -0.37167695 -0.017632542 -0.31582168 0.3152961 0.029025916 0.120348245 0.59518534 0.09120118 0.42209882 0.05706908
/award 0.4426565 -0.3098768 0.6900644 0.90229493 0.36480543 -0.038303822 -0.22505595 0.17956702 0.008406761 -0.5734332 -0.16288938 0.17431912 0.65645134 0.073339514 -0.3121149 0.14390902 -0.17349882 -0.9977835 1.1212156 -0.18660916 0.5534261 -0.16420433 -0.6586479 0.13002823 -0.17938878 0.2547031 -0.22487319 -0.55297005 -0.49527815 -0.29906902 0.28341836 0.34098688 -0.3182225 0.45854264 -0.12018929 0.5057593 -0.40578532 -0.08727503 0.32070455 0.22764131 0.3306668 0.13384977 0.40346238 -0.3862683 -0.45732862 0.23390336 0.4401404 0.036187146 0.1673189 0.2057391 -0.15837164 -0.8024254 0.50516534 -0.18358591 0.24336384 0.017443825 -0.18310478 -0.4016324 -0.43885106 0.4427546 -0.6685265 0.2413743 0.13229866 0.07268967
/building/hotel 0.02568456 0.24487223 -0.11439773 0.42580378 -0.49154085 -0.15209286 -0.013807587 -0.23426457 -0.6635205 -0.5985681 0.110679805 -0.04542165 0.30180886 0.22710536 0.15497811 -0.052980285 -0.2076965 -0.15976286 0.8046507 -0.03424112 -0.46017283 -0.07700974 -0.45409086 -0.11925433 0.2809216 -0.37283805 0.20737003 -0.28252444 -0.1269664 -0.23430383 0.17911534 0.2268803 -0.033188425 -0.2297135 0.1217371 0.450142 0.10620124 -0.26060534 -0.29374677 0.3310792 0.4420245 -0.062145013 -0.25950325 0.4948716 0.17659459 -0.18920186 -0.1168652 0.005608135 0.08067443 -0.2799221 -0.4274771 -0.13561618 -0.070147686 -0.23740016 -0.34196943 0.03442778 -0.13410848 -0.1631176 0.040136684 -0.10832505 0.40487543 0.042964198 -0.16666771 0.33464754
/location/country 0.13386905 -0.2654238 -0.19997571 0.23901166 -0.19404876 0.025977006 -0.10332943 -0.09222582 -0.89880294 -0.2271918 0.27617034 -0.061603386 0.3249668 0.08119074 0.44180354 0.14257258 -0.21106143 -0.57018286 0.3002787 0.47271135 -0.3231427 -0.22139339 -0.21758236 -9.483992e-05 -0.024218058 0.1487665 -0.11413679 -0.4588851 0.09240213 0.16422805 0.19013253 0.4939056 0.08683483 -0.35841537 0.2687665 0.4475021 -0.051590506 0.06703397 -0.21505617 0.30608717 0.0027602063 -0.22725365 -0.41556853 0.3915286 -0.12671764 0.073072456 0.4041493 0.1344285 -0.050047792 0.12811808 -0.19202335 0.13464655 -0.1801769 -0.347802 -0.41272715 0.21237318 -0.07627996 -0.06967941 0.09446171 0.3292535 0.09911456 -0.21771552 0.0011015221 0.57883286
/medicine/medical_treatment 0.7199888 0.42566457 0.4498058 0.061220616 0.43954393 0.044583824 -0.43104294 0.27152914 -0.99574053 -0.04886832 -0.18993019 -0.18319143 -0.34682596 0.21634373 -0.55144763 0.72066885 0.74555147 -0.64249456 0.6371088 -0.23150358 0.4683927 0.17364688 0.0526248 0.07001388 0.52929413 -0.18059434 -0.3522008 -0.37805703 0.26447263 -0.13337472 0.7752691 0.5027342 -0.05420145 0.28205106 -0.35309082 0.8211342 -0.58782446 0.38725004 -0.14847775 0.36501953 0.27030182 -0.18127605 0.3023793 0.40500155 0.00089348404 0.624125 0.23285902 0.14487644 -0.073596045 -0.63909745 -0.4921329 -0.2224017 -0.3041201 -0.20815305 -0.52078193 -0.45528072 -0.61522126 -0.21724021 0.347078 0.07779484 -0.395237 -0.015009202 -0.66940385 0.23793669
/event/natural_disaster 0.4476766 -0.299875 0.65530044 0.8918849 0.35553542 -0.075506 -0.20251793 0.20323291 0.014744194 -0.5771192 -0.15802829 0.15678193 0.68497753 0.11409834 -0.3267228 0.14470904 -0.15224554 -0.9863553 1.1363462 -0.15715405 0.54309994 -0.1557785 -0.6535802 0.11661161 -0.1527465 0.26027694 -0.22712931 -0.5774239 -0.5208902 -0.27099234 0.30867252 0.30668193 -0.29719487 0.46749967 -0.09325128 0.4812873 -0.4299388 -0.08620855 0.3146153 0.24912679 0.347 0.15174678 0.42282322 -0.3781511 -0.4654666 0.21369006 0.45914915 0.054009147 0.16193956 0.21735786 -0.10340633 -0.8134501 0.49495173 -0.18807921 0.22834204 0.017291782 -0.19565631 -0.38663298 -0.44097555 0.3975902 -0.68807554 0.23796548 0.12938789 0.08177575
/broadcast_program 0.44944867 -0.27192682 0.63151896 0.89187443 0.3572748 -0.06632206 -0.20051725 0.21778433 0.0045612957 -0.55018455 -0.18676713 0.1688065 0.68584824 0.085925356 -0.31389084 0.14499012 -0.17508802 -0.9916418 1.124478 -0.17473193 0.5711637 -0.17256549 -0.66458595 0.14678276 -0.14141 0.24457312 -0.1961114 -0.5997336 -0.5164936 -0.24038327 0.28806946 0.32707956 -0.27225056 0.45902967 -0.12055401 0.4861359 -0.4014816 -0.0676428 0.32041255 0.2554264 0.36162204 0.16311869 0.3887847 -0.42077836 -0.46998513 0.23219547 0.45224237 0.071208216 0.1245678 0.2244945 -0.12773326 -0.7816873 0.48792854 -0.16808365 0.22686939 0.011506317 -0.21513103 -0.38204166 -0.46298122 0.4198877 -0.67269695 0.25326917 0.1458703 0.068164766
/event/military_conflict 0.4158826 -0.3259071 0.6244831 0.8801194 0.35216165 -0.08306463 -0.20142251 0.2365228 -0.012043004 -0.5151395 -0.13916807 0.18558629 0.64471525 0.19041274 -0.24940969 0.15438704 -0.24238445 -0.9820486 1.115836 -0.23003094 0.52808833 -0.13983396 -0.5702045 0.12535067 -0.22601056 0.27577353 -0.16562039 -0.5450527 -0.5642683 -0.31563765 0.24043137 0.42470434 -0.3135658 0.5267859 -0.11775227 0.43147597 -0.35687932 0.034425277 0.30751005 0.23950665 0.37657773 0.16490056 0.40862483 -0.3284216 -0.5371244 0.26163274 0.4969097 0.062000174 0.10600107 0.20035952 -0.10112014 -0.80419034 0.4547499 -0.17933045 0.13491698 -0.011354169 -0.24583922 -0.4825546 -0.5324782 0.35518277 -0.74566215 0.31101462 0.1028291 0.020088349
/title 0.0153716365 -0.034469277 -0.12739347 0.19337933 -0.16664574 -0.2698871 0.109553486 0.14066936 -0.86231345 -0.51519936 0.2952611 -0.023054652 0.077950105 0.15654996 0.42414734 0.24161696 -0.10599417 -0.5099732 0.3534295 0.1128441 -0.7758001 -0.30828556 -0.30894044 -0.016746193 0.0803755 0.15919858 -0.12337649 -0.36202738 0.070246056 0.053038288 0.37169626 0.45228708 -0.061070334 -0.13043538 0.15761511 0.3157322 -0.17183815 0.09002545 -0.15183604 0.22515377 0.05425971 -0.14946079 -0.3533647 0.2277607 0.041328873 0.1228002 0.32151267 0.077211 -0.18912573 0.044474743 -0.18260945 0.06148909 -0.07024158 -0.18925977 -0.60127485 0.16989617 -0.27787474 -0.100200355 0.22866361 0.21288714 0.18100436 -0.085714296 0.1698088 0.636474
/event/protest 0.42154923 -0.28867295 0.6084265 0.85631496 0.350156 -0.093252584 -0.17564948 0.26012003 0.018946014 -0.5162683 -0.13558786 0.16005804 0.6518918 0.2519803 -0.29274473 0.20237288 -0.18853013 -0.96313876 1.1446549 -0.18420388 0.5373633 -0.14026815 -0.606042 0.10314011 -0.18007356 0.26265654 -0.20989116 -0.5406839 -0.5973251 -0.27057406 0.31019083 0.32815096 -0.31285632 0.47624594 -0.07727443 0.4165979 -0.39963695 -0.02675673 0.28468016 0.25242886 0.3592719 0.22240095 0.43395865 -0.28933144 -0.53136855 0.20771672 0.5507997 0.086948395 0.11343934 0.21878876 -0.04422698 -0.81194425 0.5043324 -0.1907735 0.15930353 0.035304096 -0.23116897 -0.41402528 -0.49315193 0.29370743 -0.77396125 0.30780458 0.104158 0.087824784
/medicine/drug 0.60696936 0.61360997 0.46474478 0.18415537 0.48656875 -0.22924961 -0.6024993 0.23413827 -0.8852746 -0.037731394 -0.26527536 -0.20931135 -0.25017107 0.14283098 -0.4184955 0.8397226 0.43920574 -0.5991025 0.57007843 -0.062060505 0.7894246 0.15928435 0.056449328 0.265912 0.37564015 0.042859856 -0.11843451 -0.4224601 0.29366314 -0.04095952 0.93821293 0.6460608 -0.020955987 0.26663092 -0.38364258 0.6470197 -0.56729627 0.38078558 -0.050200626 0.2437873 0.3496814 -0.3643141 0.55325174 0.5928966 0.18868092 0.36517328 0.33068103 0.09083441 -0.27923337 -0.568745 -0.5242579 -0.21071634 -0.54469246 -0.33692172 -0.42644235 -0.22346388 -0.624032 -0.2903634 0.29378003 0.15118037 -0.37712952 0.044439703 -0.5552391 0.1445802
/language 0.13077031 -0.15932906 -0.22815959 0.25880536 -0.22476004 -0.4145562 0.19453217 0.21273614 -0.7340871 -0.3998094 0.2892866 -0.03826654 0.26238444 0.23161212 0.39683357 0.2872238 -0.2129574 -0.59481406 0.18011922 0.28320438 -0.57697153 -0.29966074 -0.30083385 0.14142454 0.06999723 0.2573968 -0.052561056 -0.22160551 -0.017549833 0.15108526 0.20654632 0.5927124 -0.051369894 -0.12038313 0.116764195 0.43305212 -0.12642743 -0.025671883 -0.025653634 0.081973426 0.08676129 -0.2083677 -0.28992915 0.44577765 0.06820469 0.032531843 0.32434487 0.1114949 -0.09142349 0.035408065 -0.13842317 0.11773934 -0.10624581 -0.31072012 -0.58943695 0.30430502 -0.31664795 -0.029676702 0.32077497 0.27854645 0.079589985 -0.13368608 0.18122903 0.661758
/building/sports_facility 0.049402893 0.075815424 -0.20296335 0.40225267 -0.54052573 -0.21385701 0.07821268 -0.29019058 -0.57599217 -0.52262014 0.17927541 -0.007031301 0.44302228 0.15590703 0.14917026 0.020819262 -0.38507715 -0.09263879 0.66861683 0.13512972 -0.30574897 -0.038247548 -0.23358853 -0.1353514 0.07531429 -0.21792227 0.3468049 -0.3025633 -0.062435728 -0.055888772 0.19609834 0.23653014 0.07403036 -0.33356646 0.2766469 0.3742299 0.083638996 -0.32406217 -0.24960525 0.26410115 0.40553463 0.047753885 -0.3200574 0.53155905 0.18939276 -0.18044144 0.08439969 0.1581244 -0.06282246 -0.23012874 -0.435393 -0.18029273 -0.14242794 -0.23038118 -0.16656432 0.05467239 -0.17243709 -0.3497722 0.031120623 0.22177218 0.27627817 0.24599206 -0.24893883 0.22987679
/location/county 0.0028407553 -0.26663226 -0.15986647 0.22468488 -0.10374594 -0.13647485 -0.032960344 -0.09034934 -0.81309354 -0.3867165 0.11678698 -0.11486093 0.3691843 0.13519713 0.46672252 0.079343155 -0.24122012 -0.6254518 0.26465058 0.41267887 -0.61603177 -0.199273 -0.25088298 -0.13018002 0.086729534 0.1327575 -0.09717262 -0.25396705 0.2941877 -0.004526956 0.24895555 0.40571982 0.11640684 -0.23355943 0.23314077 0.22188553 -0.1557779 0.1228646 -0.15336886 0.029436583 0.14280762 -0.019142253 -0.42166662 0.29019436 -0.029631061 0.23009196 0.34007284 0.08810279 -0.042144474 -0.080035284 -0.059560217 -0.036392186 0.05372332 -0.2036747 -0.47365114 0.2909751 -0.14054288 -0.17438178 0.2828289 0.38249055 0.099775374 -0.06350476 0.20908457 0.63976634
/building/airport 0.116807655 0.34611425 -0.2290569 0.24944504 -0.30339062 -0.106936924 0.048062768 -0.38782704 -0.6554374 -0.6338158 0.13282618 -0.089511774 0.20062009 0.08910584 0.20060971 -0.0552165 -0.571222 -0.2846123 0.760622 -0.025604947 -0.3478694 -0.04251954 -0.3632388 -0.25230387 0.2759215 -0.28516126 0.10713928 -0.21980706 -0.005177596 0.008311612 0.19334659 0.29869598 0.08403485 -0.23707274 -0.13488685 0.39086944 0.1289804 -0.17861168 -0.06520165 0.26804245 0.48283538 0.037358835 -0.33607247 0.5214137 0.23417637 -0.2150352 -0.08431291 -0.028255722 -0.035096865 -0.22453026 -0.5303349 -0.16080818 0.062380493 -0.123505294 -0.28624672 0.11175844 -0.067338474 -0.2553934 0.10858655 -0.17381373 0.17804542 -0.030708611 -0.25656658 0.35733685
/building/theater 0.10338038 0.31161594 -0.32947612 0.3885051 -0.07862573 0.22650404 0.013532369 0.06745743 -0.44413206 -0.40940166 -0.27968752 -0.036242772 0.017615503 0.21740589 0.23326345 0.025081517 -0.45579535 -0.0942427 0.6421011 0.2614571 0.02470424 0.3019006 -0.18200153 -0.121394046 0.08745745 -0.33539093 0.13012064 -0.49296734 0.008291054 0.15109545 0.46343642 0.24137841 0.08011695 -0.18114856 0.2582208 0.14566211 0.071078904 -0.23309611 -0.093442015 0.25774947 0.43188024 0.037807148 -0.034803234 0.5918829 0.17807518 0.24118544 -0.3098871 0.33090985 0.03910781 -0.14931105 -0.19795528 -0.072549365 -0.27976874 -0.34244952 -0.17325664 0.1428791 -0.049709633 -0.66452146 0.09548498 0.0891776 0.4959661 0.24114431 -0.60628176 0.030739134
/god 0.02861151 0.04930299 0.19604285 0.36394525 0.20288186 0.19628683 0.43838602 -0.24590869 -0.34957647 -0.6337758 -0.11099924 -0.3692367 0.33204064 0.8563545 0.12511328 0.06525234 0.22871664 -0.008454683 0.41556057 0.19752645 -0.11174213 -0.057657685 0.37270182 -0.48888606 -0.063594736 -0.020976484 0.62269515 -0.11113957 0.07629824 0.4967938 0.44956398 0.4883376 -0.00015001137 0.16145404 0.16679636 0.644334 0.26825714 0.45054477 0.42343035 -0.020210199 0.0778107 -0.18925452 0.29703525 0.29777336 -0.066409096 0.11848064 0.15878873 -0.0141000785 0.21139197 -0.25771222 -0.5080806 -0.10497321 0.24189849 -0.036944468 -0.08993984 0.27570194 -0.36036053 -0.13801424 0.43459755 0.5763878 0.19519818 0.55708104 -0.1521922 -0.071488686
/government/political_party -0.29267216 0.14153463 0.20580652 0.40167436 0.17543367 0.4399194 0.105180256 0.37124896 0.042730123 -0.2763238 -0.5162772 -0.15785076 0.16248317 0.36657852 0.3744647 0.11823615 0.2780128 0.13555728 0.059361115 0.3715761 -0.06813878 0.2959769 -0.27596897 -0.0061946237 -0.0950671 0.043910608 0.24787883 -0.5798216 0.1415804 0.0782931 0.4546274 0.35133776 -0.30669567 0.23192607 -0.04250182 0.5736003 0.30113077 0.21583582 0.031824216 0.06955365 0.40230617 0.11348739 0.2928966 0.5970656 0.18731382 0.5540231 0.2195953 0.0906654 0.083503954 -0.46617472 -0.24154693 0.064814426 -0.06460642 -0.15219009 -0.47813547 0.37399518 -0.15577054 -0.3212208 0.3557519 0.10732459 0.35931122 0.13743645 -0.24942409 0.1935287
/person/engineer 0.13286757 -0.33282736 -0.021671599 0.054787535 -0.33365303 0.27677083 -0.031799417 -0.07359688 -0.036578048 -0.45108402 -0.23123181 -0.09044553 -0.50010943 -0.021608112 0.060775425 -0.120485574 -0.42508867 -0.07761303 0.4954859 0.2857019 -0.31555572 -0.15186873 -0.055670597 -0.29085848 0.39367825 0.5557775 -0.18634196 -0.83669436 0.05714751 0.034328822 0.67567694 -0.123608604 -0.21005593 -0.29180017 -0.45260116 0.12494106 0.05554314 0.20785752 0.07896821 -0.36067238 0.35574043 0.17896122 0.014642911 -0.056430962 -0.5850728 -0.20697138 0.20264311 0.020834196 0.12593675 -0.06360266 -0.32880852 0.0771852 0.0018929343 -0.24101308 -0.28131956 -0.2552556 0.29379472 -0.16646272 0.6344756 -0.10564417 -0.17881745 0.17383419 0.36982304 0.20107813
/location/cemetery -0.1155546 0.09312129 0.24120463 0.4572351 -0.24328198 -0.33642507 0.14753376 -0.37859014 -0.5610541 -0.56396466 -0.04734808 -0.44808444 0.39721602 0.23008075 0.21955398 -0.005776947 -0.42458177 -0.16058387 0.5909717 0.23961037 -0.40305164 -0.23590863 -0.09999355 -0.03899142 0.2700499 0.09044881 0.17885248 -0.24439362 0.12500729 0.117047936 0.08147351 0.055166792 -0.13426073 -0.3703589 0.07286144 0.21795514 -0.19181062 0.15416741 -0.31311348 0.1714147 0.13916162 0.10931026 -0.22949694 0.4111917 -0.028726127 -0.10484683 0.22465993 0.5188083 0.059857372 0.019238168 -0.29730055 0.013773112 -0.010764861 -0.092357665 -0.3949949 0.18812922 -0.12250167 0.1685923 0.16425686 0.04558685 0.20629817 0.034913726 0.23984441 0.80076593
/location/body_of_water 0.0062459395 0.011177143 2.9622392e-05 0.31566507 -0.39860168 0.01575337 0.006338359 -0.32329562 -0.79469734 -0.6587831 0.11643493 -0.11085317 0.35826433 0.100323044 0.4733524 -0.1664258 -0.2281428 -0.29618856 0.28876153 0.20942326 -0.2969569 -0.2854456 -0.4092087 -0.056143828 0.12396457 0.107439615 0.13617219 -0.26181117 -0.067776166 0.20000748 0.15134913 0.13853277 -0.041175466 -0.3776425 0.09365843 0.45456326 0.19895987 0.11010623 -0.33464056 0.15896253 0.13581733 0.15654254 -0.19509771 0.3548566 -0.20112155 -0.01769742 0.16331095 0.16092698 0.10607086 0.052124795 -0.40864798 -0.06699655 -0.04810326 -0.11546044 -0.3912478 0.0047039445 0.012801495 -0.017669804 0.12756994 0.2235209 0.34561178 0.057677124 0.14419377 0.5248275
/computer/algorithm 0.46000427 -0.09685324 0.34712052 0.07778365 -0.6812913 -0.19554302 0.25784326 0.061540566 0.066222735 -0.17353751 -0.21852167 0.52986777 -0.4981258 0.14153488 0.5631274 -0.25773692 -0.15868522 -0.6676798 0.3338109 0.7339979 0.092450894 0.08918824 0.11398652 -0.23151612 -0.2179208 0.44351813 -0.30626848 -0.7577301 0.28996 0.4172728 0.45653218 0.061435696 0.017805858 0.029680585 -0.2619056 0.34604824 0.062137987 -0.19568786 0.231469 0.17426285 0.5365757 0.07727108 -0.091950595 0.44469842 0.16678019 0.0791289 0.29526362 -0.114278786 0.32030448 -0.4493411 -0.19186622 -0.078221604 -0.2095519 0.24640109 0.29184768 -0.120383665 -0.4180141 -0.30716458 0.17109904 -0.23103938 0.27968913 0.7181388 -0.22998358 0.09593386
/organization/sports_team 0.18618704 -0.05485603 -0.31820694 0.36143407 0.041517112 0.20112503 0.23932132 0.18152118 -0.42758903 -0.176375 -0.58683115 -0.2244945 -0.25546983 0.24140783 0.31631318 0.19711609 0.058221128 -0.0112988055 0.15221342 0.4308305 -0.05338758 0.061869185 -0.3958413 0.09965705 -0.07946559 0.11259481 0.07861154 -0.47293717 0.10322269 0.1899991 0.49844092 0.20557283 -0.11845766 -0.014556553 0.014393366 0.3231256 -0.06320284 0.112498544 0.07849245 0.02025895 0.32939765 -0.14462888 0.16425064 0.57079124 0.29475448 0.34079468 0.2332483 -0.21380106 0.117704526 -0.09106583 -0.31781495 0.03827808 -0.22976999 -0.3704401 -0.20956184 0.11789139 -0.2064325 -0.34006146 0.3362489 0.0025846702 0.12936534 0.18880914 -0.37320513 -0.03823398
/organization/sports_league 0.24100687 -0.17881705 -0.10546197 0.19331698 -0.023494314 0.12709095 0.14666975 -0.041236624 -0.45369458 -0.21720664 -0.830582 -0.13651176 -0.038631648 0.113000266 0.051317085 -0.011866529 0.07589672 -0.10135205 0.070178136 0.26236585 0.081097364 0.014759598 -0.41824812 -0.016592383 0.048504353 -0.03632355 0.144782 -0.42291418 -0.12055654 0.2764246 0.31728947 0.28920546 0.10921928 -0.061554886 0.1409232 0.47366515 -0.25177488 0.12034718 -0.03173376 -0.098527335 0.26738557 -0.21240741 0.28756613 0.37441054 0.43546543 0.27270496 0.32518652 -0.14898363 0.19337873 -0.43111837 -0.455989 0.2369047 -0.24103853 -0.46502015 -0.23695627 0.123547964 -0.058310922 -0.3228367 0.27613443 -0.03233149 0.361603 0.20638241 -0.4588233 0.105489105
/military 0.1850424 -0.11556898 -0.28408012 0.030424373 0.0717783 0.12863274 0.28840813 -0.08551498 -0.21298982 -0.30978084 -0.45840332 -0.19575647 -0.22459908 0.04855341 0.07224586 0.11304021 0.11182744 -0.07426587 0.3266688 0.3880892 -0.16805008 0.17540391 -0.24539618 0.040840223 -0.04297247 0.08565578 0.01615553 -0.49253955 0.3201351 0.10137151 0.557223 0.17559561 0.019836199 0.13850856 0.07359466 0.5546247 -0.05564148 0.20839693 -0.088628925 -0.12719223 0.36327565 -0.28725272 0.34596238 0.60363775 0.09465944 0.47210586 0.32343593 -0.12513374 0.17395826 -0.260794 -0.3722718 0.05363345 -0.1033759 -0.36549598 -0.086963125 0.036169134 -0.13268317 -0.445569 0.109000124 -0.117747374 0.17672078 0.088422626 -0.23431577 0.06000042
/location/bridge 0.0010065428 -0.0019116485 -0.0077102324 0.0070793866 0.0027564727 -0.00089096924 -0.0003265601 -0.0065754545 -0.007025161 -0.0014445139 -0.007434166 -0.0035856476 -0.007040289 -0.0037368978 0.004500744 0.0030885572 0.0018938119 -0.004498798 -0.003696529 0.0057786196 0.006975154 -0.0013149851 -0.0029910095 -0.0040613245 0.0057453653 -0.0053506824 0.0028562252 0.0006537085 -0.0022850898 -0.0030717207 0.0017124655 0.0014957907 -0.0010051711 -0.0037787117 2.9242727e-05 0.0015960399 -0.0006389092 -0.0016300058 0.0038075757 -0.007150144 -0.007513475 0.00097616256 -0.0037184267 -0.0005424224 0.00083198206 0.0016048052 -0.00060047855 -0.0012928502 0.0030775277 0.004967436 0.0014109014 -0.0019060541 0.0019335952 -0.00037613712 0.004164535 -0.002343058 0.005505566 0.0009112713 -0.0048888694 -0.0035838273 0.0056971437 0.001791168 0.0067475247 -0.007566626
/biology -0.0051080897 -0.00408543 -0.004761052 0.002972631 0.005801778 -0.0051687243 -0.0075092968 0.0030309402 -0.0042188223 0.0060810265 0.00542304 0.0024472657 0.006359383 0.0030594 -0.00028984417 0.0060319165 0.0059268093 -0.007483131 0.007402086 -0.003114444 0.0037905467 -0.0005451781 0.006055484 -0.0016269875 -0.005864031 0.0074725365 -0.0017669713 0.00593336 0.0077785724 0.0058293585 -0.004059914 -0.005457726 0.0031703701 0.004071247 0.0041988906 0.005997552 -0.0016748534 -0.00025626156 0.006827042 -0.004988658 0.0008656119 0.0040324694 -0.0036374563 -0.0012662952 0.0067571434 0.004535067 0.004053586 -0.00518256 -0.0030085037 -0.004495908 -0.0056210808 -0.0020600248 -0.006458341 0.0054291375 -0.0075717755 -0.005489601 0.0077206376 0.0036423267 0.006904185 0.006095645 -0.0062117376 -0.00071127695 0.0004080578 -0.0061764508
/person/coach -0.006408369 0.0028415737 -0.0073608323 -0.0068065766 0.0040131933 0.004689525 -0.0032209584 0.00311327 0.0032330332 0.0023560575 0.006985576 -0.0043215724 -0.002629945 0.006424425 0.0016374261 -0.006874021 -0.0039477968 -0.0030465221 0.00012321668 0.0042875623 0.0063846214 -0.0031893244 -0.0010141649 0.0012133969 -0.004387115 0.0031994556 -0.005197553 -0.006541605 -0.0075838314 -0.002106199 -0.006474996 -0.0068405834 -0.0031343962 0.0030994627 -0.002108933 0.0074318964 -0.002185424 0.006531887 -0.0008509567 0.00427909 0.00023662612 -0.0005358154 -0.0076826215 0.0025022984 0.005214588 -0.0055958917 0.00081956584 -0.0040405164 -0.0074306605 0.006476125 -0.0068545574 -0.0022525555 0.0018868701 -0.0047143097 0.0025753959 -0.0074893436 -0.005704953 -0.004369737 0.00040048105 0.0055341255 0.0004091148 -0.0033132208 0.005316913 0.0014145841
/organization/terrorist_organization -0.00052042794 0.000531652 0.004627352 -0.0020395173 -0.0021926023 -0.0005952014 -0.0044356254 0.0077990745 0.0066396114 -0.0010249753 0.0056231134 0.003983275 -0.0038372008 -0.003178969 -0.0062615806 -0.0072406395 -0.0063507417 -0.0022370203 -0.0075579314 0.00283617 -0.0023311686 0.002279152 0.0033399747 -0.0014882064 0.007499801 -0.006864255 0.001649813 -0.0021229465 -0.0014427877 -0.00256796 -0.0012960472 -0.0020081045 0.0017155446 0.0027625624 0.0013111958 -0.006799997 -0.0058017755 0.0024835777 -0.002395313 -0.0073743463 0.00089012133 -0.0055341283 0.0028214816 -3.69814e-05 -0.0020887475 0.004710551 -0.007572085 -0.006954975 0.003963 0.0041308575 -0.0061318018 0.0008781093 -0.00011105673 -0.0040420624 -0.0070645954 0.005166467 0.005947564 0.005884906 -0.0053152237 0.0073755984 -0.0053333608 -0.0036785821 -0.003479149 -0.0048018377
/organization/fraternity_sorority -0.0058171772 -0.0018394447 0.0050478852 -0.003997828 -0.0008953033 0.0018653144 -0.0012817732 0.0062456024 -0.0026134148 -0.0027292178 -0.0035273037 -0.0062237624 0.007123641 0.0038782316 -0.0061611813 -0.005327335 0.003367437 -0.0011138864 -0.00017200451 0.00037314388 -0.006653307 -0.0021448482 -0.0034946355 0.0033622868 -0.0007238608 0.0071351063 0.0030248372 0.0062768143 -0.003629975 0.0058771055 -0.0071184896 -0.0056201257 -0.001578119 -0.0035437145 0.0005653235 -0.0077222455 3.1932803e-05 -0.0043717953 0.0037627218 0.005704212 0.0033560926 0.006806576 0.00018936214 0.00027994218 0.005644219 0.0033813054 0.0010857712 0.003201071 -0.007674413 0.0031231865 -0.0034793357 -0.005558946 -0.0001832003 0.00757001 0.0013299395 -0.0030866112 0.0033223121 0.0030956757 -0.002871802 -0.00019860406 0.001852164 0.0052163657 -0.0034899092 0.0055798725
/geography/glacier 0.0074214963 0.002286331 -0.0074710147 0.003755235 0.006978547 -0.007584509 0.0022091174 -0.0041917088 0.0055032135 -0.0015990369 -0.006820584 -0.00083966897 0.00054481946 -0.002526951 0.0030760407 0.0004948684 0.0016960631 -0.0044954848 -0.0002205068 -0.006911322 0.0027366134 -0.005169836 -0.0033633867 0.0027736754 0.004981856 -0.00054755964 0.0040111938 0.0076543638 0.005336692 -0.00029815023 -0.0042533674 0.00042467564 0.0075665936 -0.0008463047 0.00079380145 -0.0049213637 0.0056006364 -0.0030509424 0.006457951 0.0024011424 -0.0036815316 0.004605084 -0.0037307583 0.0011498895 -0.0018993986 0.004092165 -0.0040530595 -0.005675881 -0.0076154307 0.0044704373 0.002204771 0.00087142835 0.0016336022 0.0006598234 -0.0035793073 -0.0054188417 -0.0015299176 0.0076950877 0.0012119066 0.0034439187 -0.006779586 -0.0071044206 0.0018810974 -0.004531456
/game -0.0062981048 -0.0040393877 0.0062431167 0.002885718 0.0018960424 -0.0058848066 -0.003378058 -0.00223857 0.0030818023 0.005946976 -0.0036208255 -0.00022091683 -0.006572367 -0.005155886 0.004833014 0.0011088697 0.005840513 0.006087825 0.0055167847 -0.0034521285 0.0072500654 0.001483174 -0.005408078 0.0066479566 0.0016944367 -0.003366354 0.007047186 0.0013720148 -0.0076283645 0.0075858016 -0.006958751 -0.0042094914 0.0034558852 0.0066658575 -0.0071794707 0.0048480337 -0.005131619 -0.0055711316 0.0029023252 0.0042496445 0.007075045 0.0017391423 -0.002136002 0.0019198119 0.0047286567 0.0055024037 -0.0012484867 0.00772095 0.007789512 0.0012210362 0.004392039 0.00024363716 0.0068367673 0.006649852 3.211398e-05 -0.0053185034 -0.0017776309 -0.002346625 0.0010991332 -9.263069e-05 -0.007170918 -0.004157951 0.0023756346 -0.004733815
/metropolitan_transit -0.0025346624 -0.0013867026 0.0046199206 0.0041795447 0.0059494674 -0.0060947896 -0.0043618744 0.0016378545 -0.0069544585 0.0011551558 -0.0030506824 -0.007378086 -0.0014729464 -0.0038376835 0.0077393265 0.00013487357 0.0011095109 -0.0063581667 0.007624046 -0.00708306 -0.0032090058 -0.006227949 -0.002837039 0.0022651134 0.00065874035 -0.0063522737 -0.0077808644 0.0065090423 0.0033382531 0.000947855 -0.005070551 -0.0001386929 -0.0011275148 0.0017862644 -0.0030868447 -0.005031523 -0.0050667604 0.006542982 -0.0011369467 -0.0031580012 -0.0038974527 -0.006645612 0.006066657 -0.0031510168 -0.0014898138 0.00048657611 0.0060065333 -0.00407593 -0.006046494 0.0038813602 0.0044757347 -0.007366695 -0.003193794 -0.006596843 -0.001300815 -0.007764616 -0.0075555677 -0.0046293545 -0.0036771563 0.0044776155 -0.006167899 -0.0029167098 0.0036836963 0.0042716796
/product/engine_device 0.0026506083 -0.00545638 0.0026921388 -0.0056528295 0.0069510797 0.006631056 -0.005168634 -0.0045126956 -0.002747972 -0.0077826567 -0.0044472977 0.0031986064 0.0053918185 -0.0009479063 0.00025387813 0.00021749423 0.0041896505 0.00025549953 0.0034913288 -0.0028395623 -0.0050890115 0.00700489 0.0015870113 0.0017696096 -0.0037983004 -0.0067204037 0.0024862993 0.00015455297 -0.007262986 -0.00058715546 -0.0064316755 0.0066640447 -0.0033518951 0.0020377762 0.0053467466 -0.003950916 0.0005673764 -0.00092646765 0.0015952756 -0.004305848 -0.0066171875 -0.0020824873 -0.0038135725 0.005773927 -0.0031165227 0.0056998017 -0.006323866 -0.0026376864 0.00065390655 0.0015914446 0.003863305 0.0012804539 -0.00557453 -0.0043787616 -0.004850353 -0.0069377897 -0.0016519905 0.0023035111 0.006428889 0.0066791065 0.0038717052 -0.00066052255 0.00050011836 0.0039015755
/astral_body -0.0056511476 0.00012763137 -0.0067488137 -0.00093519693 -0.005256304 0.0019383106 0.004884824 -0.0027092663 -0.0014087129 0.0037353868 -0.0042425515 -0.0011071115 0.0065836906 -0.0003316851 0.006569962 -0.0034677486 -0.004190499 -0.0010065273 0.0063123484 -0.005875335 -0.0027765958 -0.004898355 0.0008826484 -0.0026984846 0.0042346483 0.0022301422 -0.0016410644 -0.005391563 -0.0034582724 -0.0052908733 0.0047393027 0.005780568 0.0035213039 0.0022758301 -0.001986505 -0.001149843 -0.0047669644 0.0044353087 0.0004122058 -0.006087804 -0.004083735 -0.0021401397 0.0043331203 -0.0054244325 0.005427963 -0.007497178 5.0229286e-05 0.0065101404 0.004431994 -0.0038004504 -0.0052599283 -0.0063514123 0.0013693904 -0.004928839 0.0021164827 -0.00252843 0.0017591744 0.0045374306 -0.00029507896 0.007784603 0.005297904 -0.0076519405 0.006808021 0.007033374
/product/mobile_phone 5.6939938e-05 0.0003919878 5.467634e-05 -0.0022450064 0.0049780146 -0.0040857093 0.00703101 0.0016623308 -0.0057804096 0.00030769745 0.00020019404 0.0060593975 -0.00060829025 -0.00049354497 -0.0052808537 0.0033552672 -0.0052045006 -0.0010661936 -0.0019090291 -0.004447278 0.00013592592 -0.0071604424 0.0041044937 0.0020359082 -0.0020383382 -0.00041901963 0.00044775146 -0.0056036464 -6.714301e-05 -0.00097535545 -0.0026977144 0.0007369578 -0.004816578 0.0013759652 -0.0007392054 -0.003895249 0.0003011467 -0.0035245877 0.006439728 -0.00033648193 -1.5317557e-05 -0.0026576547 0.007498655 0.005076227 0.0048082727 0.002768161 0.0026161207 0.002879247 0.0050390577 -0.003225614 -0.0071788062 0.00074609084 0.0014870168 -0.004308479 0.004070328 0.0029781237 0.0025885892 0.0068773986 0.004772461 0.005513968 0.0025325085 0.0047916663 -0.0009733756 0.0061260182
/body_part -0.0037256542 0.00020624614 -0.0023083421 -0.0034242542 0.0050391997 0.0016924108 0.0075410577 0.007035211 0.003898442 -0.0058887885 0.0003129135 -0.0067633144 0.0042342446 0.007467814 0.0021990538 0.0068594 0.0067674774 -0.0065938863 -0.0045829955 0.0030405228 0.006375908 -0.0066065374 -0.0045301435 0.003767054 -0.0057788445 0.0024067168 -0.00057362067 -0.006456653 0.005416457 -0.0038575423 -0.0030329542 -0.0052452064 0.0027584292 0.0020574844 0.00010857493 5.6506633e-05 -0.0011331835 0.005696489 0.002985087 -0.0038850775 0.002562636 0.007276448 0.00615013 0.0069759977 0.0015285475 0.0024937585 -0.0007486154 0.0003187061 -0.0021040812 0.0025451311 -0.0012023054 0.0050484873 0.0019399244 0.0045927023 -0.00086794357 -0.0020290946 -0.002629286 -0.00761032 -0.00030775915 0.0007262763 0.0074911676 -0.00080035237 -0.0036240576 0.0026436297
/event/election 0.003933971 0.00048299594 -0.007788039 -0.0021785959 -0.0024345177 -0.0019755994 -0.0066705793 -0.0049951286 -0.0044604894 0.0065323054 -0.0006486436 0.0046352907 0.0046667806 -0.005627196 0.006591088 0.0019224129 0.0005168096 0.0035430335 -0.003197044 0.001949468 -0.0059166974 0.0022599003 0.004622307 0.0072755483 0.0030669875 0.004878746 0.0031200224 0.0017318166 -0.0007347807 0.006632497 -0.0055299937 -0.0020374297 0.0078123184 -0.006091704 -0.006469772 0.0075126397 0.0051441463 -0.0060849665 0.0058695693 -0.002086277 0.0064652287 -0.005214735 -0.005427437 -0.0040227217 -0.0067309933 0.001392786 -0.0014124953 0.002162564 -0.004930349 0.00040838163 0.00034502827 -0.004379538 0.0056876596 -0.00055312813 0.004205321 0.0042611924 -0.0048366566 0.0025874826 0.0032029555 0.0006888322 0.0004083876 -0.003307282 -0.001793373 0.006012562
/organization/airline -0.0026243236 -0.006014036 0.0041634575 -0.0075836247 -0.0022050422 0.0077442406 0.0047545573 -0.0056043365 -0.0006128807 0.0013199776 -0.0018134795 -0.005841484 0.0018908813 0.0012307983 -0.0009438686 0.00569241 -0.00397604 -0.0064508463 0.003548535 0.005848504 -0.0038595425 -0.002650388 -0.0060074227 -0.00594607 0.0069812704 0.0012341612 0.006530127 -0.0011353026 -0.002258422 -0.0034757978 -0.0031445804 0.0013328218 -0.0036825158 0.0061687916 0.005759724 0.0037488064 -0.00057992485 -0.004667526 0.007712795 0.0007754343 -0.00063371606 -0.0067821736 -0.004426861 0.0026665265 -0.0011295034 0.007798399 -0.0046011964 0.0034568817 0.0033728736 -0.00034686012 0.00095754093 0.001146655 -0.0037032834 0.0063971793 0.0036273506 -0.0031231705 0.006079959 0.0064042397 -0.006311933 0.0019599309 0.006722898 -0.0078055747 0.0032156792 0.0063218423
/metropolitan_transit/transit_line -0.0044647153 -0.0034184277 -0.0070840265 -0.005076594 0.0068858434 0.007248555 -0.0024158014 -0.007502025 -0.0048385686 -0.006040801 -0.0066173826 0.0029649425 -0.0029629197 -0.0073669283 -0.0050780666 0.007123819 0.005539586 -0.0074123037 0.005104282 -0.0026451827 -0.0068775075 0.006044286 0.006365789 -0.00633388 -0.0038331188 0.00319864 -0.00654159 0.007248128 -0.0016423612 0.0049805576 0.0021031064 -0.005381389 0.006036015 0.0040766094 0.0073108017 -0.0033094778 -0.000112060465 -0.00727292 0.0035884022 0.002488016 -0.002916811 -0.0055383183 0.001381734 -0.0063469307 -0.0049804556 0.004337605 -0.0005480137 0.004336384 0.0013074736 0.0043038875 0.0029080003 0.0030987158 -0.00061665266 -0.0017441309 -0.0006224128 -0.0032647147 -0.0050939713 0.006450771 0.0044969544 -0.0006589956 -0.0065508215 -0.0011485073 -0.0051325723 0.005002084
/product/instrument 0.0021024325 0.0033674769 -0.0038061836 -0.0065730424 0.0066463007 -0.0061146854 -0.0051778196 -0.0048410064 0.0018791767 -0.006350569 0.0071976525 -0.0073622693 -0.0017492002 -0.0062510455 -0.006528552 -0.0005139176 0.0015476533 -0.005315223 0.0018570309 0.004902818 0.0016834135 0.005129478 0.007227648 -0.0077003366 -0.00028920043 -0.007038139 0.003256797 0.0069008945 0.00095520285 0.0012452113 -0.0019748753 0.004468487 0.0007486197 0.006088237 0.0074725924 -0.0026119375 0.0023895185 -0.0014661895 -0.007676757 0.0074626305 -0.0003863991 -0.0051411977 0.0003813062 -0.005385613 -0.003470793 0.0035248739 0.0024984311 0.0035545558 0.0063702757 0.007470353 -0.0012097614 -0.005160969 0.0074186507 0.0029130909 0.00042816572 -0.0018695488 -0.0050870697 -0.002590848 -0.0039044446 -0.0076947836 0.0008415506 -0.006356729 -0.0072318185 -0.007511635
/person/architect -0.00014100119 -0.0073493146 -0.0009265842 0.004005038 0.006077823 0.0024855467 -0.0048193783 0.006181493 -0.0043858946 0.00091926125 -0.0036428424 0.004512462 -0.0034494356 0.0027292804 0.0076243393 -0.00773563 -0.000454726 -0.0078077572 -0.0010117557 0.006780085 -0.0035409322 0.0033826188 -0.00498111 0.0005147339 -0.0020484168 0.0031708346 -0.004978365 0.003321837 -0.0014717163 0.006747994 -0.002487408 0.0054745497 -0.001284997 0.0074611097 -0.0024633033 0.0034159562 0.003627338 -0.004589117 0.0011481141 0.0041576475 -0.003749632 -0.007435326 0.0003957747 -0.0064209183 0.004221392 -0.0057973927 -0.0009820025 -0.004513488 -0.0019487024 0.0001987675 0.0024190918 0.0035217497 0.0023083936 -0.0012178823 -0.004399153 -0.0017016405 -0.0066568013 0.0043713492 0.0052556708 -0.0024588853 0.003764971 -0.0006301034 0.0003260526 0.0050708475
/education/department 0.0028284192 -0.0017053925 -0.0066002067 0.0015160626 0.0025552944 0.005475404 0.005581093 -0.0018001982 -0.0031871295 -0.0014154508 -0.0069836974 0.0063854665 0.000836958 -0.001685936 0.0064557847 0.00055074407 0.0061185546 -0.0075257435 -0.000870425 -0.006948976 0.006930244 -0.0058648507 -0.006387606 0.0024332306 0.0015557616 -0.0055360324 0.0074040852 0.0056872056 0.0027395259 0.0031849628 0.006557959 -9.047646e-05 -0.0077435574 -0.003622393 0.0037634007 -0.00443702 0.0066980775 -0.0035132107 -0.0012850654 -0.0005733085 -0.0030332254 -0.0052194856 0.003991412 0.0016298413 0.0013886268 0.0061116386 -0.0047533102 2.2307186e-05 0.0016643058 0.0052419887 0.0034934583 0.0019476432 0.0073345676 -0.0022661167 -0.0029637765 0.0016689654 0.0017828775 -0.0062781745 0.0005789736 -0.0062068 -0.0038295714 -0.0017451999 0.0051611266 -0.0072288094
/visual_art/color 0.0028380894 -0.001694552 -0.0048883427 0.0034990099 0.005405854 -0.007106028 -0.004821379 -0.0055306107 0.00016378512 0.0010094927 -0.004723983 -0.0057386206 0.0050880346 0.005156071 0.0041663963 0.0018507928 -0.0032023997 0.005560907 -0.006719099 0.0020267197 0.00024219796 -0.002572952 0.0073924605 -0.0071669244 -0.0033544614 0.00030234412 0.0037329365 -0.0016496123 -0.003076705 0.007010457 0.00081464375 0.0015443965 0.0069853403 -0.0069601587 -0.0044959947 -0.0025098198 -0.005678382 0.00337138 -0.0032857333 -0.0019615872 0.0020207986 -0.0015493974 0.0043772813 -0.00013070767 0.0012327908 0.0069213803 -0.004501294 -0.00013697684 -0.0046859416 0.00708288 0.007192578 -0.0059355786 -6.8037465e-05 0.00072657585 -0.0063895653 0.0070027006 0.0018293652 0.004515953 -0.0076101264 -0.0050023845 -0.003496161 -0.005886862 0.0074698767 0.0013042176
/building/dam 0.005472971 -0.0010196284 1.0081534e-05 0.0075839385 -0.004926057 0.0027331056 -0.006884998 0.0075291875 -0.0035927373 0.0045628194 -0.003669809 0.007218388 0.0073610395 -0.0027748372 -0.0033789987 -0.005600663 0.0018778704 -0.0008865936 -0.003942759 0.0073941024 0.0050457045 -0.0012928641 -0.006886401 -0.004912991 0.0008243295 -0.0026261753 -0.006865838 0.0046960465 -0.004302357 -0.0057318406 -0.0037068694 9.5326825e-05 -0.00027517803 -0.003117189 -0.0054565268 0.0010137167 0.0015604305 0.000618302 -0.0004908318 0.0007343879 0.0067774868 -0.007329395 -0.004885497 0.0013903383 0.002372592 -0.0063479315 0.007434676 -0.0054187155 -0.0077255634 0.003076323 -0.006983495 -0.0026171845 0.0073047006 -0.0072284006 0.005601273 0.0053807814 -0.0018227492 0.0064562294 -0.0037255716 0.0032282907 0.002721582 -0.0034694804 0.00037352802 -0.0013077605
/product/camera -0.006820198 0.0066898437 0.0026682392 -0.0053083533 -0.0035236978 -0.0041133757 -0.0030981007 0.006845273 -0.0023142253 -0.0044513335 0.005573357 0.0023120139 -0.007002267 0.0034227232 0.004871955 -0.0064180703 -0.0006713449 0.0068002506 -0.006428559 0.0018461733 -0.0019135 -0.001812993 0.004975459 0.0039885845 0.0065174755 -0.0037734269 -0.0018224902 0.0069357236 0.0039573745 0.0009107799 0.0031230839 -0.00046590203 -0.005815127 0.0065603387 0.004949031 -0.0062841824 0.0046538203 0.003239759 0.006859479 0.003751069 -0.0038497408 0.0050672805 0.0038785557 -0.0044679525 0.004680849 -0.0012081218 0.0055740466 -0.0025909932 0.0075353445 -0.004775975 0.0011575667 -0.00021690618 -0.0068386523 0.0051885797 -0.0028042954 -0.003994533 -0.007040245 -0.0054642353 0.001123124 0.0020722812 -0.0049652387 -0.0014494561 -0.0057213004 0.00060052134
/music -0.006209938 0.007737354 0.00478213 0.003912305 0.006863584 0.005510428 0.0010649308 -0.0011678919 -0.007520243 -0.0029236884 -0.007291263 -0.0033414622 0.0034862827 0.0071157007 0.002263818 -0.0066936472 0.00044478202 -0.006177807 -0.0066494714 -0.003201649 0.0024910315 -0.0019594177 0.0003607466 0.0020757837 -0.0039299424 0.0040633515 -0.0070507126 -0.0022557485 -0.0074931374 0.0072468147 -0.006546116 -0.0068903393 0.0027366676 -0.005404996 -0.0023405107 0.0022255655 -0.0045838207 -0.0062232763 0.0063392697 0.0036645338 0.0035213295 -0.0015466035 -0.0072324397 0.0044676894 0.0010894145 -0.0063619865 0.007468805 -0.007708516 -0.0008285919 0.005603039 -0.0037154094 -0.0066772434 0.0040702694 0.001095761 0.0046565575 0.0024385082 0.0068763783 -0.0025568435 0.00583112 0.0032948302 -0.003935364 0.0007560671 0.00022721259 -0.0013750609
/visual_art -0.0068755397 0.0029600125 0.00059799926 -0.004257364 0.002008654 0.002037949 0.0026560666 -0.005966025 -0.006389182 -0.0058787 0.0021964507 0.0033271604 -0.0020023363 0.0013737333 0.0077920468 0.0011192303 -0.0037219469 0.0077057043 0.007235376 0.00618298 0.002710147 0.0009433258 -0.00047236748 0.0042525707 -0.006325002 -0.002740629 -0.002123921 0.0016227005 -0.0070964196 -0.0068395436 -0.006630957 -0.0032482548 0.007794691 -0.004003588 -0.0020375303 0.004011258 0.0048225024 -0.0016444621 0.001767543 -0.00079173764 -0.0031350285 -0.004246258 -0.00082141475 0.0044450234 0.002871162 -0.0038653451 -0.0076118824 -0.0060273847 4.5823173e-05 -0.0053563328 -0.0003587608 -0.0074582906 0.0016993624 0.00456775 -0.0063829715 0.0040528467 -0.0025695295 -0.0033185913 0.0015101598 0.0024253041 0.003800112 -0.0051797475 0.0031762444 -0.0055653
/chemistry 0.0046908394 0.0014664497 0.0007466309 -0.0006481163 -0.0036015622 0.004694899 0.0005417887 0.0017839238 0.0037880102 -0.0049762 0.0030871767 0.007750975 0.005444449 0.005865916 2.1079297e-05 -0.004130412 0.0012893564 0.0044961306 -0.0006547801 -0.0021933888 0.006163901 -0.0007884522 0.0034927381 0.0077707237 -0.0071694315 -0.0009826684 -0.0042833965 0.0019712471 0.0010219516 -0.0033263082 -0.0070501165 0.003948199 -0.006271114 -0.00014545188 -0.003981375 -0.00437418 -0.0023824994 -0.0034685663 0.0003330883 0.001054554 -0.0038378632 0.0054058847 0.0023306878 -0.004401076 0.007646239 0.0052945586 0.0021439022 0.007467384 0.0050175507 -0.00497871 -0.0007825025 -0.0025950794 0.001297805 0.007628448 0.0015332537 -0.00513057 0.007549592 -0.006783174 0.0045401277 0.0061068838 -0.00673559 0.0046529914 0.0038103384 0.0019880384
/transit -0.0063433936 0.0039110566 0.0013521012 0.0038030422 -0.00038599016 -0.0014339015 -0.0013793006 -0.0059569515 0.0011069296 -0.0052124495 0.0011257876 -0.004506801 -0.00032109048 0.0043682675 0.0074858596 0.0033862214 -0.0037183317 0.004968096 -0.002608468 0.0034106818 -0.0051998985 0.0021384652 0.0038398858 -0.0015708662 -0.005656159 -0.0073264586 -0.0011749257 0.0042067687 -0.0012330374 0.0022081707 0.0053937864 0.0062186513 0.00053297327 -0.00057252526 -0.005404666 0.0037974953 0.0016630259 -0.0039265505 0.00015678152 -0.00030155983 0.0020063384 -0.006510747 0.0004712624 0.0068979342 -0.00045627778 0.00017089596 0.0058691376 0.002061951 -0.0002672358 -0.0026936566 -0.0062749847 -0.0054087522 0.0050811577 -0.0040540444 -0.0019082064 0.0045977845 -0.0036449535 0.0011168815 0.0029576109 -0.006057275 -0.0068857092 -0.0030307437 0.0020070588 -0.0037859974
/play -0.0073561035 -0.0048372587 0.00092471024 0.0029380939 -0.0017842173 0.0055010496 0.0019413923 0.0015102373 -0.0031216748 1.5192254e-05 -0.002240872 0.0035219833 -0.0077099176 -0.0028748412 -0.0070851278 -0.004610368 -0.002586436 -0.00028073977 -0.0034288205 0.004011246 -0.005883789 0.006969054 0.0018717614 0.000391334 -0.00386694 0.003600479 -0.0047874055 -0.0030346862 0.0020455192 0.005054417 -0.007675473 0.003558619 0.0029519168 0.006930014 -0.0046677687 6.7514666e-05 0.0066769836 -0.0011134176 0.005324656 -0.003273287 0.0074123973 0.0047592255 0.0035223912 0.002370259 -0.005012337 0.0018100182 0.0006669296 -0.0038147615 0.0022992832 -3.776968e-05 -0.0037412143 -0.0040339157 0.0060300003 0.0027679412 0.0066297506 -0.0018421862 -0.0027346972 0.0033115565 -0.0024134703 0.0021325722 -0.0069527705 -0.0020377687 -0.002820007 0.004638177
/time -0.004751055 0.0050790003 -0.0022413137 0.0031108512 0.007356075 -0.0033240437 -0.005403281 -0.0012656936 -0.0003729403 0.004056121 0.00035044402 0.00048973406 0.0023163932 0.0034437943 0.0028629345 0.00070934155 -0.0038504328 0.00082196086 -8.85535e-05 0.0066617006 0.0010571036 -0.007218392 -0.005909894 0.000549108 0.007497945 0.0017287085 -0.005914619 -0.0022899492 -0.0002580156 -3.3806577e-05 0.00041259688 -0.0074857324 0.0013931746 -0.0075316704 0.0010785712 -0.003747877 -0.0049253535 -0.0064219865 -0.0026265564 -0.004399557 0.0018307887 0.0010115358 0.0018300671 -0.00063549506 -0.0015343261 -0.0037180383 -0.00023070115 -0.005908716 -0.006852117 0.0015960102 0.001946917 0.0078013786 -0.00085975975 -0.00068652426 -0.005465364 0.0025518173 0.0035569915 -0.005405374 -0.0053520924 -0.0012281195 0.0060343575 -0.0073429313 -0.0051514427 0.0067463205
/train -0.0031028977 0.001248362 -0.004891304 -0.0063085193 -0.005957256 -0.0033128452 0.0012824793 -0.0049666883 0.0022970191 -0.005802615 -0.002758214 0.0048229084 0.006479734 -0.007298636 -0.0016759105 -0.006671506 -0.0035831898 0.0012919593 -0.0047093993 0.0048138383 -0.0040867655 0.0066432413 0.0036779707 -0.006968304 -0.00057473936 0.0024954563 -0.00028476052 -0.0048134 -0.005875429 -0.0011206627 -0.002000968 -0.0020982292 -0.0067377235 -0.0036872707 -0.003555653 0.0032955315 0.006383814 -0.00087591907 0.0025832152 0.00746354 0.007589133 -0.007028512 -0.0006124772 0.007657248 -0.0036403595 -0.0010803135 0.004050159 0.002468196 0.0023089494 0.0038601675 0.0027794123 0.0010206668 0.002802816 -0.001087276 0.0017957551 -0.0016660427 -0.003999312 0.0021080233 -0.002907976 0.0071384064 -0.0057504307 -0.0019500575 0.0071375254 0.006705625
/building/power_station -0.003233879 0.0037304955 0.0012089465 0.0013720439 0.0061842003 -0.0062191784 0.0060809623 -0.00050123275 -0.0026403174 0.00042669507 -3.0075476e-05 -0.0056763166 0.0035306418 -0.0053818743 -0.0019177713 0.0022579834 0.0064020203 -0.003248932 -0.0020777336 -0.0044034435 -0.0016219805 0.0043405653 -0.004306126 0.0019880168 0.0051120333 0.00453339 0.004566955 -0.0028023964 0.0055729295 -0.006477338 0.00185002 0.0047621215 6.479768e-05 0.0052913288 -0.0010267051 -0.0012703344 -0.005286186 -0.007332865 -0.0048512705 0.005118217 -0.0005052568 -0.0020293011 0.00074853 0.0066974447 0.007659649 -0.005115702 -0.00021513332 -0.0019865762 -0.0036877564 -0.0070629288 0.001789639 -0.0029011888 -0.007633337 0.0070568197 0.0052182847 0.0021424757 0.0022442574 0.0030968643 0.0024312853 -0.0069388337 0.0032481707 0.0010055046 -0.005428481 -0.0025995274
/building/restaurant 0.0053076544 -0.005990728 0.004415352 0.004248629 -0.00469537 0.001281397 -0.005241427 0.0030492472 0.0039661084 0.0020384213 0.0037425335 0.0030303297 -0.0065422463 0.0023122297 -0.0059727184 -0.005775124 -0.002239835 -0.006438754 -0.00425376 -0.0035984793 0.0022143505 -0.0006976911 -0.005206672 0.00043386477 -0.0049364856 0.0068201674 0.005135877 0.0041151424 0.0040807505 -0.002485419 -0.005123475 -0.006645402 0.005686445 0.00027954276 -0.00068848825 0.00081626914 0.0054641683 0.0007517673 0.007139042 0.0060540116 -0.006723554 0.0004978335 0.00027076466 0.0021314768 0.003029637 -0.0067314515 0.00767699 -0.0072706304 0.005357814 -0.0028843884 -0.0019442162 -0.004064363 -0.0024249824 -0.0039470955 0.00046726438 0.004979066 0.003953278 -0.005534679 0.004751525 0.006824715 0.0012736284 0.0014434023 -0.00010578939 -0.0012522781
/park 0.0047254236 -0.0009737098 -0.005947849 0.0021401846 -0.0004613261 0.0045920094 0.003186512 -0.0077401535 -0.0025132871 0.0040575536 0.002767357 -0.005992216 -0.0039980877 0.0001924147 -0.0023648217 -0.00042993473 -0.006909011 0.001934678 0.007524919 0.003702805 -0.0037503499 -0.0045721196 0.002969397 0.0035816187 0.005042514 0.0063355733 -0.0076555465 -0.00012748834 0.0014477496 -0.0026649695 -0.006938977 -0.0019493026 -0.0066070226 0.0011454896 -0.0062034572 -0.0028897156 0.006326801 0.007281381 -0.0012479677 0.003716505 -0.0047727097 0.005909207 0.002391074 -0.003050245 -6.409129e-05 -0.0075630853 -0.0039246203 0.007677931 0.0009875768 0.0038583619 0.0060976306 -0.0031006772 -0.0056281565 -0.0037861313 0.0020836855 0.002126217 0.004101297 0.0075695813 -0.0017541002 -0.003022582 -0.007178602 0.005025344 0.0023245758 -0.0035927403
/event/sports_event -0.007295042 -0.005565145 -0.0006797286 -0.001497653 0.006913545 -0.0010721076 0.0068323747 0.0020479788 -0.0022156707 0.0024086968 0.0026538938 0.006193915 -0.0065581435 0.0019403237 -0.0068043685 0.0010334455 0.0030862605 -0.0018332443 0.0018469571 -0.0025037148 0.003363391 0.0031259453 0.0059622447 0.0030237988 -0.0051043057 -0.0016641435 0.0025145826 0.0026932235 0.004265467 0.0030340338 0.0032231384 -0.002656788 0.0072997967 0.0059156795 0.0017196074 0.0021511894 0.0013140567 0.007439906 -0.0020111403 0.0075811925 -0.00011820439 -0.00023567399 2.6459236e-05 0.001938425 -0.0031459583 -0.00047050125 -0.0019112445 0.00012264744 0.0053538615 -0.0049970835 -0.003893656 -0.0060568177 0.0060562044 -0.003998112 0.0065247305 -0.005631272 -0.0038873127 -1.1977422e-06 0.0037591492 -0.0058512897 -0.006768051 0.0029841238 -0.0008534125 0.0005624042
/building/library -0.007677266 0.002955278 -0.0030281248 0.00071769906 0.0063319486 0.006865252 -0.00058904313 0.0052867006 -0.0045437627 -0.0018482003 0.0021041308 0.0037537115 -0.0021640204 -0.0036017366 -0.0010744319 -0.00057998335 -0.005417048 -0.0025917515 0.0039127073 0.0075670183 -0.005528657 0.0023069838 0.0020966677 -0.0025444285 -0.0031327303 0.003992146 -0.006918871 0.0034799036 0.0013542545 0.007078164 -0.004219892 0.0063135256 -0.0032160287 -0.003900217 0.0019893502 -0.007414511 0.0049740653 0.0027223236 -0.004968012 0.0023639416 0.00603531 -0.0048412564 0.00061533303 -0.0073910626 0.0057320343 -0.0061531174 0.0026382122 0.00766569 0.0033451153 0.0028071555 0.0067789718 0.006076074 -0.0057337326 -0.0054931776 0.0073703188 -0.007767034 -0.0022292493 0.004987066 0.0067568533 -0.006230624 -0.0040332614 0.0002572402 0.0016786881 -0.0056556123
/person/terrorist 0.001118731 0.0030878498 0.0002367508 -0.0076204212 -0.0038028234 -0.0018787938 -0.0034698304 0.0033010868 0.005236169 -0.0018922501 -0.0036881894 0.00042553767 -0.0042101718 -0.007308727 -0.002636973 0.001414925 0.0066884914 0.00619353 0.006378441 0.006701195 0.0024042053 -0.003083441 -0.0042057573 -0.0059238547 0.0057210634 0.0040782304 0.0011100947 0.006814949 -0.0035613352 0.0030478346 0.0064006606 -0.0076957075 0.0018255783 0.0032880048 0.005744422 -0.0059684236 0.00096173765 -0.0035552362 0.0014966492 0.0033801487 0.003166592 -0.0012952237 -0.0019509806 -0.0021991283 0.002045944 -0.003197197 0.00089893024 0.0066730087 0.0059865 -0.003562774 0.004493952 0.004504333 -0.0009766534 -0.005655269 0.004506461 -0.003320227 -0.0041950513 -0.0039843298 0.0059088683 -0.0077184183 -0.0033969327 0.006627567 -0.00043779917 -0.0050180363
/finance/stock_exchange 0.0007726661 -0.0040862537 0.0014494022 0.0042949845 0.00469081 0.0035391934 -0.0042712237 0.0024332867 0.0018697832 0.0041458094 0.0005274646 0.0016874889 -0.0011288759 -0.0026165298 0.0057527213 -0.00016163042 -0.0061947526 -0.00085128535 0.0019363986 -0.0010140601 0.0013428389 -0.0040224283 -0.0038089128 0.0010833115 0.004044264 -0.0031549556 -0.0030864459 0.0008072467 0.0043792445 0.0028988742 0.0018640077 0.0035587589 -0.0062266234 -0.0056792437 -0.00507243 -0.0023229895 0.0033377856 0.0021115758 -0.0039069625 -0.0055610454 -0.0021042293 0.0021656635 -0.0054507554 -0.006432832 -0.0028884443 -0.0033691667 0.0010347358 0.0034378294 0.005021356 -0.004912308 -6.577227e-05 0.0010849476 0.0034751622 0.0067162183 0.005699361 -0.0017750561 -0.004977138 -0.005478413 0.00265058 0.00077065657 -0.0056147254 -0.0061922055 -0.0057298504 0.00060012913
/law -0.0007486877 -0.0018770238 -0.0046807495 -0.0007707819 -0.0036286374 -0.0048670857 -0.006202513 0.00637537 0.0061552096 -0.0028249933 -0.007204364 0.007266486 0.0068467143 0.006638924 -0.0026188632 -0.0015002568 0.003458745 -0.0073891277 0.0027974567 0.0021040232 -0.0006036656 0.004143828 0.0041536028 -0.003852031 -0.0047775903 -0.0024754568 -0.0028261433 -0.0011843789 0.0076050824 -0.0048355428 -0.0008144601 0.00067106535 0.006698366 0.005714164 0.0028797595 -0.0030222659 -0.005133555 -0.00021432259 -0.0046564173 -0.004659674 0.005779357 0.00551615 -0.004267166 -0.00084148446 0.0014345141 -0.0035205707 0.0057555037 -0.004667058 0.0038332697 0.006711434 -0.007008443 0.0016354057 -0.00061871845 -0.0076021273 -0.0037989 0.0037027583 -0.005985863 0.0050808107 -0.0009579173 0.00050786027 -0.00071616116 0.0010228237 2.2909964e-05 -0.005414776
/product/weapon -0.0077264826 0.005568064 -0.0057802396 0.0035783295 0.0052742423 -0.004361701 -0.00068780634 0.007157745 0.0020920706 0.0046031317 0.0008114378 -0.006475138 -0.0039340276 -0.006016645 0.00073923985 0.006356805 0.002340786 0.0006795635 -0.0014782856 -0.0068190363 -0.0028089904 -0.0073645944 0.004324232 -0.0045644445 -0.007274711 0.003701405 0.0015689669 -0.0005806835 -0.002391649 0.00078326726 -0.0075662187 -0.0010695355 -0.0016274597 0.0032743097 -0.0015529647 -0.0019582023 0.00024007467 0.0030293332 0.0058905683 0.0043757427 -0.00035424842 0.0076992083 0.0026829657 0.007492536 0.0038311766 0.00021031925 -0.0003179148 -0.00053452107 -0.0057187104 -0.0002098903 -0.0044824095 -0.004486616 -0.00035900212 0.00076991774 -0.006631857 -0.0048739314 0.0053630546 -0.0063642757 -0.006096899 -0.0032888886 0.004737188 0.0045956844 0.003186018 0.006617653
/software 0.0011070574 0.00209145 0.00061236374 0.00031350908 -0.0007578502 -0.0009094887 0.00327149 -0.007286744 -0.0058430466 0.0020859658 -0.00214344 0.0067971605 -0.0020375215 0.0035445292 -0.0056396946 0.0004793471 0.0032297492 -0.0033662878 0.0015114489 -0.005562519 0.0031482452 0.0048621753 -0.0011838123 -0.002948857 0.0014188346 -0.0015322443 -0.00030727254 -0.0045021456 0.00011593932 0.003923518 0.0034944974 0.004124609 -0.006776329 -0.0014605052 -0.0022249054 -0.002791977 0.0076549356 0.0027357196 -0.0042451583 -0.006669 0.0042834105 0.0025239254 -0.0067736157 -0.005589891 0.0066322247 0.0045187934 -0.0005171843 0.0061993967 -0.0061947145 0.0014552358 0.005605709 0.0056868275 -0.007507917 0.007138055 0.0070034815 -0.00697543 0.0023310427 0.0071392814 -0.0061600343 -0.0054512513 0.006802901 -0.00648574 -0.0045737308 0.0031667303
