128 500
/location -0.03050055 -0.007254654 -0.059772495 -0.13665162 -0.13897271 -0.0087145455 0.060667526 -0.11081555 0.057690077 -0.064996056 -0.011288502 -0.086493604 0.0380845 0.0018413479 -0.07342776 0.16960837 0.02425921 0.06388185 -0.18986776 0.008917496 0.28125247 0.063876584 -0.017513655 -0.18192318 0.059169833 -0.053153656 0.11121886 0.22630453 0.0806546 0.062139466 0.085736476 0.117812715 -0.0355767 0.16412218 0.019939734 0.10401226 -0.22430877 0.0066366806 -0.1789234 -0.13606304 0.050142694 -0.061699256 0.035479575 -0.09425872 0.020763861 0.06905918 0.029985545 -0.0114671355 -0.06266785 0.07716388 0.054449566 0.021996591 0.12526113 0.058558073 0.039046466 0.025281057 -0.06929804 -0.017016547 0.0050543663 -0.14347376 0.07462031 0.07519721 0.20117533 -0.1365955 0.09813539 0.04830305 0.07287739 0.050342556 0.07517722 0.19570059 0.040558357 -0.024023058 0.009385903 0.045963764 -0.15474865 0.08880163 0.00244575 -0.08608841 -0.0015835272 0.13800474 -0.028417643 0.08876215 0.017385446 0.06651491 -0.0337315 -0.021000873 -0.28586245 0.09128693 0.018921165 -0.11636087 -0.059295874 0.08940165 0.0071762092 -0.0024049298 -0.108697966 0.09228055 -0.081236 0.012384999 -0.21633683 -0.1583909 0.06564355 0.1465148 -0.010763851 -0.061119135 -0.002576732 -0.07149179 0.008514146 -0.122063145 -0.020037394 0.05800894 -0.039459758 0.10474521 0.062487118 -0.19167578 -0.020668598 0.09169814 0.0024004271 -0.11137686 0.029876057 0.06838608 -0.10201446 0.019243637 0.05092177 -0.0041951495 0.08204554 0.008766579 -0.056016583 0.11779872 -0.07317135 0.04394781 0.03323078 -0.042929765 0.028473806 -0.008913312 0.022209767 -0.18164091 0.097580574 0.083521955 0.06960617 0.097446814 0.19001777 -0.013556298 0.16306497 0.021700881 0.06752393 0.071320176 -0.06369348 0.061573736 -0.0367754 0.24560606 -0.017917683 0.010859221 0.094725415 0.08722663 0.027193176 -0.09701414 -0.0088927625 -0.22070394 0.1644784 -0.10253921 0.076536246 -0.10211148 -0.0552829 0.00011689736 -0.026244683 0.052258227 -0.043140616 -0.114414 0.0705702 -0.031149717 -0.09201823 0.018882852 0.083962135 -0.050522342 -0.043466035 -0.06943349 -0.01484569 0.16287315 0.06035634 0.05643678 0.12895101 -0.010729553 0.070042916 0.16953392 -0.16148639 0.13142431 0.051490292 0.023850808 0.04150641 -0.1373216 0.19667442 0.10196723 0.031926915 0.13769087 0.045061693 0.011933132 -0.05192255 -0.07575668 -0.00034199873 0.14617302 0.062501274 -0.17539898 -0.030401573 -0.10286262 -0.0059034303 0.15110834 0.14233412 0.03172174 0.032191038 0.10508542 -0.03729805 -0.09438995 -0.05748015 -0.12053871 -0.052602306 -0.027983999 0.064457245 0.009004865 0.013513247 -0.0134813525 0.094261035 -0.07897359 0.04385003 -0.01636444 -0.026586168 -0.021948043 0.088379785 0.097169854 -0.10475069 -0.017048722 -0.09239719 0.05576144 -0.007922354 0.031487033 0.04427011 0.020219827 0.07144601 -0.077644475 -0.066086106 0.1433422 -0.010619227 0.102145076 -0.09907707 -0.081279755 0.0025761696 -0.09630442 0.04545373 0.028255105 0.016721355 0.121299826 0.16166732 0.014751086 -0.040898863 -0.05617859 0.14178556 -0.0986272 -0.08736089 -0.0505533 0.02448799 -0.1412619 -0.06570445 0.028255412 0.1757859 -0.1039576 -0.022809807 0.07890111 0.09729184 0.07850492 0.019036768 -0.15422562 0.021127373 -0.17833926 0.044306822 -0.08271562 -0.12967728 -0.023203077 0.043256823 -0.014539974 -0.009125248 -0.077489704 0.10816524 -0.10044501 0.04744302 0.026576368 0.12302599 0.07706478 -0.049365852 -0.017156867 0.035617348 -0.027304357 0.00011638345 -0.019294694 -0.03311236 0.06965987 0.10240295 -0.028358726 -0.17273113 -0.07470269 -0.028610183 0.105456784 0.021613577 -0.016606292 -0.0487286 -0.056105748 -0.040434606 -0.091474734 0.045138575 -0.057758525 0.13963576 -0.020182718 -0.076922454 0.042952128 -0.095791526 -0.029126707 0.03777976 -0.022806853 -0.10652258 -0.05404608 -0.05986607 -0.09239162 -0.023300914 0.13208057 -0.15002406 0.087533355 -0.013082791 0.053546526 -0.21904825 -0.035562273 -0.044607785 0.061238438 -0.07853076 -0.024840416 0.05401247 -0.1141851 0.03661971 -0.18790784 0.10917499 -0.0315458 0.037903618 0.04273133 -0.1602661 -0.018710436 0.06726587 0.054362252 0.03374478 -0.08503804 -0.08604409 0.03369232 0.024007767 -0.14682698 -0.0033649835 -0.046002388 -0.067747384 -0.20176557 0.026799075 0.069892496 0.020592637 -0.009355938 -0.04097244 0.006892175 0.02183063 0.06875494 0.10239069 -0.041810755 -0.065941796 0.028455986 0.054240752 -0.10609114 0.03976284 0.20969501 -0.02057196 -0.16857894 -0.005292814 -0.089403704 -0.090356626 0.02807898 -0.0311241 0.097431116 -0.06487312 0.027872311 0.08960591 0.09104574 -0.0073417122 -0.13971096 0.019026872 -0.026096987 0.058752894 -0.19934334 -0.032738864 0.09775301 -0.0482114 -0.06483928 -0.1415904 0.0020347105 0.038443666 0.01461641 -0.023976967 0.016351972 0.015522396 0.06619601 -0.083968095 -0.28717756 0.009504046 -0.011967952 0.005136629 0.1654875 0.08484193 -0.028662343 0.07485326 0.22595501 -0.030636247 0.10505477 -0.055417508 0.13151152 -0.106843345 0.017784929 0.04040805 0.02835536 -0.15112805 -0.010666909 -0.12542653 0.09817693 -0.11665235 -0.07791611 0.029581651 0.050470136 0.03603712 -0.036592823 0.038911317 -0.01944972 0.07955916 -0.10562121 -0.08978988 -0.10618229 -0.085522726 -0.117759444 -0.08708463 0.087386414 -0.024869002 0.16099766 -0.0289788 -0.16746932 -0.1447568 -0.003096732 -0.052116267 -0.157309 -0.035021257 0.16031623 -0.16565667 0.043580435 -0.13843778 0.29870868 0.120492 -0.023607764 0.13016146 -0.072363414 -0.018709507 0.20159419 0.18335019 0.04993027 -0.049987663 -0.22284052 0.12031764 -0.022993801 0.1676189 0.049458206 -0.016669935 0.1153474 0.04408385 -0.023231868 0.016836831 -0.11446679 0.0047509833 -0.17012303 -0.018538833 -0.059015807 -0.05938741 -0.013161788 -0.11827871 -0.012816066 0.15514441 -0.035678804 -0.03914237 -0.070396245 -0.09941037 -0.03188826 -0.12947059 0.081872776 -0.080346 -0.08519111 0.03076224 -0.06204416 -0.01841657 -0.0090699745 0.03933143 0.23264787 0.113644786 0.059217714 0.1394849 0.035765998
/organization 0.014753786 0.08481196 -0.16933388 -0.07207239 -0.17569329 -0.030056935 -0.03952622 0.16319919 0.03514924 -0.0012965504 -0.11514167 -0.102382936 -0.0635999 -0.046188354 -0.09325602 0.23364024 -0.1787745 0.037547857 0.015805205 0.03873694 0.0947857 0.06032122 -0.10030844 -0.04317453 0.05563125 -0.041320108 0.0114461575 0.06569527 -0.012226128 0.031124482 0.07712353 0.03186539 0.12431421 0.011788307 -0.01272942 0.19645457 -0.015981536 0.14033116 0.02178628 0.060480397 -0.050512988 -0.004617008 0.19072926 -0.06504557 -0.04304089 0.10303963 0.12326648 -0.10319637 -0.093424566 -0.09316167 0.011058531 0.14681247 0.07277951 0.065825805 0.005467257 -0.15437461 0.058625128 0.019400222 0.118580565 0.060748048 0.061739642 0.016078256 -0.013690165 -0.13982332 0.13807712 0.019987347 0.011863468 0.047180884 0.175758 0.13076751 -0.09748789 -0.11623059 -0.13079515 0.07019385 0.02620668 0.07322435 -0.0032511882 0.08496452 0.18300483 -0.042547323 0.06763861 -0.028198477 -0.021958854 0.14682294 -0.0031298823 0.08906663 -0.22200815 -0.034750585 0.1956913 -0.27701142 -0.12533003 0.0030449927 0.010572911 0.0137577765 -0.007772592 0.15817547 -0.063506834 -0.15750585 -0.13447633 -0.08066673 -0.016294349 0.015690915 -0.1290279 0.039919227 -0.056278672 -0.1134237 0.111631505 0.044100184 -0.0046759723 0.14187638 -0.0854266 -0.1160203 0.03781295 -0.005584305 0.0113537675 0.035111636 0.022285523 -0.096173495 -0.0032513116 0.053585894 0.033289284 -0.057101198 0.09162774 -0.10470753 0.08947885 -0.009552122 -0.17671157 0.069439955 -0.014547036 0.1884254 -0.03341136 -0.082448184 -0.019825285 -0.12725276 0.06805618 -0.17665741 0.014869063 0.041121107 0.023267262 0.05836937 -0.005069653 0.029089889 0.045892548 0.005304115 0.031245833 -0.12710969 -0.008535045 0.08444831 0.019501569 0.08855733 -0.009600723 -0.047102503 0.19222118 0.024339499 -0.038698893 -0.035113085 0.03926131 -0.12410653 0.24820939 -0.10682523 -0.03173592 -0.022475177 -0.056684367 -0.075104445 0.035157822 -0.1109208 0.0070148264 0.008304522 -0.18374358 -0.048973363 0.11017065 -0.08081477 0.14477903 -0.0042845993 -0.12691714 -0.036682256 0.028501963 0.0064506866 0.043906696 -0.0014421747 0.08699071 0.013426497 -0.013523755 -0.13245945 -0.013370206 0.070987664 0.061680052 -0.05045911 -0.062472876 -0.076887764 0.11761323 0.03346871 -0.01627246 0.098620705 -0.020384766 0.06377372 -0.05880537 0.009310262 -0.050690863 0.0009815511 0.08347769 -0.08666667 0.005683731 -0.072646394 -0.061396275 -0.010257172 0.03355972 -0.05880375 -0.049965214 0.05787531 -0.007764371 0.03975814 0.016577173 -0.05525572 -0.0034855495 -0.018075418 0.04742399 0.05738163 0.015243352 0.06622435 0.1096044 0.028662518 -0.018561661 -0.031009493 0.0005203206 0.02029914 0.0037178018 0.06987414 0.033680364 -0.09303188 -0.18719101 -0.052796125 0.0033663015 -0.044684578 -0.07223585 0.07998801 0.07015086 -0.0325559 -0.104859486 0.030971576 0.05942438 -0.016828965 -0.045352694 -0.0653079 -0.018609695 -0.020499602 0.17663386 0.09939215 -0.06887822 -0.057324305 -0.06917196 -0.020098174 -0.111424424 -0.048159454 0.058485575 -0.07639475 0.025628246 0.07218046 0.08862492 0.08083887 -0.0894477 -0.00664684 0.15456924 -0.048442885 -0.049501244 0.07989908 0.061527424 0.09024779 0.06857182 -0.18600142 0.054550637 -0.0014292507 0.124415 -0.12785348 -0.0883579 -0.020818252 0.17692742 -0.020708088 -0.056205634 0.00015836583 0.104439445 -0.052659567 0.00295303 -0.025920218 0.07014378 0.04509367 -0.1457236 0.091260314 0.028373942 0.08344323 0.022575915 -0.0037611295 0.0012172464 -0.017268855 0.15455312 0.025780192 -0.16346349 -0.07801116 0.053724375 0.04660945 0.011094866 0.009610646 -0.119292274 -0.043104935 -0.033274796 -0.04040886 0.11310304 0.029382715 0.13609083 -0.042251606 0.15638027 0.13078748 -0.1603408 0.004117404 -0.014600657 -0.05048302 -0.12521006 -0.09671056 0.038974155 0.048275184 -0.008055813 0.08193913 -0.01799247 -0.099585906 0.018124988 -0.08075558 -0.20299357 -0.09859174 -0.22658665 0.005671228 -0.06633731 0.08420144 -0.1520206 -0.011656442 0.1330049 -0.08648347 0.23376177 -0.09791669 -0.07877454 0.018972127 -0.06512071 0.052925386 0.025831334 -0.051628824 0.009383552 -0.050146546 0.027637368 0.029603615 -0.041135125 -0.042280436 0.027887605 -0.00401556 -0.16642846 0.056268994 -0.09448901 0.0073350617 0.06669313 0.0519183 -0.020881938 -0.038034707 0.06921135 -0.106309816 0.15694271 -0.03841806 -0.17297055 -0.025674827 0.08106688 -0.21702409 0.11922912 0.04543396 -0.041020736 -0.08707929 0.012598727 -0.10759179 0.0058248565 -0.014655081 -0.041322436 0.033295676 0.032667927 0.11306256 0.07597414 -0.068163544 0.07769544 -0.0061259745 0.06278839 -0.026619203 0.0034975752 0.033335812 0.10251459 0.045855597 0.055110916 -0.059046198 -0.064672 -0.13601074 -0.034979932 0.06678119 0.007794081 -0.02119577 0.032078147 -0.17299585 0.06975605 -0.17079914 0.08229577 0.11351481 0.07673512 0.07305325 0.1487426 -0.1314734 0.04975354 0.12791476 -0.03139643 0.1005877 0.03908221 0.10176228 -0.14663526 -0.028055625 -0.009407042 -0.019891808 -0.013274875 0.020782059 -0.041295324 0.029058428 -0.08975069 -0.015272461 -0.02034493 -0.052628785 0.064371586 -0.018097678 -0.020732386 0.0047712447 0.10130354 -0.019596966 -0.14807555 -0.16919662 0.0098822545 -0.037889764 0.05400254 -0.094940774 0.09843446 0.071627155 -0.118510716 -0.10134749 -0.055894095 0.07515508 0.02658766 -0.037363023 -0.15788138 0.17177504 -0.0999818 0.00949461 0.07568974 0.06299905 -0.018022282 -0.023094695 0.06538395 0.009133167 -0.115541235 0.15193334 0.0024117178 -0.11800487 -0.031627927 -0.029513381 0.013715631 0.0007368711 0.06721997 0.02393128 -0.054470364 0.05160448 0.05183359 -0.03388181 0.012700817 -0.21932031 -7.894945e-05 -0.16646272 0.1283473 0.025561634 -0.05264506 -0.07125702 -0.06582198 -0.004142955 0.055043478 -0.14737143 -0.098575495 -0.033206664 -0.09074492 0.005402515 0.053035833 0.1070241 -0.10444394 -0.050859872 -0.009783798 -0.037401695 -0.02934777 0.05398977 0.041632384 0.2199079 0.0978078 0.066275455 0.24709521 -0.040775195
/event -0.23446049 0.056660313 -0.008134141 -0.22356212 0.18455696 -0.05015334 0.32355288 -0.26901358 0.06325914 -0.11885609 0.10349227 -0.068605 0.055034377 -0.3992741 0.1553157 0.23980817 0.19740112 0.18203214 0.041107852 0.07433662 0.061764054 0.059822816 -0.081051975 0.27136266 -0.029952927 -0.25937825 0.2126868 -0.020132972 0.075241275 0.003237472 0.12081772 0.22679542 0.026537692 0.16994026 -0.12999915 0.12774456 -0.05213381 0.062561534 -0.17462392 0.14780778 -0.1315408 0.12994558 -0.23161449 0.20928834 -0.20173943 0.06256558 -0.15789539 0.036362253 -0.21966659 -0.07937533 -0.31804395 0.2511491 0.096442245 -0.18112959 0.037699044 0.02193295 -0.18868625 0.08502614 0.1292638 0.010965962 0.20875329 0.2510589 0.15610003 -0.040248662 0.089766555 0.011980536 0.15843147 -0.2947779 -0.0756742 -0.022875924 -0.22290026 -0.082996055 -0.16778962 -0.0243187 -0.19728711 -0.12096685 0.09618743 -0.16195224 0.068582475 -0.01045816 -0.0017420447 -0.051045362 -0.24478318 0.15897852 0.13935049 0.11821375 -0.25648525 0.054968912 -0.07646924 -0.08079861 -0.16614164 0.20569228 -0.16945775 0.10748515 0.082691416 -0.111919396 -0.061914194 0.10012022 0.0003166473 -0.26290575 0.12524588 -0.008536485 -0.2183072 -0.18133913 0.03514718 -0.086208075 -0.28931618 -0.017500177 -0.04018817 0.10112133 -0.095221385 -0.010859696 -0.11073787 -0.47313878 -0.23684244 -0.09889969 -0.1704793 0.07667313 -0.32308656 -0.06497722 -0.14071228 0.030641401 -0.13870545 -0.032144792 0.10601437 -0.17598404 -0.21385488 0.36040094 -0.021070898 0.1259681 0.14786008 0.004533888 0.06625183 -0.31424367 0.072787836 -0.030042242 -0.11216962 -0.08558566 -0.16761081 -0.16001324 0.04031881 -0.10305188 -0.32697406 -0.0043895543 -0.3563231 0.047983818 0.15139051 0.1417876 0.055108033 0.121445954 -0.20745163 -0.1149429 -0.034760565 0.04349054 0.09386168 0.23956797 0.15707202 -0.06512986 -0.0025557198 -0.052541107 0.115706205 0.11965552 -0.130172 0.06060843 -0.2516032 0.06536102 -0.23137157 0.060593683 -0.049306933 -0.16221686 0.15856229 -0.15353167 -0.14799836 0.09626201 0.22929946 -0.08728224 -0.22547394 -0.21593931 0.0031818124 -0.03673813 -0.060621046 -0.13736345 0.00989263 0.15255855 -0.33111307 0.23141056 -0.068071455 -0.05269735 -0.003978558 -0.07987327 -0.05641664 0.033139866 0.07728502 0.073430255 -0.007964241 -0.097095996 -0.29925558 0.19605088 -0.020240957 -0.23343554 0.12307498 0.032175936 -0.05830783 0.14025494 0.017568469 -0.11317697 0.28870636 -0.29982254 0.0009262334 -0.06092968 -0.05019078 -0.1220783 0.0456696 -0.20540963 -0.20223017 0.09615265 -0.10598515 -0.051876515 0.08885479 -0.00076561223 0.02782207 -0.017310428 0.19152404 -0.16122967 -0.15181592 -0.08080208 -0.15207879 0.19177862 -0.17774758 -0.06211286 -0.2074909 0.25496364 -0.052791838 -0.061711732 0.07439366 0.15468267 -0.095364824 0.2901602 -0.05403105 -0.124768056 -0.0758997 0.0026542596 -0.40557447 -0.06785746 -0.23579766 0.058145232 -0.0035533921 0.057335082 -0.19940148 -0.026459757 -0.017767763 -0.17789875 -0.020675937 -0.08914889 -0.22776546 -0.08530021 -0.35085368 -0.23238003 0.09081391 -0.19969381 0.19026887 0.11280993 0.19926853 -0.16478726 -0.18280141 -0.21616568 0.1276197 0.16787042 0.19596455 0.26550972 -0.0009428639 0.15517296 0.054869972 -0.11441353 -0.15533054 0.026582079 0.15690672 0.052349087 -0.1805916 0.13861874 0.22833727 0.010331936 0.07406622 -0.20823203 -0.15315384 0.10331796 -0.16608267 0.04487181 0.19072942 -0.1040476 0.06503166 0.049442858 -0.17661223 -0.16258527 0.23208874 0.083110146 -0.17092834 -0.19893521 0.014554065 -0.09422323 -0.10546658 0.3309081 0.13435158 -0.07999439 0.00790078 -0.04141677 -0.07107255 -0.12961648 0.09859187 0.026616395 0.2033471 -0.26314273 -0.052235045 -0.12234854 -0.012749159 0.06258809 0.09475183 -0.0051465975 0.28213376 0.18129817 0.057308663 0.06860881 -0.20022987 -0.20027965 -0.19220474 -0.026677921 -0.16990386 0.07963689 0.2601613 0.03989965 -0.20977342 -0.05375647 -0.016049163 0.054409035 -0.008085475 -0.06066287 0.22873577 -0.16717659 -0.14461254 0.03553771 -0.19913755 -0.12003311 0.2004141 -0.12825449 0.0017089549 -0.05878577 0.072535396 -0.044668883 0.18301687 -0.19080417 -0.05529633 0.2145223 -0.06233466 -0.1780359 0.1436952 -0.117642246 0.20052539 0.18214619 0.16624527 0.16289434 -0.04389038 0.00021539186 -0.088204466 -0.13932487 -0.20146151 -0.039136592 0.114886716 0.23209792 0.07667813 0.1644663 -0.2868416 0.12753129 -0.06110966 -0.03623635 0.04266623 -0.08415424 -0.03726944 -0.09612199 -0.074572995 -0.09762595 -0.0047224406 0.09814149 -0.032152932 0.014420093 0.03558636 -0.039559245 -0.26838654 -0.23195371 0.12063308 -0.056245573 0.0056019383 0.061189547 -0.07716155 -0.2776395 0.055847283 -0.02363597 -0.077224225 -0.24277286 0.10796959 -0.29405048 0.08932951 -0.12768453 -0.27843153 -0.25866958 -0.023804145 -0.02408333 -0.037788834 0.15746199 0.0063525303 0.013048482 0.01014422 0.038004 0.008519807 -0.09729817 -0.12775686 -0.06855737 0.097350895 0.18458115 0.010023138 -0.1035911 -0.034389712 -0.05110752 0.056760706 -0.045003124 0.0127049005 -0.13297333 0.05080802 0.11621762 -0.310815 0.17784989 -0.24193287 0.0574434 -0.29598933 -0.28553486 -0.14855444 0.13087854 0.103139736 0.21065263 0.24188113 0.20179367 -0.099311985 -0.12524301 0.0876049 -0.011739008 0.042511832 -0.21893102 -0.10915387 0.047467846 -0.05940503 0.018863901 0.02572932 0.27877036 -0.06005401 0.09798729 -0.11102896 0.271226 0.05762091 -0.07918277 0.08554307 0.06298613 -0.11507615 0.010609456 -0.1267589 0.2480366 0.20524792 0.19378552 0.06363538 0.020822827 0.0074224416 -0.062252674 -0.16485226 -0.17585683 -0.11320567 0.03962434 -0.04494615 -0.08461987 -0.0013702655 0.070627466 0.13188793 0.0632812 0.01114445 -0.06722549 0.14573294 0.04262272 -0.15147151 -0.17906314 -0.31676602 0.021698752 -0.071528755 0.0034970667 -0.16501811 -0.15440275 0.15678877 0.088187665 0.10186904 -0.045918252 0.20385478 0.08513835 -0.053036045 0.022346439
/person 0.11407595 -0.092031226 0.047510795 -0.02317677 -0.04727132 0.058737762 -0.03426627 0.033873238 0.06628275 0.0006494993 -0.059834946 0.016738325 0.14627029 -0.071720526 0.0010483895 0.22223085 0.0446826 0.04844408 -0.039648544 0.10374854 0.18247859 0.021205166 -0.07325896 -0.07466582 0.061791863 -0.054398004 -0.032908402 0.12051576 0.0057587544 -0.10291186 -0.025238642 0.21010552 0.089967154 0.12134382 0.020579556 0.1399694 -0.0062993974 0.036998436 -0.026910473 -0.01281997 -0.13848945 0.004553166 -0.04705071 0.02502132 0.14436987 -0.07496067 -0.037758425 -0.068174526 -0.077147536 -0.008759918 0.09684682 0.096232176 -0.022014081 -0.0020670993 0.071635745 0.117149584 0.048543975 -0.046427116 -0.031810228 0.023020586 -0.0064594834 -0.024878832 0.07833253 -0.18220614 0.24704956 0.06344882 -0.029697943 -0.045868386 0.056962278 0.030178674 -0.13880639 -0.03277081 -0.092815205 0.06620608 -0.16580325 0.027608475 0.061406896 -0.064291626 0.08431917 0.036336504 0.116114326 0.026193831 -0.10944049 0.03608233 0.06006028 0.24339557 -0.07661625 -0.04523623 0.042933002 -0.22719333 -0.09940941 -0.0048504425 0.012262395 0.055158615 -0.036299 0.17992395 -0.16593574 0.00029738963 -0.12980917 -0.08310826 0.1343748 0.11223235 -0.014098272 0.12576905 0.016366491 -0.098345175 0.047144324 -0.04207196 -0.00028562386 0.14934939 -0.016474653 -0.101589054 -0.052500732 0.056784026 0.040381644 0.035656348 0.05873298 -0.07521363 -0.024373606 -0.14107546 -0.07356627 -0.101809025 0.078819 -0.1718233 0.08017189 -0.15325303 -0.10859069 -0.001865242 -0.18190022 0.1399244 -0.07646049 0.027862722 -0.07233991 -0.117941596 0.06689487 -0.13529916 0.09374606 0.018444587 0.012525441 0.023413865 0.111113444 0.090128385 0.118844084 -0.058782656 0.0026501587 0.056297034 0.06222588 0.13759802 -0.0506092 0.16958603 0.14102104 -0.016216839 0.25428247 0.13432795 -0.13769059 0.028402422 -0.049024384 -0.073025085 0.08123985 0.1418317 -0.024845734 -0.14689188 -0.03023962 -0.21946606 -0.02827244 -0.028932106 -0.10459901 -0.0030362762 -0.041643605 -0.0076699215 0.09584096 0.0021192096 0.05009778 0.04618551 -0.08954353 -0.109254956 0.060773745 -0.022226933 0.042192597 -0.0123519935 0.1495731 -0.07376944 0.028578995 -0.12249513 -0.020721529 0.06467429 0.10562999 -0.04601638 0.18156923 -0.005812366 0.083812036 -0.0066642766 -0.045798883 0.16156639 -0.082005545 0.052262187 -0.026821341 -0.047480687 -0.115826555 0.004131276 0.14237538 -0.2143939 -0.04065498 -0.13029459 -0.01595752 -0.059994906 0.2521308 -0.18120286 -0.13636756 0.03272933 -0.12556845 -0.007985424 0.10732193 0.048249334 0.048048545 0.01268077 0.034816552 -0.030738106 -0.05321623 0.003009813 0.05030536 0.19741254 0.008650129 -0.11684005 0.118903875 0.06406284 0.0347656 -0.032113392 0.08133505 -0.11204213 -0.05422778 0.053889 -0.012800733 -0.05557762 -0.04053857 0.043809667 0.030272372 0.020590454 0.0036976316 -0.047746502 0.063332565 -0.040041756 -0.11414621 -0.10629574 0.051298305 -0.023805428 0.06551432 -0.042869415 0.0052949744 -0.10307371 0.042630367 0.02812994 -0.12002929 -0.040245723 -0.029650703 0.043183148 -0.13949838 -0.0678649 0.05615628 -0.047457125 -0.033949316 0.056268685 0.14796218 -0.08349281 0.10083946 -0.07923644 0.12664174 -0.0063791145 0.12773666 -0.27146617 0.14733618 -0.17095546 0.103183836 -0.12812638 -0.045404088 -0.096873514 0.092314705 -0.023969816 -0.08643774 -0.026530469 0.06640937 -0.044760413 -0.0107499715 -0.1319698 0.09296051 -0.024014048 -0.072341904 -0.0164029 0.008417599 0.21424952 0.028712142 -0.11305701 -0.11450457 -0.054067943 0.17730057 -0.0026091018 -0.034492448 0.06340978 -0.004918843 0.1086496 0.0013908959 0.10784803 -0.049813867 -0.046295974 -0.15705545 -0.15054764 0.029094992 -0.06845108 0.018493954 -0.04874584 0.119358264 -0.011767645 -0.101912715 0.015189715 0.00032305016 -0.01865576 -0.1786294 -0.1015316 0.104072616 -0.07630836 -0.013457238 0.09485305 -0.03557828 0.090016976 -0.05488695 -0.09660449 -0.18831761 -0.13067836 -0.06546207 0.09771462 -0.12126472 -0.0045036203 -0.03132698 -0.10300164 0.05398774 -0.08987722 0.15206082 -0.05409747 -0.14034063 -0.0019656105 -0.041736532 0.05192456 -0.04873862 -0.11404827 -0.13962507 -0.032690406 0.09660157 -0.095866084 0.0522868 -0.1326541 0.017986685 -0.028804082 -0.085285366 0.043977015 0.062295973 0.06641026 0.08361803 0.00436522 -0.079280555 0.0017824768 0.026191857 -0.045211583 0.22516286 0.0068790587 -0.023839042 -0.04602939 0.11813589 -0.13225281 0.055112015 0.23759408 0.0011023631 0.073239446 -0.069983125 0.008148498 0.015774066 -0.01711752 -0.0180826 -0.052969918 -0.02300484 -0.05470461 0.079118006 -0.015512075 -0.061951276 -0.012641849 0.1143609 0.035348512 0.028664961 -0.09128217 0.04288556 0.07633326 -0.028929127 0.00913853 -0.064972036 -0.036756463 -0.035425805 0.077052124 -0.021428496 -0.15929922 0.05611203 -0.039869934 0.107860565 -0.11087921 -0.07198526 0.12657812 -0.0463728 0.0590049 0.10222606 0.093667276 0.13065518 -0.013344473 0.015478806 0.08455777 -0.054327417 0.064035155 -0.08630096 -0.11034142 0.010264111 0.010804618 -0.108239114 -0.0748631 0.0365789 0.08022905 0.03201059 0.024944799 -0.07704917 -0.07344001 -0.059089817 0.05036874 -0.090710804 0.029078493 0.020540752 -0.097982295 -0.07906906 -0.021733087 -0.026078988 0.11709316 0.04196509 -0.13071854 0.06455219 0.037888117 0.039595306 -0.026676998 -0.10266161 0.1408942 -0.1253475 -0.046611942 0.023374086 0.11789011 -0.17211363 -0.22640736 0.056745205 0.08176904 -0.05213719 -0.107880786 0.13248464 -0.111789316 0.02947998 0.010476237 -0.04440937 0.047216333 -0.09750125 -0.12497028 0.04788155 0.105312355 0.058810286 0.017859442 -0.05226805 -0.07014856 -0.05721985 0.06013608 0.09955977 -0.12715083 0.018419819 -0.11469999 0.045356564 0.024433924 -0.012347614 0.09398098 -0.1039294 -0.06501425 0.094790235 -0.042335503 -0.048211716 -0.08118613 -0.024391567 -0.050791815 0.04636085 0.0986621 0.013964163 -0.027740907 0.07616814 -0.15727769 -0.07749662 -0.057585914 0.08501828 0.21600372 0.109064125 0.0077832863 0.12338282 0.01635914
/product -0.16758691 0.15641941 -0.0019377575 0.10682646 0.21576552 -0.02101092 0.11720639 -0.21580206 0.1505891 0.18300661 -0.07912606 -0.005284578 0.028472377 -0.2620033 0.21983677 0.18159199 -0.19293606 -0.025240583 0.25781083 -0.09746249 0.07096311 0.04527675 0.29739875 -0.11932502 0.16188979 -0.13460791 0.24524681 0.17378403 0.13967773 -0.08817337 -0.0751926 0.45822114 0.10701325 0.0026760106 -0.14601083 0.09351749 -0.2722673 0.081884906 -0.12790819 0.08840495 0.1687593 -0.16469902 -0.049133144 0.15306868 -0.16216387 0.36534992 0.051372845 -0.28459942 -0.32474816 -0.084664464 -0.2637649 0.052312844 0.18107201 0.021140348 0.12562758 0.02942547 0.14112864 0.10445525 -0.13310435 -0.1053323 0.03511361 0.14663064 0.09346895 -0.06463834 0.32599118 0.30578202 0.09448235 -0.086548164 0.27359608 0.13956188 -0.30146307 0.10874043 -0.19302617 -0.06581259 0.022787869 -0.29207674 -0.036395624 -0.24921337 -0.2102083 0.10269066 0.07923527 -0.007882656 -0.22209917 0.12389668 0.3305073 -0.08537573 -0.29289603 0.23191006 0.007868247 -0.33101436 -0.121499486 0.16251545 -0.27629265 0.26157317 -0.20232047 -0.28048357 -0.14090952 -0.11126028 0.13689762 -0.03953205 0.086520754 -0.0114226425 -0.24631651 -0.11599201 -0.12230519 -0.09532807 -0.11537901 -0.046443228 -0.20030484 0.19351992 0.12692682 -0.29062298 -0.073625974 0.03827375 0.1968641 -0.057130262 -0.21269481 -0.06653055 -0.35518405 0.0169904 0.029267129 0.0006500628 -0.14909121 -0.12596597 0.31720838 -0.049107585 -0.19130203 0.15078151 -0.26575774 0.19277273 -0.045592036 0.062463224 0.118669055 -0.32347482 -0.05258329 -0.09199506 -0.049520142 -0.059076138 -0.10918215 -0.310895 0.014926469 -0.19177048 -0.253871 -0.0679238 -0.2196461 0.0075837867 -0.013310729 0.049311936 0.032480266 -0.07873095 0.07250234 -0.039029155 -0.044741232 0.14841363 -0.06858339 0.25061306 -0.048947778 -0.07771181 0.16334514 0.14841992 -0.20366442 -0.28415912 0.15413696 -0.094445996 -0.1484271 0.24647926 -0.21541052 -0.01414032 0.04486907 0.1396327 -0.06457434 0.08308096 -0.18267755 -0.07913053 0.076152064 0.12772334 0.05478306 0.012026692 0.12369258 0.14237809 0.15115507 -0.09688182 -0.21312106 0.18450643 -0.22942998 0.2326796 0.17478836 -0.1988719 -0.06933081 -0.18890733 0.24946226 -0.13843402 -0.07560758 0.13510121 -0.1534245 -0.060806364 -0.2180195 0.29981607 0.18005446 -0.37611797 -0.029960461 0.11644931 0.1417635 0.19834764 -0.30726975 -0.11839514 0.18708566 -0.31070673 -0.34539974 -0.065634005 -0.099865064 0.1711839 0.14452472 -0.23980013 0.011477566 0.020360487 0.09872985 -0.1464177 -0.041886132 0.0106379725 0.19898897 0.20753542 0.077709496 -0.009957235 -0.036729604 0.08486241 -0.28369877 0.17041047 -0.05422031 -0.12660906 -0.14645024 0.013801279 0.001524899 -0.09022863 -0.0066228784 0.09544418 0.07671578 0.30930924 -0.13494255 0.09593504 0.30780336 0.061160658 -0.3701073 -0.12527725 -0.17400576 -0.026222182 0.03422822 -0.056922145 -0.073681794 0.058422633 0.055702403 -0.05808046 -0.20166095 -0.103136934 -0.12366529 -0.29405352 -0.44565028 -0.13271691 0.1603227 -0.050910544 0.28233513 -0.15457758 0.06859084 -0.08148443 -0.09090318 -0.07003757 -0.091311626 0.0016465912 0.1118826 0.06677894 -0.13337776 0.05993119 -0.06314137 -0.058364004 -0.13190661 0.06431101 -0.07995043 -0.24378152 0.2706289 -0.026945744 0.15327328 -0.15429537 0.021576084 -0.13729782 0.30075085 0.25927278 -0.06352548 0.0762232 0.14189728 -0.30601344 -0.12755994 0.0040820744 -0.1768579 0.17995869 0.03923606 0.048302684 -0.06321247 -0.07817236 -0.002544163 -0.046150975 -0.23484859 0.29475662 0.22366385 -0.18764536 0.10951247 0.09354107 -0.05151971 -0.32574895 0.22925408 -0.10120577 0.075123325 -0.1456119 -0.05945684 -0.07517962 0.10060528 0.209008 -0.27777106 -0.25131965 0.24799782 0.12554948 0.082157396 0.015222869 -0.34238178 0.1669077 -0.14038229 -0.1990099 -0.0098686945 -0.15158544 0.29725352 0.14219674 0.0076489304 -0.24172673 0.016189883 0.085312456 0.018642098 -0.09619888 -0.049548544 0.02904555 -0.082452685 -0.08556293 0.006232962 0.0530802 -0.057159673 -0.21845992 0.01355692 0.001048371 0.07753128 -0.13068672 0.17111997 -0.35309258 0.21343496 -0.12286064 0.07376801 -0.04829735 0.10596411 0.041436736 0.15398008 -0.029700115 0.11367273 0.20830607 0.21327314 0.107257664 -0.025382968 -0.3503176 -0.39297345 0.25057045 -0.0153522445 0.26655856 -0.00038992186 0.22741894 -0.43520916 0.20719661 -0.06615286 -0.066675484 0.044436853 -0.051688805 -0.30125344 0.015774315 -0.036943097 0.014268597 0.2553178 -0.15540321 0.26327074 -0.13463764 -0.023153834 -0.04847413 -0.18129139 -0.1534731 0.1159841 0.2882177 0.34190816 -0.082263485 -0.23495539 -0.07908912 -0.108575255 0.04745083 -2.9276118e-05 -0.1436459 -0.14749776 0.058188476 -0.19298933 -0.005907224 -0.10006236 -0.10533838 -0.13176136 -0.1239588 -0.085543156 -0.030704085 0.10065701 -0.20850945 0.051922962 -0.0067299483 0.19080517 0.22526108 0.035227373 -0.092568055 0.2287033 -0.13564216 -0.039467342 -0.2767491 0.12003028 -0.042032868 0.13609739 -0.03457891 0.022443801 0.19282053 -0.0154773835 0.06278882 -0.06792682 0.35506633 0.06664572 -0.31980866 -0.18083918 -0.34380886 -0.1357996 -0.11107227 -0.06025579 0.2133266 0.37380323 0.14670685 -0.14385012 -0.4319779 0.27886942 0.15315704 -0.17678767 -0.5511701 -0.2100652 0.11671785 -0.17316872 0.24581595 -0.10603498 -0.016990649 0.16550809 0.11748722 0.011333599 0.226956 0.11278569 -0.043124106 -0.0024258778 -0.11500617 -0.2651381 -0.13378571 -0.009423885 -0.050966155 0.21046524 0.08718272 -0.114748776 0.100844964 0.06580893 0.053624026 -0.011594609 -0.13489051 -0.028759424 0.067836024 -0.113675885 0.09371045 0.16360438 0.022332806 -0.18302277 0.2712782 0.1837614 -0.12876636 -0.09309894 0.075198606 -0.062543355 -0.18210213 -0.21558955 0.028708378 -0.16696982 0.13411081 0.18977927 -0.28813142 0.28280005 0.2196974 0.24879426 0.05324496 -0.12539023 0.05621319 0.20616029 0.00224317
/organization/company -0.07061052 -0.0062738415 -0.10070552 -0.14438424 -0.20929563 0.0022880116 -0.050646923 -0.013021625 0.08585541 -0.1030535 -0.10773505 -0.11522819 0.04832561 -0.13847898 -0.13732576 0.31357637 0.13187018 0.053725038 -0.13637875 0.13944909 0.079188265 0.050068047 -0.08293756 -0.18154705 0.060030248 -0.13944031 0.097449385 0.1378439 -0.002826612 -0.0700218 -0.11123709 0.07139536 0.09736103 0.15052569 -0.07623208 0.15291756 -0.0353065 0.1388792 -0.08441402 0.0890645 -0.12720197 0.052219927 -0.026907058 -0.042702176 0.11708174 -0.09554285 0.0014030836 -0.045614276 -0.109928355 -0.0022152213 0.00035241258 0.006761756 -8.8056026e-05 -0.031150501 -0.042316854 0.042967845 -0.042755984 -0.051239315 0.05635897 0.022819744 0.04167369 0.01485028 0.07074452 -0.19640586 0.16552186 -0.033309773 0.086310215 0.11006907 0.20040695 0.06825022 -0.059761528 -0.08063204 -0.07929965 0.12179592 -0.15148444 -0.013208518 0.08257834 -0.058291115 0.19879413 -0.045017958 0.06853879 0.027857263 0.058436245 0.043618582 0.124758 0.062728405 -0.05616188 -0.0040739235 -0.040103853 -0.2331345 -0.15234755 0.017172173 -0.0008771682 -0.021413347 0.101585075 0.16439344 -0.050195977 -0.1424291 -0.10623534 -0.029001858 -0.028455079 0.027538886 -0.09687637 0.09214756 -0.02059693 -0.020491002 0.07374827 0.060681123 -0.060300287 0.13626482 0.04124348 0.03729973 -0.034931872 0.09834929 0.011461699 0.051401563 0.017596891 -0.005890114 0.057738014 -0.07428707 -0.07503284 -0.08452377 -0.02925055 -0.16902062 0.10661363 -0.02111042 -0.042091288 -0.05381686 -0.14402206 0.17127882 -0.01361446 0.0043605324 -0.011030014 -0.092031784 0.082343735 -0.15753096 0.11031675 0.032475237 -0.03644906 -0.05885948 0.04579439 0.02814586 0.15643379 -0.09719827 -0.01912957 -0.016759448 0.045140393 0.07673415 -0.022990178 0.13126214 0.079721905 -0.022710439 0.14314601 0.07906381 -0.13766012 -0.045409873 -0.05961566 -0.11177483 0.19378325 -0.074117534 -0.045451287 -0.021985464 -0.013594105 -0.13027065 0.013698514 -0.022166884 -0.04778491 -0.015644856 -0.06473019 -0.055282477 0.046915647 -0.0057449657 0.1368447 -0.043932967 -0.0654739 -0.01689665 0.038712278 0.05781915 0.054472283 0.014873527 0.09710567 -0.06197558 0.101651624 -0.06855454 0.019423692 0.028918985 0.11948434 -0.13446124 0.086220965 -0.09739925 0.10402272 0.048313107 -0.12870465 0.111361235 -0.085433796 0.07182195 -0.069845214 -0.102378234 -0.056260273 0.05338018 0.09560306 -0.08396087 -0.013000214 -0.12277784 -0.12543276 0.041165754 0.08747322 -0.17739268 -0.09059603 0.07590273 -0.07200368 -0.118139476 0.086500585 -0.03245618 0.0017305702 0.015065591 0.034072578 -0.051001407 0.01728678 0.004833879 0.06436058 0.14001185 -0.033674117 -0.037300292 0.105125174 -0.00418224 0.022434082 -0.06446601 -0.008709129 -0.066801794 -0.0026974569 -0.10657366 -0.088862024 -0.102841295 -0.0068801194 0.16192083 0.047724493 -0.065334015 0.0004266726 0.056012236 0.04449009 -0.11172117 -0.10477027 0.052872498 -0.04195447 -0.0075600054 0.11643239 -0.028878624 -0.040980067 -0.054086138 -0.017377622 -0.03576852 -0.109207846 0.06239976 -0.02795576 -0.09561106 -0.006203797 -0.019011855 0.052481543 -0.050248716 -0.0094891805 0.054171104 0.12100117 0.0824319 0.028376468 0.03966036 0.06309441 -0.08631031 0.07022789 -0.22372551 -0.008570755 -0.023482267 0.09663154 -0.16772011 -0.030548211 -0.053662293 0.059139207 0.006765557 -0.03610658 0.03759448 0.039031107 -0.061672196 0.114670806 -0.07040629 -0.07498318 -0.04398528 -0.07269646 0.054096997 -0.07968143 0.09134836 0.041526634 -0.10028179 -0.113020085 0.07420573 0.086843066 -0.0746553 -0.19857898 -0.011083854 0.02601361 0.08532605 0.051442523 0.102199554 -0.19364381 0.11225149 -0.09136133 -0.11622801 0.17136195 -0.07862842 0.07381098 -0.025524622 0.25359815 0.05253701 -0.079342745 0.10964168 0.03408039 -0.039341263 -0.14415595 -0.036409665 0.15360406 -0.034602694 -0.14335471 0.089175835 -0.07461265 -0.029388765 0.029481672 -0.038097262 -0.16492009 -0.038502406 -0.135888 0.023645429 0.032975063 0.083626576 -0.094947964 0.02128628 0.14987743 0.045494385 0.2259219 0.00020459185 0.019995498 -0.012211749 -0.08265846 0.07931925 -0.02892709 -0.0518057 -0.10476738 -0.16891392 0.05046194 -0.00403993 -0.11034 -0.19135901 0.14199875 -0.0139471935 -0.14759454 0.0004394572 0.05675972 0.075956196 -0.03672343 -0.0084492685 -0.019358808 0.09839311 0.009586179 -0.14258336 0.18509795 0.06703715 -0.022805592 -0.11123426 0.16425487 -0.03468211 0.038749326 0.11580562 -0.046330415 0.07065192 0.012111072 -0.010047109 0.16154654 -0.058464076 0.040770218 -0.008922418 -0.037848454 -0.06068544 0.089200325 -0.05325615 0.08478767 0.08179722 0.10995719 -0.13107665 0.052417967 -0.07553222 0.03180017 0.054761976 0.08800743 0.02928945 -0.1508927 -0.05974124 -0.098108545 0.13578565 -0.033731867 -0.030134749 0.12773068 -0.10130502 -0.036569055 -0.23894534 0.002513423 0.12999813 0.042078543 0.026005855 0.099266104 -0.104175225 0.14282618 0.17936665 -0.023549946 0.005742381 -0.03384783 0.08606192 -0.04428938 -0.16218972 -0.059855472 -0.01962169 -0.031125339 0.09643509 -0.00796748 -0.029894896 -0.008353776 -0.012219893 -0.054755773 0.038404766 0.0076161833 -0.05147369 -0.00083736255 0.15822892 -0.12025564 -0.032222755 -0.028854886 -0.025011031 -0.053100254 -0.06297934 0.036451854 -0.057991587 -0.048246417 -0.0017718247 -0.08295259 -0.12464935 -0.112785384 0.070835836 0.0066333576 -0.1076004 -0.183235 0.13430828 -0.22465329 0.05241416 0.03745854 0.039984282 0.036364254 -0.103009336 0.03536161 0.012557752 0.027434647 0.00037528443 0.009965563 -0.050658397 -0.24416333 -0.14507748 0.032619786 0.049798794 0.07912242 0.09167016 -0.11684536 0.0775449 -0.091780946 0.08389247 0.089520685 -0.12956774 0.015272893 -0.011861632 0.20275466 0.035458293 -0.03142389 -0.046705317 -0.1784194 -0.04501473 0.02946057 -0.03775325 0.003605644 -0.0022665786 0.03236821 -0.053551294 0.10045588 -0.001206661 0.024016676 -0.039819457 0.02258781 -0.17169498 -0.0037133035 0.02772909 0.10171247 0.17370383 0.15650317 0.0723195 0.2019102 0.03319762
/person/author 0.10170928 -0.105497085 -0.057189856 -0.05808393 -0.100157194 0.076786265 -0.02154697 0.06738371 0.10617818 0.00025930276 -0.10989439 0.021670885 0.10088293 0.034032695 0.0054497747 0.23263131 0.001480816 0.08513767 0.01238816 0.16308871 0.14206879 0.0068346947 -0.0716575 0.023159571 0.17825478 -0.11935025 -0.047804374 0.12692408 -0.042375054 -0.042246986 -0.058360018 0.30990118 0.09573439 0.026462195 0.0057973703 0.068883084 -0.008158742 -0.032235198 -0.06503937 -0.1046599 -0.17421974 -0.035182957 0.00062489574 -0.0121276025 0.16607419 -0.11597337 -0.07433506 -0.15316914 -0.103370436 -0.028815899 0.058636907 0.16500418 0.027588677 -0.08182168 0.023501838 0.07134807 0.076205984 0.016105302 -0.20739813 0.07021693 0.051303122 0.035343025 0.08380933 -0.12072776 0.24668796 0.11689044 -0.05957882 -0.015131091 0.01214701 0.07023059 -0.14823091 -0.053268112 -0.08162766 -0.01450613 -0.16642725 0.103413895 0.053909242 -0.0957736 0.0104786325 0.030262526 0.044285294 0.05597953 -0.099047124 0.13529846 -0.0043277293 0.19227399 -0.08548728 -0.07290888 0.029740233 -0.114283554 -0.025828606 -0.08758402 -0.06435051 0.067035854 -0.1899047 0.09526297 -0.14491561 0.029598048 -0.010916029 -0.16052975 0.14804915 0.07947758 -0.03264762 0.06852789 0.13447843 -0.11753566 0.024769187 -0.0007836139 0.0745605 0.09489657 0.0017150749 0.025686782 -0.08343178 -0.038136356 0.066798575 -0.07004795 0.117049165 -0.01570011 -0.07795121 -0.23724134 -0.13534585 -0.032461386 0.07741001 -0.03171114 0.1041811 -0.12591451 0.0060223923 0.048342746 -0.16195194 0.1297101 -0.024198268 -0.0653317 -0.031915907 -0.09148042 0.012458189 -0.13344021 0.043295793 0.06680982 -0.0943381 0.08964111 0.23974922 0.06391149 0.005704174 -0.07205851 0.1375015 0.12338374 0.017649896 0.08538882 0.0011636124 0.1610723 0.052895363 0.05360271 0.19301818 0.111867376 -0.020225747 -0.019890923 -0.038255554 -0.09544255 0.06076348 0.10313111 0.030637082 -0.13431501 0.037914224 -0.11645616 0.03375112 0.09768307 -0.122050434 -0.1517257 -0.029872319 -0.099226005 0.019745488 -0.0249797 -0.078199126 0.029580863 -0.12414763 -0.11291749 0.008497073 -0.09208075 0.1571468 -0.03240005 0.17332928 -0.04346297 0.11892595 -0.11578275 0.042257294 0.027259892 0.12997888 0.01526854 0.20236054 0.053338695 0.048938673 0.034308955 -0.0001373633 0.12302564 0.009314223 -0.015281988 -0.018633377 -0.029675532 -0.11300226 -0.07231988 0.101634875 -0.23464075 -0.052776102 -0.15031005 -0.016674116 -0.0553328 0.30784667 -0.059564345 -0.09742902 -0.044954065 -0.123946786 -0.09698038 -0.005479712 -0.07926562 0.06452949 -0.054666553 0.003633283 0.06192156 -0.047687586 0.06981265 0.10718023 0.073173694 0.03723806 -0.21153545 0.030165477 0.075413845 -0.019917056 -0.09144857 0.15212077 -0.055530883 -0.040474795 0.11191876 -0.019731537 -0.03309649 -0.06331532 0.06773219 0.051661063 0.031245647 0.08946529 -0.0014675981 0.060266074 0.10154139 -0.10676191 -0.10608011 0.017726935 0.00091460557 0.07171393 -0.031374887 0.047580827 -0.056631107 0.026572803 0.0055817906 -0.09859678 -0.06031655 0.014727485 0.017795786 -0.18949674 -0.0868515 0.025788436 -0.054810192 -0.014497925 0.08875632 0.18599422 -0.12547335 0.12047567 -0.056101814 0.0829714 0.060712524 0.18038058 -0.2681313 0.124980204 -0.18625422 0.055925865 -0.06539601 0.055755716 -0.07112942 0.038352054 -0.00017051604 -0.072644204 -0.06646258 0.20788795 -0.06602401 -0.07586934 -0.14983967 0.090367414 0.0333139 -0.10652356 -0.00092152716 0.06259928 0.12551694 -0.031688854 -0.16281551 -0.073331885 -0.025908364 0.045921337 -0.027788185 -0.02246992 0.095276676 -0.009997598 0.0309582 -0.059116755 0.08656508 0.002544748 -0.017389758 -0.094464995 -0.12958616 0.0013820304 0.00927695 0.06439045 0.10637477 -0.02448986 0.020768773 0.058572095 0.040687464 -0.074870415 -0.03522648 -0.18709147 0.013355242 0.039114177 -0.042554483 0.06327408 -0.04256013 -0.0769749 0.07061204 -0.1360102 -0.0747346 -0.21163823 -0.07824385 -0.02866647 0.10942553 -0.15718758 -0.05218773 0.0010121444 -0.22565892 0.062119663 -0.07636099 0.038312845 0.01342922 -0.0067824144 -0.013910838 -0.035038985 -0.13732982 0.006665531 -0.067296736 -0.12658285 -0.14578927 0.0041802293 0.027515342 0.10528946 -0.18563844 0.096618384 -0.042403657 -0.07249514 -0.06419835 -0.06316226 -0.033654224 0.14328876 -0.050422758 0.027345356 0.036007475 0.04671183 0.049802683 0.19407928 0.057396878 -0.0084872935 -0.033683717 0.105522804 -0.049500722 -0.00032542503 0.21267489 -0.09574437 0.021842638 -0.13418941 -0.008787623 -0.038487844 -0.043608114 -0.09055111 -0.050595168 -0.08973739 -0.06521679 0.102502555 0.0747897 -0.13341601 -0.14525107 0.104716375 0.048938215 -0.039110955 -0.23992644 0.07741803 0.05709207 0.018827522 0.01668721 -0.07590409 -0.108371 -0.057406265 -0.04278249 -0.12735851 -0.21164477 0.057550356 0.011318034 0.08748798 -0.18926737 -0.101359144 0.16698435 -0.029524459 0.18614535 0.055311967 0.15406868 0.07628357 -0.08225946 -0.06857953 0.06025399 -0.027971275 0.090240225 0.0025520222 -0.118230686 0.05546646 -0.05127884 -0.10145246 -0.040133428 -0.005122058 0.11605734 0.01408809 -0.016120045 -0.06881342 -0.031134097 -0.006373745 -0.0072440826 0.05806023 0.028238192 0.09210959 -0.18154906 -0.09361575 -0.07230447 -0.010346042 0.090880886 -0.048044875 -0.1309812 0.100409634 0.094067045 0.07045034 -0.025171142 -0.18962932 0.26849577 -0.27441806 -0.10740537 -0.013485557 0.09158247 -0.19128463 -0.1933258 -0.0060601286 0.12469101 -0.12406418 -0.116001934 0.12052333 -0.020076884 0.061905112 0.010233467 -0.11150803 0.15292369 -0.18712214 -0.21703841 0.031143729 0.07199609 0.123606704 0.095313326 0.055316433 -0.09693302 -0.03157487 -0.0020985669 0.15933752 -0.16723506 -0.05522685 -0.13496712 -0.07527679 0.027674468 0.034898404 0.08090498 -0.21108308 -0.028825777 0.11641657 -0.048779096 -0.03497171 -0.052059006 0.0048561045 -0.0074860603 0.06417535 0.19294171 0.032450743 -0.055550184 0.105468586 -0.08882745 -0.019760286 -0.10991214 0.15214969 0.2529236 0.04330139 0.06419398 0.16473587 0.09728756
/person/musician 0.25689515 0.00012080095 -0.02674178 -0.16318908 -0.15965426 0.06776982 -0.005055144 0.1335908 0.16337074 -0.038696982 -0.026476026 -0.094705775 0.20838644 -0.14480548 0.10557973 0.22619115 -0.042972513 0.014705126 0.021114666 0.080003746 0.1706232 0.013077675 -0.02137845 0.02859523 0.1345855 -0.086968295 0.003438151 0.13461846 0.045713976 -0.018357622 -0.02028379 0.21806315 0.0725498 0.010129064 -0.012428903 0.004944223 0.024762176 0.10998029 -0.036828924 -0.029157812 -0.15968364 0.06635803 0.09535526 -0.076917246 0.1038782 0.008647046 0.06262912 -0.110076055 -0.06334735 -0.03442185 0.1664676 0.27232575 0.05036368 -0.025299134 -0.10568103 0.048287213 -0.03927157 -0.031968597 -0.07938985 0.039456263 0.024665581 0.006314626 -0.07450128 -0.21547645 0.12925586 0.14933877 -0.043121666 0.029793447 0.1081037 0.029221296 -0.13266549 -0.04093106 -0.123003304 -0.04267829 -0.050247673 0.11143232 0.05610174 -0.0025285506 0.07792874 0.012101154 0.019705541 0.063294046 -0.04981469 0.10103266 -0.031867974 0.19441536 -0.07266236 -0.03081984 0.030051589 -0.20407303 -0.027569609 -0.016964938 -0.13948874 -0.012639647 -0.10411192 0.119464986 -0.13085347 0.029253185 0.03936853 -0.10847676 0.20457768 0.12142675 -0.050311055 0.07688731 -0.031283338 -0.07463769 -0.049264703 0.021460325 0.04446207 0.16761822 -0.028973686 -0.11507152 -0.09035532 0.025144696 -0.009941505 -0.08965187 0.028841553 -0.07599023 -0.07717827 -0.03719584 -0.079771034 0.0076467986 0.063456744 0.015697116 0.13834524 -0.18910946 -0.022558862 0.09065383 -0.1309475 0.25452915 -0.07281497 0.09033487 -0.067102194 -0.16314586 0.09738104 -0.053307742 -0.018878864 -0.015544577 -0.029981676 -0.010729537 0.18848503 0.048870232 0.15231048 -0.11573557 0.0056603015 0.00013863684 -0.09070801 0.05928473 -0.04948144 0.21055089 0.07033717 0.102401055 0.18375486 0.11717513 -0.06778282 -0.032864846 -0.059362933 -0.0745161 0.13560675 0.18387374 -0.054029383 -0.13516624 0.059176076 -0.12701857 -0.09392774 0.07701134 -0.06969001 -0.06715514 0.02731059 0.06650431 0.12602949 -0.030892676 0.059429508 0.078016244 -0.16393267 -0.15161473 0.036059 -0.19195221 0.13458493 -0.06335975 0.13826504 -0.11892839 0.1196079 -0.11910866 -0.15717202 0.05300924 0.12652835 -0.1518835 0.08252361 0.0023233052 0.022495646 0.018187592 -0.039279856 0.11221188 -0.09925136 0.078335926 -0.028875995 -0.047583863 -0.13530783 -0.042216316 0.055064533 -0.20755081 -0.10402203 -0.10897859 0.028543098 -0.11577777 0.24490172 -0.12731133 -0.17579542 -0.04624957 -0.08625993 -0.003829924 0.16079699 -0.08814176 -0.09294591 0.10450867 -0.024891008 0.051816694 -0.034185983 0.0707278 0.05520465 0.24097562 -0.038444582 -0.04799881 0.046241216 0.04467926 -0.026784515 -0.013841992 0.042719398 -0.076696716 -0.04143902 0.0635873 0.07848053 -0.014093372 -0.06776956 -0.017278485 0.06639993 0.06606845 0.06724269 -0.102146514 0.0702424 -0.055173155 -0.0041769445 -0.1271532 0.104527324 0.023666648 0.12078546 0.06589834 -0.03808958 -0.10252002 -0.06197693 0.041481405 -0.124235354 -0.0074093747 0.12460876 -0.052616738 -0.07374077 -0.06068801 -0.054010972 0.043283112 -0.04704007 -0.04799556 0.099115156 -0.09820687 0.14726906 -0.0030624268 0.07939985 0.052849527 0.15421535 -0.29431456 0.1366033 -0.09745734 0.19770026 -0.068709895 0.04280713 0.05072316 0.10207251 -0.04172378 -0.026918082 0.021647008 0.15787317 -0.07016857 0.016765494 -0.15671583 0.09859005 -0.011106707 -0.014799302 -0.029310293 -0.018390099 0.06546449 -0.008646042 -0.112845376 -0.08281565 -0.076196484 0.18198448 0.006246963 -0.09771915 0.036362175 -0.05632297 0.119160965 -0.09727516 0.06612309 -0.022270618 -0.088649824 -0.1000245 0.024838619 0.017338755 -0.0128482245 0.010166589 -0.0199375 0.17596075 -0.064552896 -0.004672389 0.05159932 -0.041656062 -0.055879872 -0.114007324 -0.061939687 0.082276285 -0.07779063 -0.02463132 0.038849715 -0.085933864 0.07288684 -0.034544915 -0.08197498 -0.22515412 0.02454574 -0.021357019 0.104077935 -0.05994311 0.067586035 -0.060496546 -0.16895264 -0.056956545 -0.07333238 0.07740313 0.078952365 -0.068702415 0.044376735 0.057753053 -0.061051 -0.091957696 -0.06751587 -0.112075865 -0.097377606 0.01786308 -0.05140814 0.024277633 -0.11126527 0.051178303 -0.056263197 -0.10478231 -0.008158334 0.08728353 0.04132883 0.10385239 0.02627578 0.07426966 0.048850793 0.089915656 -0.057741556 0.19012539 0.048961807 -0.024510674 0.11734126 0.076875426 -0.07442947 0.040104553 0.2715105 -0.05876616 -0.004833231 -0.0114208525 0.00028339966 0.019589148 -0.008492682 -0.13658772 -0.120611295 -0.09806176 -0.03492709 0.17403199 -0.041155655 -0.049610592 0.02788452 0.092366695 0.057720706 -0.002121839 -0.19357887 -0.0009140355 0.100836255 -0.032445382 0.05586474 -0.1010693 -0.17450044 -0.05957428 0.057311125 -0.14054237 -0.05937008 -0.029857416 -0.123286046 0.114960924 -0.12093884 -0.038501542 0.18499981 -0.04376159 0.06916879 0.1075414 0.102274545 0.13693285 0.03872221 -0.017490068 -0.0062121833 0.07369015 -0.05433372 -0.077562325 -0.0224781 0.03548472 -0.047637064 -0.09578714 -0.10297857 0.007772379 0.025899922 -0.01580102 0.029296886 -0.032484237 -0.17558825 -0.066363476 -0.0026090334 -0.010942312 -0.04508143 0.010994161 -0.10131772 -0.15145636 -0.013432869 -0.01599528 0.084304936 -0.006280138 -0.15062319 0.116427876 0.13607009 -0.070774585 0.028527103 -0.19106433 0.2257046 -0.14934134 -0.10705963 0.0038045219 0.06482726 -0.024400776 -0.06869914 0.043149877 0.10169642 -0.09473505 -0.088092096 0.17227484 -0.037034944 -0.068992965 -0.05941011 -0.16816427 0.040103544 -0.09576153 -0.18019712 -0.13291414 0.10118872 0.12161369 0.0949889 0.00035816935 0.038739104 -0.023210984 0.06930062 0.12557356 -0.13042216 -0.0407889 -0.06264345 -0.024745021 0.0675344 0.034882575 0.041087516 -0.19977903 -0.015002336 0.05629981 -0.09951604 -0.006969617 0.037032716 0.048885107 -0.056115985 -0.032907158 0.23560861 0.024153741 -0.059759364 0.13491629 -0.07490998 -0.011372198 -0.08508911 0.12966365 0.10156744 0.016167818 -0.02572453 0.07686622 -0.008211775
/religion/religion -0.1368811 0.020040877 -0.23764342 -0.15287717 0.00016420142 -0.12366829 0.0057360292 -0.12628533 0.05258184 -0.06523821 0.006457581 -0.006414728 -0.1151515 -0.122078665 -0.10819025 0.16885664 0.08224685 0.057934694 -0.09178866 0.011884576 -0.037921235 -0.003285033 -0.022985715 -0.060007993 -0.032656666 -0.12239781 -0.020497488 0.240696 -0.005551713 0.18051209 -0.05137886 0.09447632 0.098020926 0.032531295 -0.019375551 0.17622125 -0.10370655 0.16741973 -0.1287296 0.063324966 -0.012242449 -0.07791489 0.10732113 -0.094798185 -0.0356026 0.11353683 -0.055359602 0.010375877 -0.11800091 -0.027469665 0.0028077094 0.022494266 0.10670796 0.081120506 -0.09500989 -0.077498205 0.027565872 0.056753945 0.097417176 -0.16725723 -0.029706726 -0.011029946 0.005519365 -0.053003225 0.17238536 -0.013371168 -0.014444819 0.06090225 0.18927944 0.13442221 -0.12698866 -0.1258113 -0.16279785 -0.020651536 -0.15086949 0.18142033 -0.107859574 -0.054036368 0.11343561 -0.103021115 0.082434185 -0.10856855 -0.23070867 0.18411255 -0.006154485 -0.005970717 -0.20531683 0.10059403 0.15263861 -0.17044592 -0.021780115 0.11240969 0.12091767 0.062832616 -0.047459114 0.14438966 -0.09259777 -0.14432582 -0.17677784 -0.03921433 0.041670803 -0.04036124 -0.08187515 -0.0520384 -0.09552143 -0.17759104 0.21151815 0.05935424 0.008864782 -0.0018642582 -0.10150248 0.0072836396 -0.011375731 0.005195221 -0.092684984 -0.022734161 -0.04828723 -0.028977066 -0.036566522 0.19232273 0.08422412 0.00376721 0.116588324 -0.121815614 0.1408445 -0.1222973 -0.112305 0.18593134 -0.12910749 0.24161689 -0.18964782 -0.04346942 -0.041043665 -0.0543344 0.0880421 -0.1554259 0.120621234 0.015043342 0.040600054 0.11815655 -0.07432992 -0.12511525 -0.024295982 0.012551784 0.035673212 -0.028640527 -0.010354168 0.20121247 0.21738145 0.1757293 -0.035258085 0.10232205 0.16741908 0.07673556 -0.0603129 -0.07001814 -0.078556545 -0.12188684 0.23909865 -0.117643505 0.071077965 -0.13029806 -0.07448042 -0.1752524 0.047504082 0.055786736 -0.10955806 -0.00022477329 0.03750607 -0.013247452 0.080060214 -0.008839694 0.06414211 -0.038955174 -0.08589357 -0.022151506 0.035286125 0.07529375 0.14117862 -0.036683906 0.10416163 -0.023637027 -0.123591326 -0.11275848 0.034605257 -0.005552545 0.116407745 -0.050466217 -0.063535474 -0.033156186 -0.026804779 0.08531497 -0.011521407 0.112818845 0.046195175 0.0428431 -0.050536618 0.060153898 -0.03520506 0.02699673 0.011721844 -0.12819996 -0.019515911 -0.032739773 -0.12164094 0.06859367 0.048840944 0.09493154 -0.040585566 0.03898194 -0.1331309 -0.10174094 0.15582348 0.00367996 0.092168 0.13502239 0.066797435 -0.005416356 -0.08253846 0.08000287 -0.004934509 -0.11380738 0.19085562 -0.055711146 -0.088704936 -0.12510246 0.037447285 0.10222666 0.01944309 -0.082217656 -0.120674536 0.033814196 0.10641115 -0.1252956 -0.032703426 0.06301399 -0.012719037 -0.082337804 -0.06615337 0.13996911 -0.05987164 -0.03826986 -0.06477612 0.02458154 -0.16218302 -0.13590163 0.05893187 -0.046505127 0.018964054 0.16377416 0.025330875 0.03443036 -0.17138046 -0.064064704 0.15144584 -0.031544898 -0.010509806 0.054112386 0.047833093 -0.03524165 -0.00249329 -0.12048029 0.16339575 -0.07841341 -0.19689985 -0.007766356 0.06439807 0.042640623 -0.024470765 -0.0887305 -0.0902532 0.0033053525 -0.013254961 -0.21136563 -0.040334202 -0.07888147 0.1120325 0.1902748 0.07034607 -0.010968188 0.31017372 -0.16728814 -0.1056099 -0.043716136 0.05435898 0.17237288 -0.15890343 0.14113235 0.09557032 -0.027488898 0.07593199 0.11360774 -0.01434604 0.027778039 0.10072092 -0.10727223 -0.26278117 0.0020802503 -0.015187296 -0.025129031 0.0835653 0.019819535 -0.063261524 0.107808754 0.052718364 -0.034888715 0.06258036 -0.14766812 -0.008137879 -0.0077861394 0.12846397 -0.033932697 -0.052358832 0.0442067 0.13459693 0.0018433456 -0.0032538187 -0.16391282 -0.031466343 -0.008544809 -0.09729565 -0.011617656 -0.036622107 -0.06743524 -0.21518931 0.05589377 -0.10337128 -0.17717326 0.0821288 0.13520819 -0.12280107 0.12802866 -0.15269703 -0.12377535 -0.11801751 -0.10257491 0.08220609 0.04218992 -0.05836808 0.0077386233 -0.16654485 0.027455196 0.015337575 0.024766136 -0.082992435 -0.10646801 -0.16679023 0.009850276 -0.096206255 -0.07210383 0.0977691 1.2235113e-05 -0.073010184 -0.17378898 0.029480962 -0.006984414 -0.04330652 0.18361 0.0010164649 0.036475603 0.074421324 -0.09119079 0.077469945 -0.14017574 -0.25454268 0.0425267 0.047248516 -0.15953086 0.11632146 -0.004232735 -0.031414654 -0.07150604 -0.082975075 -0.05302541 0.12832226 0.08596733 -0.0018098761 0.16484618 -0.09291589 0.05837037 0.13843212 -0.026428271 0.19537687 -0.03676664 0.104620434 0.07246799 -0.06732446 -0.06561192 0.16729218 0.13456428 -0.089184485 -0.040433705 -0.20446216 -0.1694414 -0.08998946 -0.0013697497 -0.11274281 0.08909209 0.14891385 -0.19997057 0.005914992 -0.23041303 0.027224155 -0.058536813 0.086814374 -0.0064075324 0.22759953 -0.04699613 0.13076949 0.15382412 -0.03162327 0.13653786 -0.06695452 0.14375554 -0.11167875 0.12828943 0.016122239 -0.049959827 -0.03707598 0.10542548 -0.22555144 -0.0934542 -0.014779203 -0.011223535 0.026513752 0.029240232 0.0739188 0.118903644 0.12115522 -0.056343988 -0.0027688523 -0.14400674 -0.12397107 -0.24795988 0.094473064 -0.03345875 0.057709184 -0.15393484 -0.0072200154 -0.04015921 -0.2135512 -0.02694139 -0.13678136 -0.015276757 -0.016104503 -0.05971201 0.039969753 0.13620049 -0.09951407 0.13707817 0.14490762 0.079952545 0.05763891 -0.05851374 -0.15469216 0.0678443 -0.054251045 0.002827466 0.069015145 -0.04608182 -0.18601811 -0.057014313 0.05846036 -0.12704548 0.03964641 0.062875055 -0.077795275 0.17177714 0.04114988 -0.088029735 0.0017374011 -0.17993468 -0.035337225 -0.117888905 0.026331251 -0.0296417 -0.10588856 -0.17597064 -0.15794279 0.05605435 0.053509653 -0.11973357 0.00074141927 -0.080146894 -0.11765532 0.03235892 -0.037783764 -0.066588745 -0.10681711 0.11804928 0.11511195 -0.1137848 0.09206078 0.08364599 0.010987714 0.16831775 0.055535104 0.08176001 0.1235582 -0.009149847
/building -0.12968953 -0.08511017 -0.04743144 -0.16328935 -0.16155803 -0.070883974 0.06670053 0.0508958 -0.07237998 -0.035490427 -0.110288 -0.09692795 -0.034392174 -0.043974776 -0.0924254 0.09083665 -0.070982955 0.042091276 -0.013953025 0.02642495 0.18133359 0.107090846 -0.11713535 -0.18702339 0.13271646 -0.038439665 0.16657121 0.25493538 -0.05055061 0.15063609 0.04796912 0.024884664 0.08849811 0.0796884 0.050174832 0.13184004 -0.13129997 0.22453429 -0.027797211 0.06117058 0.054630153 0.0405063 0.12490194 -0.0036377728 -0.11001164 0.1411809 -0.050599355 -0.09498334 -0.08443617 -0.018639049 -0.13595194 0.05416959 0.09356436 -0.05113672 -0.05809596 -0.038059186 -0.021099202 -0.08699126 0.09856739 -0.17478818 0.09437144 -0.043452356 0.069667794 -0.19216675 0.29605588 0.0966961 0.12438384 0.16287005 0.100869335 0.039727803 0.048706025 -0.02390406 0.02801309 0.032953408 -0.016487382 0.11581719 -0.110947974 0.006449064 0.045712356 0.095929146 -0.032135066 0.08610408 -0.12363681 0.13883239 -0.019133756 -0.14357516 -0.21949947 -0.046076983 0.11629662 -0.24734925 -0.11061787 -0.07163719 0.043566525 0.15352975 0.11180792 0.20197283 -0.14398868 -0.054157525 -0.08293849 -0.2261757 0.072425954 -0.023093358 -0.09985657 0.06169317 0.15691647 -0.03898007 -0.012236459 0.08239467 0.034915186 0.05628615 0.03074364 0.16093132 0.086391 -0.14047264 0.038060397 0.09544151 0.010138228 -0.060903512 0.09808086 0.072227545 -0.080484614 -0.10118736 0.11246625 0.047790736 0.14520468 -0.05170379 -0.16361248 -0.0027529402 0.011895108 0.10623995 0.0986816 0.012229826 0.08808828 -0.062576376 -0.109513156 -0.12394309 -0.034266453 0.04395053 0.031717014 -0.031998467 0.17456731 -0.028427938 0.017299015 0.09655381 0.0035570995 -0.1041384 -0.056101132 0.022804704 0.030991161 0.06934599 -0.02942767 -0.09776135 0.045924403 0.019658728 0.06514249 0.014741434 -0.15554707 -0.24735762 0.22621387 -0.035609547 0.041990567 -0.11595271 -0.07255187 0.052259933 -0.12679826 -0.02606158 0.1176893 -0.07238235 0.015479066 -0.14224967 -0.018768732 0.07680959 0.10661202 0.004689789 -0.041133657 -0.018396487 -0.099553525 0.17160082 0.1354046 0.09986651 -0.021534516 0.011688583 0.10193584 -0.08713738 -0.13710073 0.05792488 0.020564832 0.031636868 0.03285139 -0.1531672 0.17143296 0.010749171 -0.051863655 0.1196358 -0.10862361 -0.04614819 -0.10728808 -0.14193392 0.029502265 0.021644583 0.1051668 -0.010490711 -0.019024579 0.107997075 0.067551084 0.09825322 0.018068235 -0.0018454065 -0.059608992 0.12070688 -0.14850162 -0.13889243 -0.01138801 -0.023001099 -0.01391962 0.0024054507 0.070948996 0.107620806 0.01781205 0.07580698 0.08331467 0.04904322 -0.017091023 -0.025137587 -0.057035286 -0.15251002 0.19792621 0.024859073 -0.1988847 -0.06921469 -0.21377026 -0.07702955 -0.004811983 -0.039402336 0.02413351 -0.006342559 -0.0076113027 -0.13122411 -0.03210843 0.09991466 -0.06518748 0.005190814 -0.037572473 -0.009476907 0.034611296 -0.0016178386 0.10816942 0.101715446 -0.018720215 0.07965351 0.023545427 -0.06358122 -0.15528156 -0.06688036 0.15635705 -0.050865352 -0.039278984 -0.002875884 0.038622364 0.027488079 0.07975729 0.119022146 0.33013025 0.051972702 -0.09332577 -0.0072043636 0.16824019 -0.047844186 0.13297084 -0.018836176 -0.064191386 -0.028073119 0.18758361 -0.1516671 -0.17786902 -0.06637399 0.11625269 -0.031869486 0.16686048 -0.14759403 0.13480888 -0.055057313 -0.08461685 0.090168774 0.011942753 0.15431942 -0.048892573 0.07332277 -0.02366669 -0.024803646 -0.1496421 0.084657736 -0.009398433 -0.055375103 0.12778935 -0.00833177 -0.20185545 -0.24543722 0.15219577 0.09793773 -0.16036068 0.030304005 -0.10069427 -0.076373 -0.02798466 0.041750804 0.10187268 -0.05641721 0.19676366 -0.06097395 -0.020878611 0.13223828 -0.20784235 0.018762343 0.04809165 -0.0063939705 -0.11726977 -0.12199707 -0.007777768 -0.21209562 -0.042165413 0.08228963 -0.1338888 -0.048309576 -0.14841227 -0.16893388 -0.15041348 -0.12355433 0.07242805 0.08302472 0.025445845 0.046148427 -0.036718372 -0.014959576 -0.12843868 -0.042819668 0.21836779 -0.05297913 -0.052127413 -0.084616534 -0.12990497 0.052486893 0.0018228876 -0.0034526708 -0.0680711 -0.086726464 -0.097214185 0.076405846 -0.05054255 -0.11256596 0.025785724 0.114743136 -0.16128701 -0.18338402 -0.013433884 0.16310187 0.15551843 0.12386642 0.113626234 0.06794582 0.070295215 -0.08518323 0.039589435 -0.0539479 -0.06424208 -0.14454067 -0.035644386 0.014450477 0.017514559 0.16651872 -0.02345899 -0.15946269 -0.05674394 -0.14208667 -0.02782391 0.079965994 -0.0949191 -0.035774745 -0.07201214 0.1758793 -0.058912158 -0.030770352 0.07540195 0.04244723 0.08467302 -0.029280003 0.08163248 -0.071038164 0.12652041 0.004499088 -0.030595774 -0.07273399 -0.20906447 0.019669617 -0.089554444 -0.11234649 0.08016664 -0.088116445 -0.020204345 -0.034851283 -0.18555444 -0.3317606 0.04530879 -0.060606156 0.07400984 0.2118759 0.069366336 -0.0948316 0.12689598 0.24126805 -0.16501506 0.06893833 -0.0015928581 0.096521765 -0.025140198 -0.030113213 0.084547095 0.105484456 -0.259457 -0.10412875 -0.11441179 -0.080784015 -0.22566888 -0.016041419 0.09863792 0.0012299313 -0.045606624 -0.15062736 -0.083995946 0.08661693 0.10447134 -0.11887641 -0.037659887 -0.19044098 -0.024596522 -0.12279219 -0.1354694 0.07800571 0.042540044 0.030204697 -0.13280073 -0.1910043 -0.25043815 0.092791975 -0.041701768 0.016488813 -0.12791535 0.150081 -0.17669518 0.122515015 -0.06628826 0.041108076 0.100640826 -0.004943969 -0.083496526 0.07300072 -0.09302867 0.21057226 0.068968475 -0.156086 0.05830711 -0.23597772 0.058309615 -0.09677469 0.21007152 -0.010793946 -0.08779563 0.07960856 0.026527312 0.05272592 0.11394603 -0.14474991 0.061889652 -0.1545803 0.11571694 -0.09478335 -0.024759617 -0.00969833 -0.25758576 0.05691656 -0.050551657 -0.10312592 -0.106802404 -0.029647091 -0.06950199 0.04158494 -0.04129674 0.11072633 -0.22643924 -0.050737478 -0.11169482 -0.025838643 0.09508076 -0.079586335 0.0069032176 0.07808909 0.18588626 0.0632816 0.22384612 0.05840828
/medicine 0.09393598 0.13682698 -0.09585737 0.08744802 -0.20675044 -0.08689079 0.30500206 0.045155272 0.14447716 -0.046138573 0.06609493 -0.22086668 -0.17122923 -0.37542638 -0.079000846 0.35326594 -0.21962869 0.087513104 0.06252919 -0.12622881 0.05220118 0.13511683 -0.051362805 -0.15471293 -0.023096496 -0.013131049 0.09247006 0.25859612 -0.13486709 -0.25858247 0.06593114 0.12777267 0.31441656 0.17020047 -0.1226489 0.2646101 -0.023497425 0.16104476 -0.08531553 0.32604292 -0.08281811 0.09920642 -0.036055982 -0.08998273 -0.04627534 0.17774825 0.17900492 -0.08510617 -0.08262766 -0.32999948 -0.20170687 0.27816877 0.10737019 0.24106795 -0.019803412 -0.18384455 0.36825526 0.18057024 0.14499594 0.18824755 0.20892775 0.017067902 -0.132528 -0.17674287 0.29965767 0.09551523 -0.03803453 -0.08323063 0.20317815 0.28162584 -0.19740649 0.06844648 -0.19160773 -0.06978452 -0.020326821 0.26502228 -0.103800006 -0.13333811 0.070861705 -0.022785157 0.0926143 -0.0030701968 -0.16157533 0.30251575 -0.13079156 0.22720392 -0.2050243 0.009900506 0.12249836 -0.29673192 -0.1269897 0.07823271 -0.060901355 0.14188704 -0.08799903 -0.16620712 0.05440341 -0.10946728 -0.28823555 -0.06291039 -0.22744805 0.096283786 -0.2756106 0.06658813 0.034746043 -0.25304285 -0.085154325 0.19035257 -0.08191712 0.17727275 0.007653248 -0.378951 0.061422974 0.03065021 -0.0064810286 0.17928769 -0.19467454 -0.079536594 0.032443143 0.3163371 0.120022655 -0.16508535 0.15338281 0.02595852 0.23811801 -0.1554981 -0.17828782 0.25222802 -0.028942244 0.22942924 0.033080895 -0.071689524 0.23104034 -0.3294261 0.17017645 -0.002493806 -0.08152914 0.04042195 -0.040434554 -0.13531844 -0.0869772 0.048680592 -0.16583788 0.015815021 -0.12291127 0.014745255 -0.12528788 -0.11912395 -0.14781135 0.033952728 -0.000186429 -0.22588095 0.14951351 -0.07714697 -0.09087766 -0.015869075 0.21906714 -0.1985832 0.25047567 -0.2063345 -0.046993513 0.1278203 -0.072218224 0.007916642 -0.087353505 0.03505429 -0.1274007 0.15409863 -0.17863177 -0.06414498 0.17157735 -0.19558829 -0.0030892557 0.12283615 -0.037935864 0.012178766 -0.015692133 -0.0941682 0.13744164 -0.19269556 0.23786105 -0.08138671 0.048374534 0.050094962 -0.1103218 0.23510453 -0.051385522 -0.22615297 -0.14792717 -0.29291332 0.13732402 0.16677599 -0.09546624 0.041606504 0.016344115 0.10175479 -0.27614844 0.33486927 -0.024073984 -0.19072467 0.086059704 0.010669656 0.14777996 0.03520233 -0.03483964 -0.113596514 0.09642041 -0.23148988 -0.22610088 -0.11415 -0.0614006 -0.021486178 0.09542535 -0.08821015 -0.0013888038 0.1324755 -0.12916787 0.073487096 0.07721738 -0.020471785 0.001245441 0.09055571 0.015677258 -0.18259762 -0.020751545 -0.09331803 -0.04349802 0.22996832 0.08713945 -0.053622674 -0.1860329 -0.0916796 -0.10469542 0.07691347 -0.004565157 0.10268887 0.19662394 0.068430796 -0.24090818 -0.08144391 0.03275158 -0.011829944 -0.08230203 -0.04459265 -0.045523204 -0.25820372 0.027303575 0.0985933 0.009090461 -0.16325249 0.05387074 -0.001733282 -0.10321905 -0.0656331 -0.005442492 -0.13846748 0.111419305 -0.15649164 0.05812867 0.051329173 0.09892561 -0.025414074 0.05856701 -0.030724093 -0.066384256 -0.014895727 -0.14246029 0.26812717 -0.051844124 -0.12846269 0.015864855 -0.009472963 0.04192613 -0.07463978 -0.23271772 -0.22689855 0.014238177 -0.1053781 0.08302805 -0.020934915 0.06748253 -0.10684267 0.15966716 -0.09281823 -0.0052522784 0.048720233 -0.052805543 -0.156686 -0.04488943 -0.06225052 -0.123504505 0.012871729 -0.20169628 -0.022439497 0.18734093 0.14421667 -0.020549383 -0.08536205 0.059471335 0.104910545 -0.13985121 0.06260292 -0.10198552 -0.24905965 -0.027499313 0.1141851 0.1540838 0.13576145 0.2553197 -0.12699208 0.38834876 0.054609593 -0.23079813 -0.12894353 -0.11308668 -0.18963769 0.040350746 -0.2934381 0.031278145 0.046282068 -0.00072720903 0.10300309 -0.05278461 -0.063724004 -0.052949734 -0.076052465 -0.15278326 -0.02512452 -0.11856126 -0.007021968 -0.15639707 0.020356646 -0.29771507 -0.0154693145 0.047121417 -0.34747237 0.039483696 0.13928923 -0.23687978 -0.010969432 0.017710775 0.11256145 -0.01348157 -0.19098088 0.057954732 -0.05421723 -0.0731189 -0.0036276714 0.07473527 0.13568723 -0.03710701 -0.13687669 -0.12665051 0.06400975 0.101821005 -0.046358798 0.14394446 0.28948367 0.08484364 0.066898815 0.023850998 -0.041829668 0.04694762 -0.14384225 -0.23496777 0.04210255 0.10860529 -0.05298018 0.045718376 0.0911488 -0.2355871 -0.13315542 0.0024938937 -0.2616853 0.15456136 0.2178914 -0.07329992 0.06045548 0.01995358 0.29200485 0.20489785 -0.14991924 0.14867532 0.092189215 -0.13965236 -0.015651511 -0.09129178 -0.17813668 0.12478239 0.025359476 0.122867435 0.09869005 -0.14425196 -0.2582045 -0.1760624 -0.0129038915 0.13107531 0.07954294 0.048327535 -0.28001812 -0.16630583 -0.043205563 0.12461574 -0.10294196 0.012081452 0.02561317 0.3104705 0.114531964 -0.0013513064 0.09035161 -0.08798884 0.20746198 -0.051427387 0.1051896 -0.1759088 0.15539613 0.15466583 -0.0675899 0.15007266 -0.09711176 0.021548409 -0.16088967 -0.09016239 -0.1833075 -0.193891 -0.08624274 -0.15509318 0.2445646 -0.22208972 0.13067178 -0.11886705 0.10486392 -0.21783361 -0.17694779 0.07772704 -0.060825408 0.20465805 0.0037418478 0.34384334 0.27930892 -0.13165225 -0.32059142 0.08957444 0.14064927 0.15047769 -0.07240855 -0.03982693 0.04396849 -0.079260886 0.23666832 -0.009627751 -0.046004802 0.04435262 0.089201815 0.006130482 0.229663 0.11947066 0.09259786 0.087641455 -0.2930351 -0.06140834 -0.013796848 -0.1255197 -0.100341275 0.17940143 0.05249571 0.13816506 0.084719084 0.010596519 -0.08078536 -0.048138518 -0.29509452 0.16136456 -0.009876547 0.15487476 0.04899308 0.07411392 -0.1464089 0.053126387 0.041156907 -0.19822882 -0.22329342 -0.1209196 0.21539162 0.035076775 0.13162126 -0.14934397 0.18672065 0.019947026 0.01972249 -0.16115923 -0.022748776 0.40767592 0.13267915 0.21069272 0.16070446 0.2519914 0.12749884 0.15501542 -0.0041504195
/religion -0.10535971 0.075601846 -0.22126305 -0.15993711 -0.075620845 -0.07654948 0.04113323 -0.11317347 0.046547506 -0.06591028 0.02162087 -0.09253724 -0.09747262 -0.10774979 -0.101569474 0.11019959 0.077378094 0.1171784 -0.13539757 -0.008158424 0.07313704 0.029807039 0.042665705 -0.12052386 -0.031876143 -0.13911565 -0.053237166 0.23360385 0.02884091 0.1322822 -0.07972087 0.074059285 0.083592124 0.04099197 0.025474753 0.15409277 -0.16305372 0.1942596 -0.12220134 0.086893365 -0.026850542 -0.086534865 0.10500736 -0.053527474 0.0050857016 0.1416162 -0.06370975 -0.022831507 -0.11904286 -0.058108173 0.018585274 0.009303215 0.11718518 0.05676179 -0.1510952 -0.09436976 0.060270175 0.07289956 0.13256095 -0.1383958 -0.02704461 0.037630256 0.00799989 -0.0725079 0.14523982 0.031088145 -0.033761285 0.08245833 0.26118758 0.18048862 -0.13527122 -0.089387186 -0.13286157 0.022559011 -0.15375212 0.18856107 -0.04891293 0.043754943 0.1581189 -0.03462346 0.09293909 -0.13026273 -0.17997034 0.15357618 -0.04850356 0.071387626 -0.17861201 0.12168861 0.15711041 -0.20800044 -0.010494239 0.12441839 0.04391751 0.02513608 0.024958437 0.13062257 -0.098729305 -0.11693271 -0.17037435 -0.08331112 -0.085127614 -0.035009228 -0.12603149 -0.065860376 -0.1617458 -0.2046242 0.14765717 0.05542341 -0.012015473 -0.037748694 -0.09143445 0.07403281 -0.015585662 0.02526497 -0.09977766 0.012521702 -0.050690323 -0.082358435 -0.04879099 0.2071792 0.06184328 -0.009178909 0.028342482 -0.10077144 0.17932212 -0.06847801 -0.11613393 0.15895651 -0.13611086 0.17552929 -0.18535484 -0.018684734 -0.06410895 -0.049287036 0.08008427 -0.20702195 -0.008969106 -0.014268828 0.08904943 0.072310016 -0.082384065 -0.087196626 -0.045368396 0.011361894 -0.011880524 -0.035187077 0.021935593 0.12688766 0.15341324 0.18481626 -0.078543045 0.11579589 0.13985206 0.025940591 -0.17062652 -0.104387976 -0.04179632 -0.175775 0.24960726 -0.11852692 0.06928614 -0.11070693 -0.085625365 -0.11312515 -0.018195037 -0.0069910954 -0.13716128 0.0061074817 0.013220312 -0.02439258 0.012874282 0.027161593 0.049777202 -0.067337714 -0.17781432 -0.035759732 -0.003362953 0.124490306 0.09827088 0.0031388074 0.118065044 -0.06865173 -0.07543292 -0.048789714 0.006589591 -0.011901885 0.109194934 -0.01169818 -0.025632996 -0.09874942 -0.008053061 0.08001 -0.05855674 0.17501555 -0.004639741 0.088486694 -0.05800286 0.061408322 -0.043411102 -0.0548859 -0.099399745 -0.07757134 -0.069474384 0.032257687 -0.13992836 0.10221132 0.047962926 0.09407421 -0.0007460799 0.07964279 -0.13584204 -0.16600503 0.11441667 0.007850412 0.06862557 0.13000853 0.031226128 -0.046442006 -0.07821976 0.050792433 0.024373572 -0.12966938 0.12529685 -0.02007021 -0.058122475 -0.12472474 0.025181418 0.07937337 0.054765664 -0.14269844 -0.10773254 0.01632816 0.07513905 -0.09940927 -0.037943892 0.012838241 -0.008812633 -0.124423906 -0.04385571 0.19207886 -0.050711516 -0.0020504068 -0.10606732 0.067357086 -0.152265 -0.19804183 -0.00061794306 -0.025909849 -0.03148392 0.1227289 0.07537082 0.008194115 -0.07931255 -0.06632768 0.093840726 -0.045336995 -0.0107370475 -0.0064929635 0.066576324 -0.062575765 -0.055984795 -0.10985562 0.091219164 -0.01446488 -0.19081542 0.028155312 0.036713794 0.054688767 -0.08435178 -0.06465836 -0.089551315 -0.02887997 -0.08213531 -0.17112602 -0.051264904 -0.09148235 0.10927801 0.17743447 0.11758307 -0.07883779 0.26084024 -0.08904956 -0.12581626 -0.018515168 -0.0049587563 0.15463544 -0.09424885 0.11164198 0.12160574 -0.04758291 0.037188306 0.089764066 -0.0269891 0.005396105 0.10068924 -0.077360384 -0.27947074 -0.007190408 -0.028891657 -0.011008995 0.14593072 -0.034198955 -0.05616601 0.08937134 -0.020018077 -0.011789419 0.07210054 -0.11646285 0.026730452 0.024462817 0.16804202 -0.043288175 -0.06738316 0.03623076 0.0671232 -0.03050662 -0.018046025 -0.21052173 -0.03777143 0.036254182 -0.114099264 0.026783528 -0.038483664 -0.023982834 -0.15984698 0.112135306 -0.106552586 -0.12162947 0.026171718 0.08372264 -0.066786334 0.048887476 -0.10702755 -0.029445972 -0.13839838 -0.14145187 0.120329104 -0.0025720883 -0.037871975 0.034552064 -0.1683246 0.016865004 0.010895643 0.027123738 -0.092858106 -0.16255829 -0.24481314 0.04506443 -0.13891193 -0.06552123 0.012167319 0.055562228 -0.11054617 -0.21875069 0.028921315 -0.012677088 -0.062248897 0.16637719 -0.003882623 0.11429394 0.038546264 -0.119447455 0.058084153 -0.14672367 -0.19938435 0.07818002 0.1077527 -0.10686284 0.12693895 0.013399642 -0.009458014 -0.07408868 -0.019990236 -0.08744581 0.09652619 0.10873828 0.054479647 0.16136219 -0.06670887 0.13392305 0.1460492 -0.009775268 0.2624071 -0.039199978 0.11508885 -0.019316398 -0.06415238 -0.001812016 0.1278711 0.112206504 -0.08968459 -0.006656973 -0.14172876 -0.1418145 -0.09545206 -0.02510501 -0.07830454 0.05078305 0.1371658 -0.16709886 0.05140981 -0.21217711 0.008881928 -0.030725118 0.08545341 0.060969338 0.21893176 -0.041437946 0.16512212 0.108738154 -0.025576653 0.13303053 -0.10283255 0.17011866 -0.15046501 0.08633808 -0.019410573 -0.04819296 -0.042731185 0.14155461 -0.16012727 -0.0076627173 0.012415342 -0.033267964 0.11513996 0.0034165538 0.1451884 0.050887164 0.12942359 -0.050171364 0.025905818 -0.094677076 -0.13111241 -0.2092478 -0.042854864 -0.06639206 -0.0049395873 -0.13902085 -0.03422702 0.0102470005 -0.16951726 -0.05381349 -0.15110396 0.01993211 0.027092434 -0.15785141 0.03311372 0.09302276 -0.08042398 0.13313475 0.09419972 0.12565582 0.09083421 -0.065706216 -0.072397664 0.027115116 -0.056420706 0.05451073 0.061544657 0.0026170192 -0.17395394 -0.20570144 0.069270924 -0.13442671 0.026765082 0.10756274 -0.06646987 0.16359009 0.04319038 -0.07574101 -0.004130355 -0.14884502 -0.061312474 -0.10301439 0.012896586 0.038111195 -0.11298269 -0.13580066 -0.12945256 0.15992789 0.032735772 -0.14766884 0.011323999 -0.082979396 -0.05713749 0.0296357 -0.023615895 -0.027761804 -0.07107688 0.03751298 0.10646751 -0.11202253 -0.004544774 0.073025346 0.062469523 0.16285312 0.042516436 0.12809652 0.13768105 -0.034400295
/person/director 0.23954353 -0.0478481 -0.092024505 -0.3203522 -0.2495512 0.0043704296 -0.11984185 0.05603229 0.14205113 -0.047922853 -0.024485065 -0.1691191 0.13913126 -0.26593095 -0.048983254 0.32125747 -0.01861819 0.036731873 -0.061502766 0.17538393 0.2766203 -0.01709074 -0.09868369 -0.051596455 0.09059375 0.04979209 0.0009378002 0.12925476 0.0712882 -0.02595349 -0.061917707 0.24859655 0.120139234 0.075518936 0.005023446 0.094964206 -0.023711478 0.18581083 -0.06855792 0.053958837 -0.057175778 0.023287088 0.023057405 0.049578838 0.09268914 -0.045413382 -0.012780044 -0.031484958 -0.035242535 -0.029033737 0.13232617 0.12505662 0.008149993 0.017981976 -0.031641815 -0.00016842793 0.0870717 -0.02366756 -0.014945591 0.038715474 -0.071561605 -0.06783128 0.05870602 -0.07968249 0.22868969 0.12286545 0.07807203 0.014369806 0.044712137 -0.0026473885 -0.09261269 -0.0055595706 -0.03352978 0.052107938 -0.08102499 0.07399022 -0.024628263 -0.07733887 0.13245386 0.044429164 0.0841038 -0.08344569 -0.039976418 -0.0406263 0.043272622 0.2760368 -0.043916073 -0.0374637 -0.005504711 -0.19227678 -0.11326801 0.030989712 0.049856205 -0.035410006 -0.0102498755 0.10936749 -0.07901463 0.021348344 -0.0698318 -0.0006627178 0.13558903 0.09604254 -0.044762976 0.070274696 -0.09274237 -0.060463157 -0.10277859 -0.008603933 -0.04097263 0.15505812 -0.009659272 -0.18328157 -0.09466286 0.026930785 0.010764152 0.051659144 0.019124202 -0.069886185 0.091293156 -0.0550843 -0.122063525 -0.038463008 0.021348266 -0.0745411 0.12832408 -0.16129914 -0.080159344 0.048921548 0.025127465 0.07596346 -0.10290735 0.050803903 -0.0674749 -0.06627768 0.10400554 -0.0982405 0.023932027 -0.024842432 0.009726355 -0.08046846 0.03842147 0.064013965 0.117996626 0.024372825 -0.051733818 0.039380465 -0.035251833 0.11854146 -0.078457996 0.20020002 0.12035695 -0.008127245 0.19789703 0.104208626 -0.082253866 0.04516588 0.050353825 -0.023544734 0.13731445 0.12325455 -0.036018133 -0.18740101 0.010187391 -0.12423286 -0.047327727 0.012334962 -0.07224453 0.060726717 -0.018936915 0.105135106 0.07561548 0.04936996 0.071451455 0.09470317 -0.1370733 -0.15395886 0.0676787 -0.09844474 -0.022596503 -0.041278828 0.18754372 -0.10074912 0.050556514 -0.10895671 -0.0007597411 0.049439006 -0.063518055 -0.04630691 0.08027678 -0.028420255 0.027887631 -0.0014193768 -0.025895394 0.14193459 -0.09267358 0.046007056 0.0073080654 -0.030770147 -0.14867519 -0.015333442 0.06343769 -0.20724402 0.088327564 -0.035663825 -0.08787279 0.06840272 0.1556622 -0.17780772 -0.2455442 -0.021943053 0.029461462 -0.04367369 0.1602517 0.03887215 -0.10385222 0.088648856 -0.060077265 -0.06006372 -0.014332248 0.008651545 -0.021159697 0.19957432 -0.07778169 -0.009047637 0.08312867 0.032704562 0.019519165 0.089714915 0.043757718 -0.07732527 -0.039348748 0.08814463 0.044600282 0.017515616 -0.052933466 -0.033609115 0.23301883 0.046642944 0.06270571 -0.12556496 0.08199296 -0.123032525 -0.025748035 -0.03134481 0.15904513 -0.012885193 0.10500229 0.040363934 0.04342151 -0.14890945 -0.013818939 0.05467481 -0.081652805 -0.07381454 0.018627876 -0.019896058 -0.045219645 -0.15070677 0.012815017 0.059273545 -0.06774001 -0.04318996 0.009892728 -0.08488103 0.044835765 -0.10544787 0.030767083 -0.0015522258 0.076687485 -0.1753212 0.20081341 0.008593363 0.13327797 -0.1604763 0.008908765 0.0068061077 0.1459834 -0.04665721 0.014654926 -0.0577426 0.04197544 -0.08379539 -0.002706048 -0.19687638 0.064483166 -0.006705153 -0.0075516654 -0.023096874 -0.1121229 0.020122739 0.034728378 -0.15452187 -0.105881155 -0.0015157908 0.22923729 -0.045542702 -0.056290466 0.04750918 -0.041822415 0.14985141 -0.017260421 0.101927884 -0.077565916 -0.08300937 -0.110277906 -0.048528586 0.036375754 0.007994523 -0.0025187584 -0.032833584 0.22784515 0.0035709292 -0.12390628 -0.07181797 0.025276328 -0.0080209775 -0.11850168 -0.05886735 0.07448014 -0.015661104 -0.093177 0.06575086 -0.08274585 -0.030323824 -0.10219819 -0.106081866 -0.13679026 0.04124965 -0.043409046 0.10163383 0.037298463 0.04457198 0.00074855523 -0.04300628 0.008987194 0.012610314 0.122056924 -0.005763069 -0.21070577 0.00640653 0.03713347 0.0051602004 -0.11700168 -0.02728852 -0.08125146 -0.027876085 0.14058064 -0.08137323 -0.024793064 -0.071833946 0.060732212 -0.07170738 -0.1085675 -0.02259529 0.050009403 0.071107596 0.111953415 0.0033516863 -0.037359953 -0.0034738795 -0.053675562 -0.092295356 0.27715263 -0.023552082 -0.04986244 0.07063095 0.11401862 -0.049034733 0.14227463 0.2999351 0.026181174 0.0033809294 -0.031456873 -0.013754944 0.08738957 0.0544098 -0.080038644 -0.10935117 -0.039370805 -0.06202511 0.15637052 -0.020454375 0.019268593 0.026748078 -0.0054019657 0.07326219 0.07374038 -0.10287102 -0.005469715 0.12182044 0.01102479 0.04400661 -0.09217254 -0.112457775 -0.026488852 0.010486499 0.0017563009 -0.08930692 0.008170361 -0.02811957 0.05397932 -0.08229281 -0.06532846 0.17376155 -0.011904352 0.01645491 0.10805544 0.108466096 0.19765757 0.096613675 -0.08724899 0.012408704 0.0005412458 -0.03181061 -0.089325055 -0.072927155 0.040535238 -0.048088383 -0.060326993 0.05706911 0.08004577 -0.013800519 0.05459045 0.09349793 -0.055537496 -0.11899924 -0.1119151 -0.037192013 -0.11248129 0.07048971 0.012893487 -0.06417579 -0.15387204 -0.04424867 -0.03478152 0.11443379 0.052983828 -0.018248308 0.09352717 0.09495365 -0.07916639 -0.099558555 -0.16374953 0.18427081 -0.13646756 -0.049276803 -0.09025072 0.05983558 -0.100037284 -0.122092314 0.10224079 0.13729401 -0.03936876 -0.0609242 0.1123257 -0.12392107 0.026354237 -0.07666638 -0.10648847 -0.038293634 -0.121313244 -0.21003093 0.031351466 0.08419352 0.0060022133 0.11074887 0.009408837 0.09034991 -0.029252728 0.15560926 0.124824405 -0.13854359 0.0022858693 -0.07495555 0.10778469 0.0816457 -0.08831552 0.074387155 -0.08306857 -0.064442486 0.12598594 -0.10594216 -0.060080003 -0.06937457 0.013138983 -0.15423647 -0.042954586 0.23067155 -0.03110954 -0.12161449 0.13539809 -0.16807659 0.024550477 -0.058358617 0.088770434 0.22576173 0.046776015 -0.027155364 0.15598534 -0.023360202
/location/city 0.050770927 -0.00938514 -0.01067011 -0.08948189 -0.14452013 -0.01917178 0.21255484 0.00605968 0.024385288 -0.18987565 -0.019313544 -0.03907214 -0.015387266 -0.08392291 -0.0003597475 0.13734543 -0.029641047 0.09404498 -0.17659856 0.048277598 0.17435656 0.028785696 0.023574155 -0.15486583 -0.050202556 -0.109713 -0.005304327 0.21746889 0.11155053 -0.0849906 0.05470116 0.039921854 0.062209673 0.14833365 0.06557087 0.07066172 -0.12660567 -0.057322405 -0.10303915 -0.14118658 0.21661207 -0.028326683 0.011160694 -0.19882087 0.0092756385 0.15157434 0.008756279 0.045464285 -0.0144757265 0.06559971 -0.0070665698 -0.021407234 0.007665208 0.060650833 0.04234313 -0.070688464 0.066660024 0.01574604 0.022040628 -0.117859766 0.078929335 0.11155391 0.19713154 -0.030594079 0.22448993 -0.073445916 -0.0798074 0.08578274 -0.0787618 0.20931739 -0.016576834 -0.079020485 -0.079434045 0.06186138 0.0021591454 0.037223317 -0.024541646 -0.081518464 -0.07826813 -0.06439829 0.18641642 0.19235939 0.11829913 0.12721841 0.040339388 -0.0017224066 -0.2092448 -0.0443691 0.084046066 0.007670648 -0.0018030761 0.06411751 0.17889875 0.15499912 -0.12208822 0.13295779 0.03177707 -0.004846725 -0.22003256 -0.15954688 0.05951355 0.06935259 0.007016977 -0.11203767 -0.015602293 -0.09951106 -0.103303656 -0.1361068 0.07014307 0.039574374 0.0022438078 0.09826339 0.12619735 -0.1219197 0.043401606 -0.049799375 0.0693454 -0.11552746 0.18062389 0.15488954 -0.078300945 0.07121157 -0.0056300187 -0.005520771 0.03874307 0.12025432 -0.13823642 0.18892825 -0.01996188 0.1812923 0.021826198 -0.027895272 0.003999784 -0.033090252 0.023872726 -0.23420985 -0.052156337 0.19748536 -0.10759746 0.116387196 0.22079843 0.028071562 0.02962886 0.058553517 0.19443344 0.028242333 -0.038415145 0.014860495 -0.05957822 0.2235955 -0.002791266 -0.12268615 0.07919457 -0.011193399 0.036224622 -0.23428874 0.04455755 -0.079717174 0.1287743 -0.01791549 0.108580306 -0.004391408 0.076312385 0.07361714 -0.021876743 0.19502617 0.10657221 -0.092803344 0.08087223 -0.117088415 -0.12716492 0.045119256 0.048662934 -0.0715024 -0.033906832 -0.03757665 0.10496535 0.16556887 0.12591863 -0.067569084 0.15137726 -0.013012107 0.040468376 0.08314462 -0.099278994 0.1284369 0.22603069 -0.09971613 0.0142040495 -0.003760773 0.23447093 0.030996716 0.05089233 0.15200783 0.03265729 0.008617452 -0.16699463 -0.056637365 -0.12490632 0.01846612 0.006853398 -0.17906973 -0.023494627 -0.005789909 -0.05842059 0.107311375 0.2299759 -0.085823774 -0.15014681 0.11466181 0.014866569 -0.13509603 -0.019220928 -0.13613556 -0.08496403 -0.036687367 0.09141863 -0.05717894 -0.07353524 0.09462412 0.07554187 0.039717704 0.041958474 -0.119446225 -0.016648136 0.07054708 0.014005443 0.107974835 -0.05880147 -0.02063226 -0.14310274 0.086032175 -0.11768138 -0.007960405 0.01167448 0.11334138 0.18029778 0.01110808 -0.14035712 0.16246912 0.014469743 0.09072279 -0.20400627 -0.12165994 0.009589022 -0.041265797 0.075177506 0.16189663 0.11498199 -0.14876683 0.14997084 -0.007783597 -0.14309642 0.051583175 0.18669704 -0.1633847 -0.16502918 0.012583064 0.07158106 0.03365674 -0.098288395 0.13058075 0.041268937 -0.094229 -0.08226089 0.02390914 0.0062698363 -0.0694805 0.07958663 -0.09168664 -0.06350771 -0.0536401 0.17810772 0.03253992 -0.042158764 -0.12312763 0.03846074 0.029156625 -0.015934095 -0.06282638 -0.04184393 -0.123737514 0.027839456 -0.10229651 0.056401804 0.060905714 -0.12431159 0.18469504 -0.04861517 0.035693716 0.043011375 -0.027117146 -0.05085643 -0.101079546 0.095498845 -0.0047532343 -0.099004515 -0.118123256 0.008358958 0.061119314 0.11072733 0.06968765 -0.06928052 -0.04331419 -0.08218443 -0.07193351 0.15768255 -0.10658594 0.061742645 0.14279097 0.017213693 0.13393298 -0.18161026 -0.029750647 0.22540715 -0.028408103 -0.18337491 -0.042341784 0.06547489 -0.034300756 0.1363863 0.2627513 -0.22522971 0.009689668 -0.062161647 -0.04562008 -0.21743593 0.094584234 -0.16419522 -0.008505098 -0.05459507 0.052592166 -0.081550755 -0.106075734 0.014851737 -0.25343192 0.15520704 -0.035067696 -0.09659864 0.08401921 -0.04674705 0.015178832 -0.030137781 -0.08142457 -0.01804489 -0.14157797 -0.06540714 -0.119723 0.11797358 -0.18717356 -0.025480544 0.021940464 -0.14321564 -0.15684277 0.013184986 0.05244307 0.038023327 0.03709399 -0.058488972 0.08380019 0.07187327 -0.04204248 0.10722703 0.047480404 -0.08382982 0.078218 0.13086273 -0.10951321 0.073243886 0.30608654 0.020318374 0.071461566 -0.11031897 -0.22533265 -0.06773304 0.027380262 -0.013613454 0.0062243207 -0.008110376 0.12918809 0.14208837 0.21429212 -0.1238528 -0.13031925 0.087050475 0.032664884 0.00280167 -0.06784118 0.105823375 0.058668476 0.09116919 -0.020595673 -0.14467129 -0.0420358 -0.106078565 0.049285263 0.041897073 -0.19251491 0.069420606 0.055284522 -0.03172314 -0.23951072 0.09278889 0.054851327 -0.035410985 0.1462255 0.11545261 -0.033761248 -0.0914663 0.0782495 -0.06075714 0.03574297 -0.0736129 0.12242081 -0.023458017 0.018811248 -0.00020724628 -0.04481244 -0.11302914 -0.027468812 0.05924112 0.089314654 -0.002288354 -0.14400595 -0.039989427 -0.06985795 0.1471952 0.01188837 0.11824311 -0.0026326848 0.21975307 -0.042500753 -0.08786863 -0.08452221 -0.043753006 -0.08205297 0.022367485 0.29448062 0.05075056 0.1549341 -0.010799977 -0.100223 -0.06965132 0.07139809 -0.11101318 -0.19385718 0.020015854 0.068748906 -0.13011196 0.07971508 -0.13046142 0.2650516 0.06759041 0.037737533 0.04646535 -0.06441291 -0.056947827 0.25913483 0.15349814 0.019787975 -0.1005729 -0.012083701 0.06050948 0.1326732 0.10838828 0.13329664 0.04727074 0.04482273 -0.034283955 -0.019454846 0.03779126 -0.09198919 -0.025843438 -0.13480009 0.10780323 -0.13247481 -0.12300176 0.045438543 -0.18461826 -0.14995717 0.20906918 -0.13016908 -0.119352974 0.03877465 -0.15520117 -0.08696697 -0.111465245 -0.0720768 -0.10125901 0.016447859 0.0050416896 -0.07701941 0.113177 0.03187611 0.10905558 0.25742427 0.072031714 0.12885524 0.043924976 0.046854455
/person/actor 0.10037474 -0.017010609 -0.056212682 -0.13301598 -0.10816863 0.020335244 -0.030172668 0.079240344 0.090977825 -0.012527487 -0.03818277 -0.017686253 0.22534457 -0.12246859 0.09358594 0.18782943 -0.008038246 -0.005393294 0.06482831 0.13948375 0.16921939 -0.05396074 -0.049010158 0.039935496 0.08566499 -0.117826894 0.112240516 0.055546634 0.061814293 -0.05384632 -0.12605211 0.20596306 0.055715002 0.039411858 -0.008729876 -0.053824686 -0.02097384 0.04014109 -0.06028891 -0.0078067225 -0.20026314 0.04175173 -0.011496929 0.0034592098 0.14731853 -0.05193506 0.02266231 -0.085074216 -0.07547578 -0.04641539 0.14108287 0.24152498 -0.023328755 0.0006372457 -0.061180215 0.123007126 0.03355019 0.0070021716 -0.14887618 0.07892572 0.06403583 -0.13346252 -0.004826077 -0.20293723 0.20179336 0.1925939 0.024426525 -0.0014855956 0.03678823 -0.048999865 -0.087254666 -0.05143465 -0.050225828 -0.07235792 -0.13329956 0.08089189 0.07851403 -0.093271255 0.063241236 0.053113345 0.039043415 0.053802975 -0.12473976 0.0993403 0.05767276 0.3234157 0.009425515 0.0014346312 -0.009233114 -0.2820883 -0.026122656 -0.0021313746 -0.06864914 -0.028045438 -0.13173147 0.019944213 -0.11058798 0.04058391 0.044101257 -0.102759466 0.23498315 0.0749942 -0.08776555 0.058476653 0.01707122 -0.080425486 -0.053394023 0.01833908 0.046282623 0.23203988 0.012113436 -0.118592195 -0.1687041 -0.00842158 -0.04298629 -0.09882945 -0.004215091 -0.025446344 -0.094124004 -0.18751259 -0.037005022 0.0048252246 -0.032365125 -0.008515081 0.11511657 -0.15921928 -0.0481107 0.026099717 -0.09963915 0.21019416 -0.021702629 0.07357714 -0.06149559 -0.12655915 0.11495083 -0.13207729 -0.0005282713 0.023005174 -0.028268663 -0.07565439 0.17857738 0.12413824 0.09037248 -0.029998051 0.007387028 0.0935822 -0.02864239 0.061542347 -0.06983482 0.20546445 0.054811966 0.038713396 0.23101299 0.2109822 -0.036809802 0.065937094 -0.076684125 -0.027607584 0.11341647 0.17094219 0.020440472 -0.17036006 0.09077714 -0.14859095 -0.07089233 0.054285336 -0.13875033 -0.024054937 -0.010231737 -0.0026901686 0.08128876 -0.031576194 0.058221173 0.052258544 -0.10169359 -0.05321519 0.039885264 -0.115696065 0.050940443 0.042139795 0.16239902 -0.09171688 0.10815231 -0.09941194 -0.11530942 0.053119402 0.14341722 -0.086329155 0.17738372 0.026983619 0.09861499 0.07612617 0.024942068 0.10200602 -0.07090461 0.028604338 -0.023958186 -0.099311836 -0.103190914 -0.03898988 0.10284193 -0.2958773 -0.031170903 -0.100301884 -0.0376468 -0.042483132 0.25367084 -0.12740505 -0.17660262 -0.030107157 -0.14849322 -0.05798884 0.14743014 -0.03990227 -0.08735973 0.053147726 -0.040174674 0.060275167 -0.11014684 0.016171183 0.044193562 0.29447523 -0.01730045 -0.08574571 0.006922187 0.15521272 0.04335286 0.0029594551 0.012222455 -0.11086517 -0.06060569 0.081421785 0.005385494 0.028240243 -0.058152426 -0.007870503 0.1189683 0.066515006 0.06911175 -0.041620698 0.042034697 -0.021990586 -0.07734364 -0.114529945 0.041592598 0.0135895675 0.1120793 0.08600741 0.020147702 -0.12580536 0.0071574203 0.017723937 -0.091820374 -0.06651708 0.060533218 0.0020116235 -0.12304782 -0.0636476 -0.09566904 -0.091055095 0.009410041 -0.058688536 0.054736145 -0.0777305 0.06908084 -0.12153284 0.0824277 -0.00026374884 0.100767195 -0.28893492 0.22164401 -0.08060735 0.14572328 -0.13437748 0.07482945 0.06903656 0.1018486 -0.0068147313 -0.01965828 0.031974804 0.17514321 0.0052889227 0.030940747 -0.20673783 0.031735614 -0.0013941902 -0.08645001 -0.017288871 0.004030673 0.08775142 0.05905613 -0.1123239 -0.108046025 -0.06746143 0.18045062 -0.11406669 -0.013555555 0.043782797 0.036521737 0.08527338 -0.053670306 0.18753529 -0.015234787 -0.059273854 -0.08874541 -0.095051564 -0.025907231 0.011496061 -0.013075045 0.11610103 0.19523694 -0.060991947 -0.00026944658 -0.017147781 -0.053623304 -0.01962829 -0.1641319 -0.033666253 0.06291579 -0.016224092 0.017210273 0.010222187 -0.15153475 0.048698723 -0.042257316 -0.11512405 -0.13652569 0.035354447 0.012991156 0.079062834 -0.14246602 -0.020169567 0.048958488 -0.13531363 0.021791322 -0.0071638855 0.066337846 0.063723944 -0.015215835 0.016716681 0.08987207 -0.15489583 -0.02055665 -0.04113084 -0.15165488 -0.12558798 0.06683868 -0.07604283 0.0994517 -0.13505206 0.078833215 -0.005064171 0.002276504 -0.024665896 -0.0009974238 0.079278976 0.10763102 -0.020765327 -0.01946444 0.061882753 0.08092509 -0.03281999 0.27076283 -0.011072139 0.056240726 0.015410354 0.050925266 -0.087004 0.085101895 0.28828916 -0.04270223 0.08844588 -0.033183735 0.09229324 -0.088187166 -0.0052727596 -0.18188196 -0.100618675 -0.016698385 -0.11251071 0.13356689 0.037572723 -0.059159197 -0.016494893 0.08275064 0.041848466 -0.023516385 -0.13216648 -0.04838604 0.04834624 -0.022942541 0.055167146 -0.05896837 -0.16255951 0.05334776 0.089627355 -0.18565445 -0.13462056 -0.038750175 -0.048900682 0.060958415 -0.1214979 -0.16144168 0.18894221 -0.03272159 0.11782097 0.080177315 0.068861835 0.15686667 0.047964912 -0.06278594 0.040907994 0.10569433 0.016452804 -0.042350203 -0.10346049 0.049930967 -0.033018928 -0.17259382 -0.054438803 0.06940302 0.023622748 0.045896754 -0.045907464 -0.0900983 -0.10105174 -0.07638021 -0.05162018 -0.05305574 0.009465857 0.011164896 -0.16173828 -0.13113356 -0.042355705 -0.036829136 0.0508779 0.007041445 -0.13921864 0.09326242 0.24462773 0.0004904082 -0.028093718 -0.2049526 0.3419064 -0.19634421 -0.14840914 -0.03460578 0.10608039 -0.13707925 -0.15838225 0.05534611 0.19877519 -0.18626244 -0.12164038 0.19480231 -0.07550391 0.060926273 -0.120956674 -0.1763662 0.032717787 -0.20175253 -0.18371785 -0.01657786 0.051016748 0.18971889 0.12913044 0.015642237 -0.03624793 -0.01398204 0.07635281 0.13184534 -0.0720844 -0.024453847 -0.07474064 -0.08212983 0.07660294 0.03913774 -0.009098079 -0.2037488 -0.07792479 0.0760624 -0.12747222 -0.04896124 -0.06867983 0.121994495 -0.051593825 -0.03332889 0.1332624 0.06267065 -0.108051516 0.2283859 -0.095571585 0.026264524 -0.11999013 0.12226229 0.14722365 0.07184241 -0.007649403 0.07900078 0.0842839
/government_agency 0.011339376 -0.013076161 -0.09304494 -0.16975008 -0.1037131 -0.13975221 0.060553323 0.047159135 -0.056572907 -0.06330436 -0.090804614 -0.139005 -0.04660059 -0.06526394 -0.039855234 0.13181263 -0.02712966 0.032748964 -0.10301357 0.045977008 0.040743418 0.055184055 0.0103828525 -0.0127082225 -0.10442722 -0.04212633 -0.059887785 0.107610986 0.065694384 0.15483773 -0.032572377 0.053414874 -0.026302269 0.08656 0.04977344 0.15800041 -0.021456186 0.0373145 -0.08452822 0.1441165 0.08711279 -0.087975726 0.08105702 -0.06947612 -0.07590935 0.083422124 -0.01994741 0.064345576 -0.14712103 -0.03947985 -0.050430864 0.06418021 0.15689103 0.094712965 0.0011697349 -0.053272955 -0.10341541 0.008376783 0.0028797595 -0.15525052 0.0148462225 0.005234621 0.1029519 -0.0989873 0.08389476 -0.042360585 0.0019950175 -0.00063431397 0.20083201 0.16016082 -0.07493906 -0.09136487 -0.2443088 -0.055716127 -0.005133831 0.15457048 -0.028341664 -0.043604434 0.08440544 0.04721237 0.120587975 0.055810906 -0.18239775 0.07320048 0.03031861 0.117585585 -0.15264067 0.019710615 0.15264839 -0.16178651 -0.011226614 -0.024845075 0.1081665 0.099146105 -0.06314046 0.16341989 -0.08216039 -0.06572556 -0.22697072 -0.04196194 0.0867822 0.07829959 0.031935655 0.0139567675 -0.10019012 -0.22558992 0.076517165 0.032753512 0.009460496 0.10273611 0.0023975263 -0.08458966 0.050125122 0.0915503 -0.00577216 0.040748615 -0.1311552 -0.06983555 0.034908168 0.063083366 0.034272194 -0.01760845 0.039605007 -0.13101447 0.23083667 0.010308802 -0.19840509 0.20893651 -0.04668195 0.15819593 -0.12239005 -0.075721584 -0.11336148 -0.073824525 0.16738722 -0.2273545 0.09080231 0.2175008 0.054866068 0.25423542 0.0046612006 -0.13622628 0.036633503 0.0048422585 0.061989535 -0.019242397 0.022389932 0.10396973 0.11164741 0.051260334 0.06919767 0.036601096 0.1354204 0.036044486 -0.12396456 -0.07178623 -0.027603863 -0.043412384 0.22712754 0.003765148 0.15641363 -0.011821429 0.017570898 -0.14023523 0.03796835 -0.001753203 -0.13904499 -0.10021598 -0.103118196 -0.07756742 0.111676246 0.0037201843 0.20840253 -0.0955796 -0.062125828 -0.04027885 0.10094031 -0.0098027 0.06503739 -0.027296655 0.09425701 -0.10964878 0.021057855 -0.039676674 0.09947602 0.030844098 0.03897556 -0.13382998 -0.0415486 -0.07705827 0.09903744 0.039224207 -0.025712771 0.11942457 -0.08174128 0.10002898 -0.09769016 0.010282803 -0.06000548 0.0349475 -0.026570478 -0.12734787 0.042362906 0.005388394 -0.15790828 0.071498245 0.0709753 -0.052334268 -0.0055120112 0.07829257 -0.11486813 -0.05105042 0.052313477 -0.0067633945 0.05105456 0.14640789 0.026840393 0.05070025 -0.06282779 0.04395449 0.03551248 -0.07615169 0.09598114 -0.11307788 0.007143516 -0.05100855 -0.03820587 0.032916863 0.061495263 -0.109532155 -0.12048296 0.038780242 0.06427549 0.07421189 -0.05211744 0.02086199 0.0480701 -0.16324782 -0.1080674 0.100818 -0.03046256 -0.008003369 -0.02005143 -0.046208072 -0.085251644 -0.13221224 0.11018117 0.029225687 0.062190138 0.07204552 0.040907916 0.109972894 -0.13382438 0.037999738 0.12719046 -0.054990098 -0.0700828 0.018983765 0.07624029 -0.019749619 0.0011690977 -0.05106681 0.11837886 -0.045153264 -0.049219154 0.002574624 -0.0088609755 0.13591936 0.04433626 -0.15887442 -0.094965644 -0.14742967 0.007123298 -0.25722033 -0.062388502 -0.13649829 0.062060848 0.0963867 -0.009236458 -0.12948287 0.28384835 -0.13033316 -0.03399506 -0.12879004 0.115803465 0.012310345 -0.0894188 0.16681486 -0.010889275 0.07635139 0.11363803 0.09254099 -0.07543337 -0.07223083 0.22618651 -0.034402803 -0.23793606 -0.0053342776 -0.094121955 0.060817506 0.05569884 -0.0100056315 -0.13758388 0.031708796 0.02239773 -0.07483832 0.13250427 -0.16257808 0.08266208 0.014755638 0.15257618 0.053843226 -0.18265 0.07584225 0.2119206 0.036115047 -0.08048859 -0.14028555 0.037537687 0.12895267 -0.08832426 0.05766512 -0.063328154 0.030301925 -0.010941559 0.123538956 -0.22379431 -0.056141168 -0.0969515 0.112572305 -0.09120102 0.0046762973 -0.03308324 -0.092087336 -0.053308617 -0.15624182 0.016661651 0.04089288 -0.013134189 0.07931277 -0.13269918 0.03603024 -0.077209674 0.048882086 -0.01785864 -0.021488093 -0.11005657 0.103124395 -0.011401637 -0.07207919 0.0813555 -0.025278961 -0.094686404 -0.12254927 -0.0044218553 -0.045131456 -0.0025884574 0.1373932 -0.12014364 -0.022789188 -0.0041304645 -0.1259796 0.11964731 -0.11386206 -0.14933531 0.01575252 0.027687816 -0.093801 0.08407087 0.026086077 -0.0029569054 0.036006693 -0.032597024 0.004400225 0.034737878 0.021992091 -0.01356254 0.051551692 -0.044878986 0.07322917 0.035795763 -0.010962421 0.019072814 -0.109754816 0.14257391 -0.05292125 -0.07883974 -0.07770675 0.079108596 0.04401148 -0.0758027 0.013703083 -0.0654692 -0.0677446 0.0025232271 0.068269305 -0.12855119 0.013801618 0.024048615 -0.17813012 0.07922785 -0.1451508 0.08737968 -0.0050851903 0.04859393 0.110835604 0.08346891 0.0040291413 -0.060467497 0.15013753 -6.9424554e-05 0.091890104 0.0014197875 0.15321057 -0.17255439 0.06641541 0.095131874 -0.07881456 -0.064712405 0.08856898 -0.18918304 -0.061512075 -0.012954946 0.09218668 -0.12828887 0.0050358367 0.0318258 0.024406292 0.13401932 0.00028699366 -0.03218181 -0.15590644 -0.16940223 -0.09421576 0.06486232 0.1141153 0.03232691 -0.07515755 -0.002988669 -0.042469274 -0.16796461 -0.04669357 -0.13999401 0.0005617936 -0.09521907 -0.17371587 -0.05633754 0.042748563 -0.16367266 0.031991888 0.024842467 0.18727116 -0.067708656 0.047925945 0.01444899 0.07725965 -0.089664504 0.05606633 0.15090284 0.004965692 -0.18565707 -0.072347365 0.042960197 -0.057375196 -0.049714826 -0.019525189 -0.057705533 0.15011331 -0.0167776 -0.079848446 0.047388885 -0.12968637 0.0773386 -0.10584083 0.089899555 0.031614166 -0.0477081 -0.09376461 -0.07651233 -0.015069068 0.038241792 -0.1420143 -0.021735175 -0.056919314 -0.081327744 -0.05051027 -0.121604264 0.05452816 -0.06436132 0.114690825 0.049298838 -0.091172904 -0.011196493 0.0712017 -0.042408463 0.2365668 -0.06177225 0.06861798 0.042565014 0.09270484
